0.17367426 -0.95144445 -0.8793115 0.77756613 0.20687796 0.73956954 0.71259385 0.59660566 0.3256444 0.16119756 0.69624233 -0.90211046 -0.03790885 0.9481104 -0.2747938 0.80196226 0.78119123 0.5428337 -0.79330766 0.5255344 0.58127415 -0.28990626 0.8939913 -0.048820052 0.78242546 0.757583 0.83845985 0.5265946 -0.6231006 0.075648464 -0.57601976 -0.43670094 0.19687012 0.87693363 -0.4313736 0.064730816 0.8121464 0.33767605 -0.8302184 0.742164 -0.891535 0.6201721 -0.77919996 -0.5888462 0.5906708 0.659877 0.5819186 0.3010888 0.2187368 0.2688116 -0.4354645 -0.44797307 0.9619738 0.49681905 0.54591715 -0.25306377 0.8092299 0.12439366 0.9760149 -0.8422723 0.7919818 -0.3229822 0.33703962 0.12683842 -0.9471883 -0.79077905 -0.32719466 -0.04572067 0.5889073 0.6254982 0.27391368 0.11431451 0.09028403 0.4017584 0.41106674 0.59061944 0.5855091 -0.73468256 0.22672188 0.58086526 -0.5087423 0.516116 0.11982165 -0.8019145 0.6551019 0.6375557 0.5427176 -0.2745774 -0.78308 -0.9862389 0.15341486 0.32259893 0.9413416 -0.71289015 -0.61089134 -0.4123606 0.59953505 -0.47414204 0.009079919 0.2947977 -0.91738445 0.876365 0.50446093 0.6874079 0.4469346 -0.32177663 -0.8357623 0.4397691 0.30824986 0.60436213 -0.25855544 0.2724617 0.06583058 0.8226803 -0.6973562 0.16396336 -0.11951793 -0.94611835 0.27107343 -0.33541542 0.90235543 0.15813553 0.34229425 -0.573695 -0.2621242 -0.2921944 -0.64555997 0.06987327 -0.8152412 -0.7821136 0.47326106 -0.8134806 0.60809547 -0.3246633 -1.0087218 -0.9699581 -0.38237262 -0.82270664 0.20740712 0.30406427 0.41259563 0.26185468 0.025956508 -0.98113126 -0.20846266 0.18287106 0.8898467 -0.6724533 0.6557452 -0.4939384 -0.80517083 0.46167853 -0.22667773 -0.22913891 0.07108516 -0.24347474 -0.92439014 -0.08925047 0.30890322 -0.78433806 0.7621308 -0.9618317 -0.8928359 0.9054314 -0.85754985 0.08416739 -0.94068795 0.12844473 0.55585694 -0.54526526 -0.7914838 -0.9853073 -0.96593773 0.07426701 -0.7984521 0.8194794 -0.2916146 0.35192272 -0.46492404 0.8731511 -0.59787154 0.52367395 -0.020856638 0.13320763 -0.044002555 0.8457577 0.31117034 0.5146368 -0.43671808 -0.026503092 -0.10302928 -0.821347 0.5869627 -0.45856252 -0.82614446 0.002280609 -0.18179105 -0.5326414 0.18055736 -0.8218826 0.72193897 0.5965113 0.7291533 -0.994309 -0.9595659 -0.9401069 0.21746868 -0.51864916 0.54759896 0.32009554 0.54298717 -0.8942337 0.11225431 -0.22875635 -0.570178 0.35735565 0.70511913 0.9000529 0.43809196 -0.2547114 0.3995504 0.031091457 -0.60074323 0.8913239 -0.59898 -0.55069655 0.77170193 -0.49331173 -0.5735039 0.6360152 0.60528445 0.047248445 -0.8753713 0.8291382 -0.95688945 0.84648496 -0.70978385 0.66260624 0.6226375 0.41724607 0.5963463 0.961991 0.825613 0.9802487 0.14088541 0.5890266 -0.51345485 0.95639056 -0.79807645 -0.762506 0.53238404 0.7453087 -0.7511456 0.47564027 -0.49638328 0.6333216 -0.020636158 0.76123995 -0.51183623 0.92544764 0.04948433 -0.3651073 0.06352644 -0.10322548 -0.5943049 -0.6831136 0.20441817 0.69378424 -0.6806827 0.79296935 0.4226173 -0.21757638 0.45000592 0.74815714 0.877654 -0.04114719 0.4418538 -0.047887597 0.047989983 -0.93224794 -0.5737383 0.5313826 0.9206751 -0.22988896 -0.16458976 -0.43409762 -0.45149073 0.20284277 0.7117242 -0.2849865 0.32070905 0.54667026 -0.47026762 0.08835231 0.40231308 0.3814247 -0.7740672 0.027437398 -0.14808191 0.7435879 0.26666537 -0.19322759 -0.5324732 0.6770566 -0.0273601 0.6432449 0.110912636 -0.13389532 -0.35883576 -0.48211184 0.36029476 -0.7804441 -0.36736214 -0.80768496 -0.8949037 0.23105802 0.99758196 0.4413696 -0.16344903 0.6335307 0.38620353 -0.16140628 -0.80713177 0.19460942 0.5336747 0.2782463 -0.38115555 -0.33531815 0.73838556 -0.97963476 -0.78140485 -0.40800664 -0.8814949 -0.7457717 -0.35880712 -0.03247231 0.7093081 0.82637405 0.6545105 -0.62011707 0.96372956 -0.54326254 -0.20961304 -0.23555498 -0.88650453 -0.5049468 0.6461126 -0.97748154 -0.26261055 0.6855049 0.205386 0.21097285 -0.06470913 -0.37377036 0.049374223 -0.95912486 0.7703734 0.30446708 -0.79726905 0.26200944 -0.606178 -0.20739812 -0.65967876 -0.8297712 0.060561303 -0.5211331 -0.58053344 -0.6317884 0.39049858 -0.107539594 -0.58770657 0.41475138 0.46769363 0.32494384 0.17718223 0.8867549 -0.6650087 -0.79365855 -0.70276266 0.9791779 0.25423402 0.97888815 -0.11202099 0.4623818 0.4972393 0.9760128 0.73698556 0.41465575 -0.3892639 0.70375675 0.3901676 -0.9034613 0.5351883 -0.61815596 -0.74686986 -0.7905382 -0.609792 -0.22363703 -0.6739097 0.9531327 -0.91447115 0.07564268 -0.56039524 0.25896627 0.3284951 -0.7168484 -0.5959162 0.38114342 -0.35768995 0.3571664 -0.30630296 -0.8181673 -0.94982195 -0.442974 -0.25378343 0.4091965 -0.035174053 -0.93078345 -0.17728624 -0.42838728 0.8655348 0.23298228 -0.8055102 0.42867953 -0.3353702 -0.13980295 -0.847577 -0.91488755 -0.8725801 -0.1490177 -0.0010509834 -0.4039851 -0.3835892 0.4317347 -0.08329297 0.9406096 0.30853337 0.6788181 0.040450383 -0.10395537 0.20424263 -0.1355824 -0.2136311 0.9777816 -0.3902061 0.5824472 -0.16072482 0.3912029 -0.47903845 -0.59090614 0.366372 -0.04744028 0.22089507 0.18551496 -0.8769928 -0.31102258 -0.76803315 0.2484992 -0.09849058 0.45183754 -0.57490355 -0.65513533 -0.36366606 -0.6526331 0.0412722 -0.60987866 -0.6525883 -0.37628868 -0.90507394 -0.52659476 0.78599477 -0.60909736 0.27533948 0.40670955 -0.07634001 0.046297327 0.38135853 -0.85046685 0.75669646 -0.3893098 0.0072618653 0.16028623 0.43127307 0.69022983 -0.06974875 -0.6582332 -0.16950795 -0.6347152 0.2553067 0.8200543 0.149904 0.9540767 0.44859597 0.7924348 0.67350227 -0.06805521 -0.49790788 0.28039947 0.07302094 -0.92681086 -0.17170796 0.40252486 -0.74039596 0.76902384 0.30185327 0.25260755 -0.47127894 0.47680295 0.88385254 0.132523 -0.5853909 0.18549584 0.014873651 0.3761636 -0.82668567 -0.09592241 -0.18241096 -0.8267169 0.160803 -0.5992895 -0.50501704 0.9717738 -0.14191085 0.64255506 -0.80301493 -0.48069283 0.9538612 0.28113428 0.27627522 0.13584392 0.08088254 0.77058077 -0.21188249 -0.67271924 0.86545825 -0.002082773 0.36995298 0.7618233 -0.6753864 0.6126329 0.75851697 -0.9910277 0.13402954 0.2024128 -0.08261597 -0.36759555 0.9816996 0.6674273 -0.38094676 -0.19979626 -0.7732337 -0.63744473 0.72377706 0.60810274 0.19035101 -0.66746 0.6643649 0.9051528 -0.2939962 0.46703702 0.106170416 -0.05676469 0.19077308 -0.2644546 0.79395425 0.90968 0.78069437 0.9878392 0.7321579 -0.4858146 -0.5929066 0.71228784 0.8848225 0.581591 0.13232526 -0.88268435 -0.23487304 -0.42654216 0.012283294 -0.5550701 -0.46601805 -0.9745935 0.057952635 -0.70850176 0.43329707 -0.14495182 0.2787675 0.066361606 -0.69022864 -0.8714788 -0.13942915 -0.8672082 -0.5109009 -0.39461267 0.76297826 -0.7852679 0.96734166 -0.5366583 -0.679121 0.11780674 0.4912059 -0.49821588 -0.07604523 -0.14985205 0.8866717 0.9289438 0.95973027 -0.3057832 -0.51758856 0.72833526 0.27596924 -0.39271498 0.86805004 0.87179047 0.9016163 0.26956847 -0.77097106 0.572256 0.7695689 0.7775847 0.30487525 -0.52466017 0.12913224 0.68500155 -0.65928304 0.6534276 -0.12881465 0.7872373 -0.07499185 0.86126804 -0.83644575 -0.17793515 -0.47400317 -0.7760644 -0.14292969 0.15778723 0.5468574 -0.2939693 0.71447515 0.24287169 0.9858925 -0.846251 0.9257773 0.29092124 -0.92595834 -0.96805984 -0.14958823 0.38297653 0.47392747 -0.44869363 0.33624148 -0.053919677 -0.8017358 -0.8486617 -0.8160504 0.366654 0.67142045 0.21060605 -0.41378215 -0.64891565 -0.9616062 -0.38413632 0.75221896 0.693468 -0.60229033 -0.9323724 -0.37747753 0.70964426 -0.88745415 0.27002203 0.8564059 0.348291 -0.085502714 0.007231483 -0.5189482 0.53885245 -0.7964416 -0.70584464 0.08392024 0.22315006 -0.82242334 0.573835 -0.88299024 -0.55573046 0.76249844 0.12602344 0.25244203 0.49973872 0.77119684 -0.05934508 -0.50406456 0.8960759 -0.9176557 0.77199364 0.71307164 -0.5558623 -0.44783056 0.6511777 -0.6091018 0.6939754 -0.58971983 0.5909889 0.56287956 0.22465453 0.76060873 -0.15342025 -0.03175815 0.25711438 -0.2639986 -0.7819938 -0.47454298 -0.6158473 -0.70484674 -0.6612439 0.12867998 -0.13834347 -0.8694322 -0.6530127 0.008741948 0.58764637 0.41914517 -0.63077915 -0.6357252 0.82149136 -0.40380448 -0.9118608 -0.37490526 -0.783306 -0.20359091 -0.8444295 -0.6752557 -0.029538587 -0.92381126 0.4732293 0.6522045 0.3677155 -0.833214 -0.15684359 -0.38557467 0.045909096 0.14762202 -0.19216353 -0.66774833 -0.85939497 -0.039858606 0.76982 -0.14228836 0.27137148 0.25605193 -0.7877789 -0.8469094 -0.65972126 -0.54285395 -0.9003332 0.8132995 0.30909863 0.8503727 -0.35483846 0.7079315 0.6760818 0.73555094 0.9344266 0.5958889 -0.54910105 0.13229246 -0.1929453 0.39102882 -0.102948904 0.6997368 -0.23742017 -0.07531141 -0.3943798 0.19351101 0.04076174 0.22023703 -0.565536 -0.7030335 -0.03104782 -0.7875999 0.9618698 -0.97318447 0.9112769 -0.3981615 0.5524418 -0.28440735 0.8515245 0.7653117 0.17235972 -0.59054303 -0.29271895 0.54966104 -0.34282687 -0.62916064 -1.0076364 0.34921837 0.53602165 -0.5870568 0.5973919 0.38692775 0.0054413485 0.4132376 -0.06853321 0.86270946 -0.9572885 -0.17046225 -0.9857056 -0.43621248 -0.5692786 0.3833413 -0.6057483 0.6474864 -0.0023154 0.39796546 0.064928636 -0.38839605 -0.057707585 -0.990415 -0.9619726 0.5787984 0.89371324 0.0025074854 -0.29550198 0.14284466 0.12280265 0.007938244 0.49928018 -0.76356816 0.122537605 0.27846256 0.92248344 -0.06000262 0.06291709 0.59259695 -0.9298756 0.8446958 0.5503615 0.5454581 0.059742898 0.9672291 -0.94572115 -0.879289 -0.3029589 -0.702062 0.40104195 0.7918944 -0.21907552 0.4523076 -0.678768 -0.59870905 0.5072764 -0.39703065 -0.15539174 0.4036755 -0.43349972 0.082995206 -0.8415635 0.23376675 -0.77174133 0.22987379 0.9890948 -0.14709364 -0.52899545 -0.23205535 0.71288866 -0.72150904 -0.55277854 0.23169623 0.40659827 -0.4110154 0.16578071 0.11085532 0.6035113 0.67925483 -0.693502 -0.14921807 -0.22734728 -0.40153188 0.0027657256 -0.69013447 0.91552395 0.97147053 0.41189963 0.37345585 0.95001835 0.63368726 -0.82038635 -0.6010527 0.36656532 -0.013588847 0.9243371 0.15868856 0.41291296 -0.85649437 -0.69863325 0.8771387 0.56266266 0.97214675 0.31998065 -0.43550092 0.9975603 0.40053782 0.32406342 0.29844958 0.022200735 0.346036 -0.42739376 0.2210632 -0.58623403 -0.54980946 0.37124756 0.43356422 -0.9804215 -0.10592018 -0.7636912 0.6935616 0.68397826 -0.3544572 0.60796285 -0.81147116 0.030446429 -0.71343946 0.506833 0.43787444 -0.084010325 -0.4111992 -0.9363725 0.6257295 0.33189803 0.48476008 0.9407875 0.43018 0.78704166 0.3834856 -0.8089024 0.27327618 -0.5828496 0.4754275 0.7164428 -0.36778173 -0.16487247 -0.8553491 -0.8183405 0.9460379 0.69647366 0.009070441 0.73215115 -0.37966755 0.96276647 0.98019636 -0.58671314 -0.24693137 0.90755147 0.46424434 0.12585641 -0.17219642 0.39523673 -0.14572684 0.6142896 -0.5158741 0.70805806 -1.0050629 0.16458838 -0.33658394 0.49004698 0.8098337 0.21538243 -0.9401052 0.05758334 0.46106705 -0.6578613 -0.3020616 0.58241063 0.6535071 0.3794486 0.3425169 0.6806338 -0.30882823 -0.56130016 0.07246478 0.4102933 0.6611513 -0.70272905 0.6068525 -0.9929032 0.75313944 0.2681282 -0.86248076 0.06163905 0.4481378 0.123974025 0.552722 0.7882466 -0.8020943 0.10984391 0.42331186 -0.9466269 -0.6511759 0.9441753 0.4689121 0.33677232 0.6529238 0.1996862 0.1428979 0.0046153357 -0.6828807 0.5275373 -0.374647 0.008107938 -0.95469123 0.408678 -0.677987 -0.16856283 0.48371562 -0.34287673 -0.23121905 0.45149794 -0.23613796 0.28649068 -0.0010232506 -0.7150567 0.90000093 -0.49892247 0.79910266 0.50295013 -0.602582 0.07502907 0.19731095 -0.27064323 0.8391474 0.6257761 0.5702772 0.21330479 0.46487674 -0.29242474 -0.146407 -0.26483294 0.89746815 0.081421874 0.2291152 -0.35448924 -0.55248326 -0.7397063 0.73581576 -0.28766963 -0.69029784 -0.4407633 -0.0017615624 -0.1568638 -0.84535354 0.47333324 -0.54042286 0.5425076 0.51649404 0.8444053 -0.17059644 -0.6260801 0.6981577 0.15413749 0.37595427 0.48574212 0.24924347 0.36835375 -0.047854748 -0.33207464 0.298373 0.39079332 0.9600588 0.5217704 -0.1833739 -0.06272146 -0.7134971 0.086176835 -0.93986243 0.02112656 0.5863496 0.31459972 -0.57276887 0.45853004 -0.97998405 -0.23018555 0.31428012 -0.6236463 0.49163413 0.11520132 -0.8102054 0.21143422 0.047909953 0.055480916 -0.8704827 -0.76151663 0.8762526 -0.77827865 0.9795728 0.39615795 -0.9551148 -0.51245874 0.46255076 0.08376625 -0.4403152 -0.6212909 -0.0697125 -0.7124936 -0.97696865 0.3715606 0.0049273837 0.9055762 -0.37091094 0.866318 0.2636362 0.5673751 -0.7243478 0.66605026 0.54430574 -0.87759715 -0.86507183 0.26978552 0.039416417 -0.5051544 0.14394234 0.07142401 0.100288585 0.88098395 0.06875528 -0.6573572 0.7117783 -0.7313984 -0.22452538 0.79686034 0.63705367 0.97593313 -0.42313966 0.31164485 -0.25503993 -0.8991502 0.87018 -0.011534055 0.24862355 -0.7868039 0.25361237 -0.44808412 -0.36432984 0.56830937 -0.072256565 -0.5048741 -0.2076812 -0.2050201 0.109285004 -0.02136662 0.1919248 -0.63163227 0.42750764 0.5918664 0.35646856 0.19730896 -0.75024205 -0.2775627 0.33381748 -0.9031257 0.4741869 0.467474 0.7771592 0.81020373 -0.27841336 0.120945245 -0.38399994 -0.06031889 -0.04351232 0.32413456 -0.23474154 0.57480943 0.49767187 -0.8495706 -0.101050146 -0.45617914 0.7320289 -0.069542855 -0.8198704 0.7713344 -0.47271886 0.4025191 -0.47949368 0.05759551 -0.022802444 0.12124287 -0.024057541 -0.9159316 0.7987574 0.4088859 -0.42685616 0.7005373 0.43489835 0.4657964 0.9509076 0.7859253 0.87929034 -0.2763493 -0.018919632 0.9878408 0.8585523 0.385041 -0.13204466 0.2063447 0.045660097 -0.7929636 1.012739 0.58657545 -0.741242 -0.80070215 0.33022326 -0.91875136 0.75557256 0.7009605 0.22910357 0.6352236 -0.7285095 -0.18431884 0.8313009 -0.050277695 -0.21098018 0.073563576 -0.8408311 0.81455547 0.09266202 -0.7841579 0.50725025 -0.56057054 -0.18324102 -0.3576266 0.29282248 1.0054505 -0.47711286 0.004818916 0.7789964 0.31521463 0.7593303 -0.23377745 -0.79312897 -0.8369944 0.76053137 -0.46084094 -0.08894277 0.27228934 -0.53608936 -0.9368895 0.744787 -0.34412947 -0.62706405 0.49062955 0.7795485 -0.92640996 0.19313778 0.34333086 -0.74626 0.2686978 -0.8051844 0.6580399 0.12892422 0.8912378 -0.12719458 0.6461145 0.078166485 0.9786893 -0.7416705 -0.72562575 -0.6933219 -0.39067551 -0.13512655 0.62490565 -0.6003717 -0.5284293 0.6242696 0.109740265 -0.82960457 -0.19203512 0.508191 0.43798697 -0.023165407 0.22175737 0.53503007 -0.6922583 0.4131022 -0.593918 0.6432359 -0.19881599 -0.6921879 0.74256265 -0.91557556 -0.2068801 0.024373034 0.74439484 0.050474066 -0.22883014 0.5501382 -0.36444718 -0.28385603 -0.9476305 -0.48172772 0.12676392 0.611505 -0.37725314 0.5821783 0.38528234 0.5912114 -0.9768471 0.4398062 0.6301835 -0.78649706 -0.96955115 -0.51471335 0.5492076 0.1602347 0.06607043 0.16277397 -0.30704695 -0.45585102 0.714164 0.69609416 -0.7997652 0.43075958 0.38371223 -0.5446474 0.48394662 -0.83576405 -0.8537009 0.31885025 0.3697688 -0.39511925 -0.6885912 0.31532368 0.5376326 -0.3960545 -0.15060914 -0.26012915 -0.1533448 0.26582766 -0.022551965 0.4000662 0.23334037 0.555431 0.79954445 0.8790816 -0.780113 -0.7549018 0.8753255 0.64743155 -0.30305544 -0.18104145 0.9480002 0.29258218 0.5337089 0.73695755 0.33019045 0.027797898 0.8898031 -0.430929 0.6525726 -0.9572042 -0.7979872 0.103031695 -0.9194918 0.27855477 0.44509107 0.22441076 -0.33267993 0.516017 -0.16671742 -0.10174399 -0.30158955 -0.38435724 -0.066007316 0.5143443 -0.33845016 0.5591987 -0.9092843 0.7236879 -0.07338777 -0.9421064 0.750784 -0.32433107 -0.94060844 0.5648228 -0.3627499 -0.9319587 0.20143105 -0.5412459 -0.072115816 0.8417504 -0.1675031 1.0126619 -0.58800477 0.7164075 -0.7285796 -0.23444188 -0.6007558 0.60201573 0.72981334 -0.010527736 -0.026302982 -0.45976654 -0.38597485 -0.12532698 0.1086371 -0.8708998 -0.84546816 -0.2620765 0.68948615 0.6677749 0.5372648 -0.49391526 0.20918147 0.005720295 0.994443 -0.2937033 -0.074667186 -0.056306623 0.8686537 0.3181582 0.45656323 0.70225567 0.66293824 0.8625128 -0.6887089 -0.15112762 -0.9316142 0.70508975 -0.3854477 0.43649423 0.183675 -0.0124678025 -0.13988286 -0.09615196 -0.9770303 0.323914 -0.10383635 0.5282683 0.90028304 -0.31334278 0.1865585 -0.6576044 -0.316721 0.9878232 -0.09482608 -0.318707 -0.8471824 0.112482026 -0.39506 0.7255275 0.18403782 -0.87974244 -0.38052252 0.5978493 -0.4761028 0.6831483 -0.9029496 -0.9998673 0.5722459 0.18448634 -0.03420554 0.5546785 -0.7146968 0.6917195 -0.39842248 -0.69992024 0.0948867 0.7411044 -0.29248375 -0.976211 -0.6233297 -0.26954868 0.9866459 -0.25120255 -0.90683615 0.38996735 0.08153121 -0.24400124 0.21359879 -0.42425296 0.9500303 -0.3322802 -0.5588536 -0.5310531 -0.6763641 0.6758164 0.13599482 0.77049047 0.1108471 -0.45613894 0.18831232 1.0106498 0.22929184 -0.95838624 0.025337577 0.8583094 0.72656375 -0.18535897 -0.13410652 0.45998833 -0.9579539 -0.86837643 -0.51266706 -0.44237548 0.8469178 -0.35538295 -0.21470568 0.82864517 0.32728037 0.16952163 0.41644073 -0.61864537 -0.32193685 -0.020757321 -0.3105815 -0.1446702 0.35631964 0.25792477 0.6280009 0.07027757 -0.75856626 -0.2785547 -0.01480967 -0.8444534 0.80718523 0.36178088 0.49163198 -0.24486819 -0.0012255297 0.93060595 0.033499923 0.6504643 0.13515337 -0.22135937 -0.50723356 -0.84755415 -0.4170505 0.37832984 0.5861982 -0.6079965 -0.22515424 0.387537 0.8741385 -0.7464732 0.018213838 0.24171269 -0.3502111 -0.13622649 -0.38279873 0.16185604 0.102921695 0.8580213 -0.9622474 0.57307976 -0.38808557 0.4020795 0.50343585 -0.11728312 -0.613649 -0.4821511 -0.8552649 -0.45164123 -0.30054733 -0.3255728 0.39794785 -0.16863015 -0.013350166 0.93443847 0.945714 0.23158126 0.8285263 0.05248669 -0.7953307 -0.6327455 0.3969009 0.97858137 0.98353213 0.6713061 0.37142769 0.9880536 -0.92619395 0.8460009 -0.07482767 0.5124197 -0.32256818 -0.21081969 -0.8597705 0.5365611 0.19027802 0.1513641 -0.4322538 -0.27889013 -0.23753817 0.29225114 -0.8963533 0.44178206 -0.25561944 0.028323099 0.9551055 0.09718874 -0.90247786 -0.04016263 -0.38581938 -0.57036316 0.6130085 -0.8829338 0.6611835 0.6566788 -0.9958225 0.8125325 -0.6953853 0.95111006 -0.041300256 0.7646318 -0.92026997 -0.037356976 -0.86974585 0.7350062 -0.012420281 0.94038516 0.03141055 -0.9548582 0.5451797 -0.7692006 -0.58796215 -0.5562551 0.6697268 -0.23598818 0.5236897 0.5616752 0.79726464 -0.43529567 -0.6842163 0.7210104 -0.9592216 -0.9683635 0.17043044 -0.47203746 0.83616036 -0.09871824 0.93200123 0.40895724 -0.9128934 -0.6220451 -0.693253 -0.77719367 0.39434275 0.62205994 0.2745104 -0.27499688 0.43806738 -0.71643263 -0.12141731 -0.5704267 0.38593286 0.17570224 0.31804657 -0.86651206 -0.4349043 0.85226864 0.6434906 0.77659124 -0.15833195 -0.0014875133 0.31858316 0.296601 0.85691226 0.8978003 0.16770001 -0.115076266 0.53891754 0.5569549 0.3012883 -0.021412361 0.6308207 -0.5911501 -0.7482919 -0.4861924 -0.0032525852 -0.2574404 -0.17930265 -0.39194188 -0.03234158 0.68456733 -0.5692889 -0.87945515 0.30838928 0.03726981 0.35631233 -0.662856 -0.11423251 0.26173612 0.52371997 0.67321926 -0.034700498 0.08471653 -0.39385235 -0.33815107 -0.5508498 -0.9269512 -0.5953598 -0.793001 -0.70879894 -0.9832441 -0.0990776 0.06735022 -0.24632467 0.5964053 0.8158398 -0.03601614 -0.7657267 0.99067837 -0.4738803 -0.10442617 0.7660927 -0.37513173 -0.46254063 0.9941904 -0.51218736 0.92609686 0.059653502 0.01210211 -0.28252783 -0.73787683 -0.56056535 -0.17624058 -0.8816685 0.6614419 -0.6282632 0.08921083 0.8406087 0.92243403 0.384114 -0.9212585 -0.9460664 0.60814214 -0.7785668 -0.7318215 0.04176415 0.568058 -0.7151727 -0.13946709 0.015103425 0.9843007 0.33917516 0.35412842 0.112871006 -0.055153996 -0.2296474 0.32397273 0.8090059 0.44274294 -0.49437085 0.96296185 -0.3051094 -0.8159205 0.5584894 0.57716095 0.43404314 -0.19114256 -0.07863925 -0.3281901 0.1491114 -0.36235404 0.9199899 -0.67449427 -0.32478946 0.51061225 -0.71325207 0.17044134 -0.25224033 0.77646965 -0.1575278 0.956533 0.48611313 -0.8515615 -0.48301208 0.23583071 -0.42106068 -0.61005807 0.1262714 -0.9793419 -0.48296013 0.6377776 -0.42677993 0.2288232 0.1801991 0.8801723 -0.054862864 -0.91065836 0.9813825 0.1281505 0.06632719 0.97890836 0.78728336 0.18881887 -0.6268554 -0.13063392 -0.16810943 -0.58953625 -0.18005326 0.7120338 0.5180313 0.6781439 0.007840733 -0.6643961 0.56693625 -0.9759509 -0.32415766 0.57519734 -0.44537753 0.41479537 0.07440328 0.6842005 0.596914 0.030296756 0.7586547 0.1803179 -0.16677786 0.34546715 0.30498308 -0.7199418 0.93416 -0.5779574 -0.43235093 -0.7103021 -0.6954707 0.0054071606 0.22464299 -0.8764965 -0.17155944 0.45608738 -0.079579614 -0.98595226 0.835761 -0.7148214 -0.53900474 0.63757664 -0.28957376 0.08819901 -0.3215771 -0.33831868 -0.412905 0.948339 -0.6107102 0.94004554 0.063124366 0.15554632 -0.1527451 0.026019901 -0.9299031 0.8280429 -0.9492497 0.67227554 0.31305796 -0.49205875 0.6620337 0.27715912 0.47025815 0.89013755 -0.13576537 -0.16261363 -0.6894682 -0.648029 0.83854413 0.6049249 0.45201313 -0.3159169 -0.8809981 -0.2030299 -0.57525885 0.53228444 -0.5481099 -0.26554433 -0.7744435 0.80414647 -0.5558335 0.23495992 0.7219179 0.97751087 0.6993903 -0.8201407 0.44276986 0.24716835 -0.73394585 0.31538656 0.0075167445 -0.8878352 -0.23719272 -0.14553273 -0.14996701 0.08213356 -0.3455416 -0.062211476 -0.36802015 0.09325305 0.117513046 0.47815698 -0.5993435 -0.14158095 -0.0089815995 -0.058803335 0.7830004 -0.84486115 -0.6206202 0.8279642 0.4613273 -0.78215396 -0.5393108 -0.43118408 0.23546854 -0.52338326 -0.33556202 -0.19942717 -0.98369235 -0.0977844 -0.86365837 0.28143546 0.72749 0.13993452 -0.7699752 0.26061326 -0.6661129 -0.031616062 -0.0885023 0.8668257 -0.6573093 0.17571011 0.800536 -0.30698523 -0.8875564 0.5062099 -0.353825 -0.40169415 0.6031079 -0.65817595 0.47296286 -0.008579521 0.3175315 0.23385762 0.8889675 0.8749955 0.43041107 -0.1583911 -0.9924393 -0.13253444 0.945405 0.88522625 0.5815156 0.06943236 -0.047051504 -0.23427065 -0.5809348 0.10222638 -0.6837961 0.9908594 0.23728342 -0.68702245 -0.59029096 0.24658822 -0.25127313 -0.22608586 0.6890736 0.25178805 -0.66128623 -1.0046542 -0.647995 0.018012045 -0.7681622 0.43802384 -0.45233083 0.32007715 -0.37195155 -0.98989516 -0.56278944 -0.62658024 0.27256888 -0.60755664 -0.44577578 -0.6098449 0.51783454 0.3951306 -0.71821225 0.35926768 0.77301204 0.41635928 0.5205852 -0.52468544 -0.94310474 -0.43328217 -0.55707103 0.16862617 -0.72685415 -0.8118365 0.5412257 0.16599728 0.4937565 -0.7968901 0.53355247 -0.7321475 -0.8233043 0.6915828 0.4738119 -0.52651006 1.0103554 0.48018605 0.7374671 0.73751557 0.42431808 0.7563261 0.74493223 0.7992532 0.28985703 0.88055974 0.84100413 -0.0068308944 0.7695137 -0.6834917 0.93593866 0.6543405 -0.90465534 0.02171812 0.15616447 0.0035973785 -0.40148076 0.7820101 -0.667457 -0.47360876 0.38382778 -0.19845504 -0.88854533 0.4532556 0.024535187 0.13685681 0.96014655 -0.55155 -0.71030736 0.7400455 -0.34341928 0.92769915 0.27794534 -0.43280315 -0.5795292 0.38815913 -0.2901117 0.41177085 -0.0975823 -0.32017776 -0.81614053 0.37546954 -0.114464626 -0.1279588 0.7300997 -0.85593545 -0.6263501 -0.9602629 0.30125007 0.41451734 0.6736339 0.4562402 -0.18987302 -0.19559805 0.4583864 0.5397935 -0.31717986 -0.4500129 -0.69214267 -0.9924023 -0.7245048 -0.042347364 0.5557276 0.51232237 -0.21917902 -0.09092133 0.032145195 0.7215404 -0.1090598 -0.64468515 0.6993663 -0.7794853 -0.64926857 0.3793371 -0.58309036 -0.10453779 -0.62271595 0.71332294 -0.84792274 0.28073373 -0.17657186 0.23580326 0.35300076 0.0023339416 0.33197397 -0.8526341 0.72213864 0.79855865 -0.91631526 -0.67604613 -0.29148272 -0.0037724907 -0.5918295 -0.61925477 0.20712145 0.063834056 0.90984046 0.7433613 -0.6106372 -0.04180479 0.515347 -0.7122912 -0.73852515 0.5844568 -0.34682518 -0.17972632 -0.009093045 -0.5302075 -0.33537194 -0.6715518 -0.108690925 0.23815928 0.3031929 0.044631876 -0.8367656 -0.2219026 0.944036 -0.61552584 0.12482976 -0.49941593 -0.9442175 0.46144366 0.29703897 -0.13198474 -0.46181938 -0.65826374 0.6864118 0.08376301 -0.5056052 -0.57415986 0.8546172 0.9886948 0.24880382 0.94269246 -1.0015336 -0.054046176 0.541577 -0.14229874 -0.8681774 0.8188254 0.43932 -0.8625175 0.1939468 0.8497128 -0.63166404 0.2893602 0.59257466 -0.93607765 0.2439609 0.26088107 0.44944865 0.22899278 0.9063128 -0.8690271 -0.83617395 -0.84784263 -0.7149368 0.7648633 0.9789859 0.93617475 -0.33046788 0.18457028 -0.3887768 -0.044851094 -0.7736867 -0.7740402 -0.092613496 -0.39040947 0.3064404 -0.8765328 0.60627836 0.61717975 -0.5445058 0.73821 -0.692776 0.730367 0.3550878 0.9637733 0.07468387 -0.18634272 0.31192866 -0.48386738 -0.3037532 0.25703394 -0.66814435 0.81758714 -0.6686737 -0.3124449 -0.16588807 -0.89139915 -0.74559003 0.3741335 0.69048375 0.8884436 0.43465742 0.04383588 -0.3602869 -0.50144964 0.33955845 0.06303316 0.5388331 0.42029592 -0.86427265 -0.94943255 0.669147 -0.41733637 0.5549216 0.030270023 0.862017 1.0144471 -0.45590878 0.89438105 0.70764 0.7411652 0.48631075 -0.011090423 0.21727349 -0.8315286 0.6204947 -0.9389895 0.27359068 -0.22474022 -0.31405237 -0.04853332 0.8820806 0.3434287 -0.71059173 -0.062702626 -0.014889153 -0.43240574 0.24345355 -0.1482717 0.89713436 0.0035894457 0.5675184 -0.8160278 0.13510285 -0.744733 -0.8807001 0.25405994 0.15982318 0.2971614 -0.8132612 -0.27009457 0.6694518 -0.5886298 -0.6114829 -0.75120026 0.4221823 0.68865657 -0.20826781 0.60098493 -0.572818 -0.061300546 0.94915485 0.8205357 0.9350258 0.46925065 -0.775299 -0.11424575 -0.7781896 -0.67207223 0.16226538 -0.6720551 0.3463775 0.29073948 -0.08769687 0.20113689 -0.32788667 0.5953664 0.9456783 0.54889244 0.41144913 -0.2587901 0.6727956 -0.95973116 -0.557112 0.51898295 0.44987398 -0.60178536 -0.3059777 0.425506 0.3198541 0.23638184 0.595114 0.8795464 0.39029497 -0.21274707 -0.29978636 0.82358783 -0.51764363 0.7757485 -0.21227446 -0.25003335 -0.5815609 -0.019631485 -0.71969044 0.30968758 -0.9276987 -0.37494716 -0.32734963 0.5344781 -0.7695066 -0.10874815 0.7606526 0.61807626 -0.57518595 -0.9328449 0.18418261 0.41060695 0.35768744 -0.4779614 -0.96111447 -0.9404203 0.7584951 0.8565029 -0.37274495 0.1511375 0.02355395 -0.9385359 0.8460529 -0.92088836 0.44660348 0.7740277 0.07977794 -0.40832254 -0.8195508 0.50154036 0.08381941 -0.545123 -0.3612756 0.13016835 -0.040908 0.7018108 0.17524505 -0.2805782 -0.13277006 -0.48056567 0.08164096 -0.1806856 -0.6786684 0.1568718 -0.5841544 -0.1502501 0.505213 -0.21954842 0.7380813 -0.9814467 0.555485 0.26917192 -0.30269942 0.045640334 0.94262445 0.64540035 -0.53937656 0.5317553 0.106154904 0.05864654 0.92903763 0.5598962 -0.36331502 -0.13674027 0.78881246 -0.93046975 0.18813005 -0.4998663 -0.93337166 -0.0020200345 -0.68402267 0.035369664 0.84831625 -0.8593073 0.9420955 -0.44018245 -0.4026636 0.8731925 -0.44396624 0.21797298 0.8173328 -0.87304777 -0.21060665 -0.29679072 0.14173642 -0.83925784 0.88437974 0.62564546 0.78434896 -0.86123514 -0.5973123 0.75369525 -0.89785194 -0.10476213 -0.1529404 0.6773535 0.5767522 -0.9169424 0.48515695 0.8294441 0.83230114 0.57369375 0.75706625 0.57143867 0.8494001 -0.89858377 -0.80737185 0.6163491 -0.0723282 -0.86042416 0.65925044 0.331074 0.7034107 0.34398738 0.45140886 0.74229014 -0.3856593 -0.7572254 -0.63990486 -0.17204905 -0.63331586 -0.021438878 0.8512787 0.6664412 -0.39491177 -0.40945554 -0.45121467 0.13621642 -0.59395856 0.36089906 -0.2200391 -0.7778761 0.29874617 -0.59929454 0.08054918 -0.43146437 -0.40311274 -0.34316888 0.5396327 -0.95391303 -0.8721287 0.83453566 0.13033791 -0.7126591 0.44750157 -0.8008666 -0.62939185 0.8903843 0.35450637 -0.468836 -0.24692418 -0.968426 0.055551182 0.5884201 -0.3553328 0.8548043 -0.27423832 0.9732115 -0.6621828 -0.7020385 -0.80270296 -0.24946263 0.0856283 0.2222468 0.34602886 -0.13495477 -0.46352607 0.64436644 -0.99320847 0.68152684 -0.0084229335 0.21035579 0.5334526 -0.7733434 -0.52311486 -0.321872 0.94686073 -0.08518743 -0.13028057 0.8610705 0.38499922 -0.45739222 0.96590114 0.7925718 0.50858027 0.8439414 0.18166193 -0.7563613 -0.7949296 0.85143256 -1.0218067 0.11992744 0.09319218 -0.7954598 -0.7220989 0.2198484 -0.924563 -0.38332275 -0.7611578 -0.5183401 0.9457382 0.7414011 -0.81656444 0.4284071 -0.2942676 -0.3424199 0.56791836 -0.33 -0.27648592 -0.98863983 0.45441058 0.4451762 -0.123725906 0.09007869 -0.9048864 -0.39179957 -0.74754155 -0.33560818 -0.18161054 0.9581862 0.5802546 -0.46404624 -0.37953 -0.6678627 0.28380173 0.6674922 0.65443987 -0.9577308 0.031811085 0.024364537 0.23080206 0.8918627 0.3262644 -0.5667995 -0.5677184 -0.5984547 0.11724675 -0.081026405 0.968953 0.0438494 0.55447954 0.62418467 -0.8373109 -1.0214134 0.5189787 0.35204685 -0.77060163 0.60556346 -0.21703933 -0.47505388 0.3061466 -0.6227914 -0.79894346 0.0025217223 0.22422296 0.8913346 0.28779835 -0.25653455 -0.48047048 0.590183 0.31406635 0.49171907 0.23255193 0.11732942 0.26396367 -0.7216799 -0.88958955 0.90414447 -1.0211104 -0.6452522 0.7835285 0.25225422 -0.9246876 0.08183368 0.7301219 -0.59034187 -0.30991057 0.42852196 0.47752216 0.6848805 0.78903544 -0.6974856 -0.2761187 -0.2539879 0.2266182 -0.21252424 -0.055369932 0.9090743 -0.94420433 -0.8927145 -0.2609127 0.21367815 -0.41598898 0.8739089 0.5141956 -0.084898196 0.57355815 -0.8873222 0.8475228 -0.87967384 0.17321026 0.798148 -0.29884675 0.18923084 0.029191334 0.6190752 -0.78163385 -0.62366927 0.83444786 0.7444268 -0.958464 -0.6796193 0.77126306 -0.57638943 0.51596755 0.5142294 -0.2786592 -0.764994 0.10091846 -0.62856084 -0.43445405 0.32725582 -0.17727847 0.8731344 -0.81765544 0.602345 -0.7938578 -0.07775919 -0.721802 -0.7945723 -0.45535305 -0.095459625 0.706581 -0.08068902 -0.15403566 -0.4909913 -0.30821913 0.07562951 0.8577594 0.96474516 0.09753508 -0.98558605 0.48816067 0.19269475 -0.44324595 -0.5267822 0.19292285 -0.66551554 -0.17711766 0.7873173 0.90405816 0.7307745 -0.74160194 -0.92449003 0.13902561 0.5763045 0.42411998 -0.8077556 -0.15817101 0.3816733 0.6116812 0.72404546 0.7756146 0.87947977 0.80761296 0.12602225 -0.688843 -0.5954999 0.5110364 0.4295601 -0.3929325 0.6244127 0.24806148 0.7482051 0.7363795 -0.9640608 -0.21101166 0.7830458 0.8432544 -0.7124404 -0.015542049 0.56469095 0.3997609 -0.7631473 -0.38885698 0.27453724 -0.67912257 -0.31775045 0.967472 -0.81132925 0.10391775 -0.9073564 -0.73454505 0.37112567 -0.99978244 0.8851175 0.33708906 0.4045111 -0.6888201 -0.3844966 0.018443406 0.4919246 0.57072395 0.063487925 -0.851469 0.47155598 0.36504158 -0.8766545 -0.6834627 0.3545485 0.6350822 -0.32891122 0.59623307 -0.4530315 -0.08203092 -0.9543341 0.35184816 -0.5981328 0.07272935 -0.33915973 -0.60032666 0.6437965 0.97093374 -0.6504033 -0.6091501 -0.87828064 0.35685405 0.5615636 0.10936948 0.85041434 0.47863612 -0.24071851 -0.5224204 -0.80384713 0.34472573 0.0076467698 -1.0138712 0.48588747 0.072654575 0.669625 0.61744875 -0.6921092 0.68159807 -0.9510823 0.21671578 -0.7108548 0.86389494 0.9916081 -0.23332235 -0.6839898 -0.71746504 0.9584757 0.6066591 0.4140037 0.45413783 -0.7153456 0.8725664 0.916886 -0.60677695 -0.035035517 0.22219916 -0.8112138 -0.738938 0.3246903 -0.7985114 -0.67151433 -0.5669388 0.2776162 0.7801651 0.2060714 -0.29964402 0.08546119 0.5906984 -0.61797756 -0.6722775 0.24596295 -0.06973699 0.07812514 -0.4028761 0.97998583 0.580207 0.7981851 -0.14659068 0.7668401 0.3417828 0.31306902 0.6943855 0.10683166 0.23979701 -0.053292982 0.40783697 0.24336103 -0.42714894 0.6669621 0.39590913 0.90281206 -0.6875691 -0.9694388 0.02811847 -0.30638006 0.8009803 0.88249743 0.48628917 -0.5057393 0.910326 0.9253906 -0.8521017 0.8522622 0.5265406 -0.16652729 0.9578787 0.11239273 0.6302205 0.74610686 -0.45226192 -0.14259589 0.22345893 0.080392934 0.5890356 -0.048137657 -0.3136575 -0.18004446 -0.32497945 1.0009795 -0.51508045 0.8973938 -0.92580485 0.68125117 -0.15436828 0.25708795 -0.23638652 0.7354436 0.37411734 -0.25758794 0.8750088 -0.8727778 0.8899549 0.32473084 -0.23716433 -0.48377156 0.66758764 0.8585893 -0.7212334 -0.8942615 0.7717754 -0.29109102 -0.52542204 -0.85174215 0.28640082 0.3385881 -0.4016232 -0.08259045 -0.49478996 0.5815736 -0.48406464 -0.52833736 -0.49859217 0.5907503 -0.016663834 -0.8197858 0.50151247 0.734807 0.02613683 0.8193301 0.71385527 -0.7281126 -0.42769924 -0.140723 0.0011704405 0.70270056 -0.16619217 -0.8902224 -0.7378815 0.6178477 0.022468215 0.76469076 -0.86909354 0.9628506 0.0679937 -0.1518531 -0.44100738 0.05413894 -0.27673236 0.094255924 -0.8741967 0.50756645 -0.81777877 0.5010779 -0.9594488 0.9476027 0.9221523 -0.11499607 0.9468258 -0.9831088 -0.7285329 0.15066305 -0.28340673 -0.66801155 0.22239317 -0.52111906 -0.49592003 0.31217614 0.6203946 0.16851874 0.118451454 0.64031065 0.32155415 -0.75655323 0.47125646 0.6791876 0.7964853 -0.28631702 -0.3841011 -0.7408537 0.78547794 -0.8908012 -0.28978997 -0.38739458 -1.0041058 0.50286317 0.56619585 -0.44583943 -0.27849138 -0.02632789 0.8768494 0.21821943 -0.19607322 -0.7690785 0.39891884 -0.4718139 0.81526643 -0.5716004 -0.6192033 -0.67596483 0.83450544 0.52102035 -0.4730607 0.008192471 0.58676684 -0.39382222 0.97228026 0.25495136 -0.88706154 0.43780383 -0.28903082 -0.9755983 0.6559467 -0.6889727 0.58475226 0.9687837 -0.059041753 -0.6456237 -0.64048815 -0.2958 -0.10217217 0.58454645 -0.93905604 -0.52983767 0.75093746 -0.65361714 0.2007312 0.66015893 -0.35926875 -0.49363956 0.6445242 0.22994569 -0.45035133 -0.962988 0.015317676 0.18616803 0.9496617 -0.94730747 -0.55859643 -0.3831918 0.3825407 -0.7120036 -0.79212147 -0.21317036 0.11221853 -0.4458145 -0.39818463 0.40259898 -0.2826858 -0.087988004 0.34980127 0.26079988 -0.18183316 -0.48746315 -0.12027226 -0.30961168 -0.70312417 0.08603423 0.35060948 0.3550833 -0.662166 -0.8699418 -0.7996655 0.007033757 0.80685717 0.66518706 -0.3524989 -0.84223646 0.11729915 0.03993837 -0.6834496 0.9227785 0.58119464 -0.6886734 -0.13592328 0.6708573 -0.28910685 -0.28156254 1.0025959 -0.55800486 -0.5167184 0.9032403 -0.22133459 -0.6546053 0.51582754 0.432855 -0.044564374 -0.31856677 0.8488229 -0.27430066 -0.44674718 0.28952897 -0.39085346 -0.6908598 -0.69016844 -0.43717405 0.82115257 -0.53570664 0.134165 -0.6837131 -0.3985056 -0.062230002 -0.46439302 -0.6159323 -0.060020123 0.8151349 -0.12181313 0.4168027 -0.73601913 -0.77889144 -0.44958356 0.4665164 -0.29599652 -0.74597687 0.79171157 0.8389745 -0.9878671 0.7848404 0.43015867 0.6778139 -0.8823479 -0.45897016 0.4875328 -0.4834708 0.45915395 0.15754077 0.31492525 -0.30742556 -0.92890465 -0.90142965 0.52681375 -0.73865485 -0.27994388 0.07567565 -0.8910821 0.98648405 0.19483398 0.94982386 0.41606587 0.89733756 0.35670912 -0.06109784 -0.41094428 0.14626104 -0.5233057 0.78219837 -0.5208561 0.71169907 0.5044047 -0.66043335 -0.5745336 -0.5503583 -0.32196257 0.18267001 0.3622469 0.94513524 0.020684982 0.5743198 -0.5674138 0.69125634 -0.78235817 0.15674561 0.9451285 0.84274167 -0.22639236 0.84664893 0.43893173 -0.5937487 0.72990066 -0.05473729 0.96656436 0.08777586 -0.26061806 -0.9891259 0.7038867 -0.31886908 -0.30463174 0.50106394 0.91535336 -0.37785277 -0.92435604 -0.2602168 0.678497 0.28133106 -0.028053744 -0.75116706 0.014897764 0.43507922 0.2372116 -0.6145263 0.25326404 0.7275781 0.49257535 0.7191715 0.010402739 0.48145348 -0.86361265 -0.1912364 -0.49484497 -0.19750878 -0.19701889 0.0116123 0.44762412 -0.6577611 0.13457394 0.8063506 0.3736272 -0.35293657 0.12927206 0.24063458 0.9163211 -0.9568746 0.75474644 0.10301885 0.49501595 0.7619447 -0.8308138 -0.0468082 -0.3545757 0.12059865 0.83052534 -0.7586697 0.62978625 0.18894953 0.2386952 -0.6404716 0.67993057 -0.032404326 0.10549343 -0.49619928 0.81331843 -0.88380516 -0.65818757 -0.37351722 0.6324921 -0.920805 0.50380987 -0.7413017 -0.7392318 0.050787993 -0.96200496 0.88787925 0.98151517 -0.9502031 0.9035228 -0.6477653 -0.26326746 -0.86836934 -0.9480823 -0.92044705 0.7511477 -0.58052707 -0.54382575 -0.9102784 0.34182358 0.9257566 0.5792002 -0.35346532 -0.9450514 -0.2522273 -0.95640063 -0.3107174 -0.14304014 0.7205338 -0.53780764 -0.5509922 0.19614585 0.14509386 -0.363917 0.34492585 -0.3046779 -0.4196647 0.4329823 0.26542956 -0.03607568 0.6008039 0.7268658 -0.929529 0.15173303 -0.41502824 -0.57354766 0.9880684 -0.76525986 0.15161155 -0.73879987 -0.07310606 0.78816384 -0.73361677 -0.2380567 -0.5961808 -0.6799987 -0.78762525 -0.8036448 -0.7067075 -0.59398496 -0.8109868 0.7962604 0.6711068 -0.56738794 0.77376086 0.79445714 -0.41227344 0.6855127 -0.5045391 -0.8381269 -0.4706803 0.44128764 0.1625862 0.2686189 0.0869487 0.38942862 -0.26126862 -0.2755341 0.6693292 -0.13083455 0.8980822 -0.856427 -0.54476666 -0.49034935 0.51461405 -0.1062523 -0.29693684 -0.67534906 -0.98736745 0.49135774 0.46848777 -0.49836808 -0.08714997 0.22834502 0.86408573 0.74207705 -0.074056946 0.08461181 -0.0014286166 -0.09995466 0.63697106 0.89486504 0.8875431 0.22428553 -0.38327116 0.94687605 0.27984467 0.033811882 0.558017 0.59016967 0.65181047 0.85236835 0.12907602 -0.2351745 -0.4032024 -0.42251846 -0.693854 0.56384486 0.6532841 -0.412177 -0.6358987 0.31464845 -0.7140452 -0.6917178 0.031119736 0.24839276 0.10775789 0.4983552 -0.2943159 0.439929 0.07218935 0.40900812 0.08235033 0.6680539 -0.0813307 0.09681081 0.16877818 0.5888496 -0.3613252 0.5355603 0.9391927 0.95572615 -0.5510423 0.3118771 0.06890582 -0.32008994 0.07826414 0.4553036 0.06694698 -0.2914306 0.93330425 0.61331874 -0.16240379 0.31675693 0.875377 0.89092237 0.36832705 -0.20122793 0.045096096 0.7068842 0.5582423 -0.47113988 0.95199233 0.03815553 0.98452145 -0.34708753 0.83314466 0.8570697 0.4105777 0.66338164 -0.23547818 0.8304848 -0.47255784 -1.0059346 0.24631774 -0.1466454 -0.5682113 -0.77769876 -0.53976595 0.16648512 0.81065744 -0.94171137 -0.47261357 -0.69645786 0.5179744 -0.35152507 0.6862371 0.6486182 -0.8013129 -0.18756343 -0.62837774 0.57402796 -0.82592034 0.19665132 -0.047815196 -0.53388655 -0.7733794 0.49877736 0.74155486 0.13851118 -0.9489397 -0.9316708 0.99886036 -0.8716102 -0.8052099 0.32306346 -0.9418719 -0.049645536 0.45730013 0.85561764 0.58152074 -0.8494816 -0.67766684 0.1189045 -0.6446211 0.72885257 0.6864316 -0.8565449 0.15399228 0.85907733 -0.12539662 -0.7444343 -0.75228095 0.88598186 0.20133877 0.86801326 -0.18138045 0.39777455 0.72551775 -0.76840305 -0.25300312 0.122971125 0.30924857 0.11151281 -0.17528386 0.14470506 -0.7409676 0.90169567 0.4548487 -0.8935965 0.39387915 0.31432936 0.44510075 -0.2863845 0.10181189 0.007703132 0.71115565 0.9014551 0.99433756 0.022284186 0.15688275 -0.92631865 -0.78912514 -0.17681706 0.24117054 0.34080306 0.9642568 0.08083196 -0.7246354 -0.9206853 -0.1822032 0.48500285 -0.8780142 -0.9128299 0.18662919 -0.9975877 -0.7848938 -0.35899094 -0.14111619 0.65024674 -0.23459679 0.030118784 0.26786402 -0.3593304 -0.05352146 0.21057874 0.893719 0.14785117 0.10978396 0.08529843 -0.76773304 -0.16867991 -0.37612495 0.3066558 -0.8955783 -0.24976516 0.52327347 -0.61607534 0.6815867 -0.036157176 0.95709306 -0.37423176 0.36260784 0.6985837 0.71375185 0.6542838 -0.59048444 0.6283072 -0.9277402 0.12520806 0.71861863 0.5954192 -0.15978543 0.16533794 0.39255822 0.2262552 0.5235295 1.0090469 -0.4268591 0.06620235 0.9112606 0.54803187 -0.2898921 -0.60203785 0.114917114 -0.85430026 0.9709115 0.42516786 0.1787991 -0.2018058 -0.5195743 0.29417565 0.751777 -0.6609359 -0.37943783 0.9550612 -0.6172762 -0.27551466 0.36432934 0.7201939 -0.54579806 -0.14606847 -0.98656565 0.31241688 -0.7566769 -0.25534013 -0.5011845 0.023954952 -0.79713696 -0.89705783 0.52399814 0.6847806 0.92301285 -0.38175842 -0.087750666 -0.7069315 0.4375634 -0.24978048 -0.47973365 -0.37329832 -0.5158464 -0.81405514 -0.690352 0.62653726 0.33077073 0.88505995 -0.86318135 0.62333095 -0.2811182 -0.30015367 -0.43812725 0.037431087 0.05949475 0.1210593 0.3132975 0.3182885 0.38231957 0.57159287 0.31697986 0.3402119 -0.6857806 0.9775633 0.94221336 0.04397741 0.27881646 0.23641008 0.42740372 0.77556026 -0.9716849 -0.06485105 -0.17069112 -0.26660424 -0.46751162 -0.96512043 -0.27914837 -0.9415885 -0.04319177 -0.024927955 -0.8377127 0.6273871 0.5794992 -0.050315645 -0.6451556 0.8359143 0.9321014 -0.7650696 0.6779615 -0.24643537 -0.6280376 -0.41505757 0.5356345 0.8750025 -0.5083108 0.6346839 -0.93583304 -0.05232459 0.6983312 0.5945751 -0.96343946 0.5980231 0.67868656 -0.9049058 0.59903634 -0.6286243 -0.5707666 0.8704953 0.2933186 -0.753857 0.4513122 0.34703827 0.7848962 0.7001298 0.10654398 0.8101362 -0.86587834 0.37407255 0.1855053 0.32467768 -0.72234225 -0.24033153 -0.6977502 0.85162234 0.32854265 -0.067187846 -0.8009562 0.69659513 0.0425378 -0.99523413 -0.0018994523 0.459057 -0.6186435 -0.33134437 -0.6612954 0.4384429 0.10886069 0.089861 0.32399133 -0.43827397 -0.6447381 -0.97155005 -0.05089577 0.74027437 0.21661296 0.65862244 -0.33542618 0.45814067 -0.49046016 0.81066746 -0.9409867 0.70972157 0.28873983 0.2836282 -0.7252928 0.046824712 0.5831717 -0.9087555 0.22194171 -0.12604219 -0.3049602 0.8171082 -0.782434 -0.31138426 -0.65059197 0.44507766 0.93381375 0.48441988 0.14915359 -0.9050744 -0.5988872 0.55093867 -0.31455368 -0.20674877 -0.11161456 0.039931048 0.38763577 0.6718547 0.08693993 -0.23368035 0.08393054 -0.46971273 -0.23346433 -0.77761334 -0.5216967 0.4994266 0.6848964 -0.42910784 -0.67040485 0.5699821 0.6051278 0.55361193 0.19653386 0.07737289 0.98430026 -0.8372523 -0.8418169 0.56839937 -0.13434349 0.10500966 -0.6142418 -0.3651773 0.23738934 0.38347784 -0.25374362 -0.721535 0.8570187 -0.42461088 0.916701 -0.42596206 0.06345222 -0.6107242 -0.36935112 0.80404025 -0.69181556 0.8353661 -0.12883182 0.70481145 0.20828721 0.24494813 -0.6182999 -0.79077923 0.92412543 0.68519974 0.75945663 -0.93421555 0.85352135 -0.72042567 0.8756048 -0.84591067 -0.17897224 0.47250682 -0.8471984 -0.53487754 0.29380968 0.715508 0.43916914 -0.32849044 0.18362139 -0.34660822 0.53770566 -0.50684446 0.06744958 -0.545928 0.3297702 -0.8824862 -0.49106136 0.88019633 -0.35543028 0.3641855 0.020252174 -0.58967924 -0.7832682 0.288475 -0.21126787 0.58781314 0.38233978 0.79657936 0.9475533 -0.104080044 0.29028225 0.46903425 -0.25949898 -0.40005726 -0.67691094 -0.02895552 0.2131755 0.057694823 0.28562534 -0.06338443 0.33977604 -0.25538266 0.44545704 -0.6879491 -0.28782472 -0.07229849 -0.89819455 -0.2059054 0.97554874 0.6723271 0.8917279 0.53454244 -0.8511051 0.33805713 0.5814566 0.19906043 0.3887516 -0.96670187 0.12361823 0.09364649 -0.8928176 0.87988484 -0.5346271 -0.7764584 0.4338935 0.6818842 -0.8556854 0.58610296 -0.68065023 0.34672305 0.8837609 -0.040143188 0.98122686 0.23800899 0.9256988 -0.124386944 -0.31243098 0.64233667 -0.85395586 0.6941392 -0.5063158 0.3245266 0.41708905 -0.8518286 0.38257524 -0.96357125 0.1108026 -0.9362374 -0.024863746 -0.39165092 0.6868261 0.6796375 -0.66238344 -0.7883555 0.9204034 0.2634582 -0.8146677 -0.14287561 0.34925723 -0.49376422 0.82327175 -0.31789437 0.38261488 -0.69054717 -0.8880292 -0.95885664 0.7996279 -0.5764822 -0.34293395 -0.8706593 0.080205895 -0.5379969 0.4376999 0.8961435 0.76200426 -0.33725643 0.7683022 0.96973515 0.11430772 0.21569309 -0.36337936 -0.8845696 -0.6411983 -0.31583488 -0.9409155 0.5688138 0.5035072 -0.18832843 -0.9407565 0.13187748 -0.35267904 -0.020565493 -0.97354084 0.44804344 -0.58617115 -0.17640932 -0.54350704 0.65487564 0.75392646 -0.6878787 -0.31119704 0.63243693 -0.59126985 0.18417339 0.75101435 -0.037104197 0.35284945 -0.02011562 -0.8284696 0.8335361 -0.19269797 0.23456343 -0.6844265 0.19489059 -0.11999987 -0.3261173 0.07800518 0.33619145 -0.6012251 -0.099943615 0.089287594 0.20030221 -0.84742206 -0.8323655 0.61173904 0.5502354 0.69053483 0.4424003 -0.36734703 0.0024298993 -0.37081498 -0.05939205 -0.18879305 0.3954883 -0.5364025 -0.38398334 -0.9494796 -0.5801343 0.4665968 0.7292977 -0.107988276 -0.2289319 0.9546195 0.9302174 -0.35684878 0.57870597 -0.1680053 0.50905836 -0.10565993 0.5177486 -0.715354 -0.17078918 -0.06037059 0.26264277 -0.86198145 -0.34629083 -0.74225587 -0.88154274 0.94198495 0.24702479 0.54719996 0.9993221 -0.24791184 -0.95030123 -0.57659566 0.84436697 -0.82338375 0.9044332 -0.91403115 0.5358479 -0.673056 0.9550459 -0.3621622 0.401265 0.70147026 -0.94434255 -0.108411044 0.15822811 0.92197555 -0.24077818 -0.5305441 0.25148287 -0.51059943 0.8585807 -0.5093242 -0.3410036 0.03982651 0.47269663 -0.7609233 0.82417506 0.63581043 0.9739948 0.0043857647 0.18874255 0.0071194842 -0.7896976 -0.016143419 -0.88401425 0.034365192 0.18103051 0.27178103 -0.36432782 0.06158178 -0.50569606 0.29149023 0.7193108 0.51509994 0.1424693 0.30496028 -0.004302892 0.54815674 0.51146233 0.6197384 -0.5429188 0.1685177 0.56663465 0.84567857 0.63809633 -0.025624203 0.1642871 -0.52378553 0.75243086 0.5860727 -0.502456 0.4745461 -0.8628683 0.25772431 0.564495 -0.6932406 0.27333227 0.22792086 0.47700813 -0.18938231 -0.09972847 -0.18996496 -0.5130758 -0.30586025 0.20332894 -0.9771384 0.5501889 -0.5575099 0.56395584 0.055054437 0.81812364 -0.9030068 -0.31406382 0.4124999 0.81521034 -0.5569723 0.40195292 0.6938764 0.2708653 0.7558442 -0.69007283 0.7873246 0.53110725 0.26732394 -0.93946695 -0.060451802 0.9058619 0.917011 0.057228774 0.26043588 -0.29767475 -0.98530126 0.3034429 -0.4126362 0.46053964 -0.28773823 -0.38340136 0.74074024 0.6876589 0.89654297 -0.14233907 -0.520243 -0.8445985 0.018996447 0.95233256 -0.24439837 0.691759 0.9859148 -0.27191067 -0.63960356 0.7520321 0.2489807 -0.8033864 0.3000868 -0.5682548 0.90607744 0.9859719 0.36747375 -0.39645684 0.42602354 -0.18563803 -0.7786155 -0.5033643 -0.8830392 -0.53401387 -0.36011416 -0.3373222 0.014463548 -0.50861794 0.7390808 0.95626354 0.09666981 0.416791 -0.41741243 0.35304412 -0.5123266 0.03358889 0.11939783 0.45180532 -0.8193 0.22229695 0.9263043 -0.28246912 0.9288073 -0.92142826 0.24061587 0.89655966 -0.24765751 0.8397093 -0.49295256 0.74834687 -0.021659944 -0.4720916 0.99121296 -0.16753969 0.81479007 0.656245 -0.68527126 1.0156705 0.20968923 0.46797004 -0.9904166 -0.5613485 -0.8613629 -0.8187709 -0.35277465 0.23321581 -0.69341725 -0.88259405 -0.69815016 -0.39517522 -0.70517534 1.005284 0.7068966 -0.045474228 -0.118959226 -0.7388811 -0.9307976 0.13378267 -0.5680934 -0.072844125 0.3580327 0.9597512 -0.08354298 0.9257951 0.08873077 0.2399132 0.37306747 0.71228766 0.651151 -0.28386608 0.710131 -0.89273524 -0.57522225 0.32850263 0.39408967 0.8015137 -0.12970163 -0.9311531 0.41691425 -0.8545071 -0.5563137 0.49376217 -0.5523725 -0.32919055 -0.41624722 -0.3068342 -0.1261649 0.05567174 -0.08492439 -0.470027 -0.6476288 0.16847478 0.9705882 0.2875887 -0.8170084 0.28895172 -0.7715569 0.20333402 -0.26163203 0.37520945 -0.3597394 -0.9122415 -0.8921493 -0.06762936 -0.12613474 0.70481324 0.7099968 0.9331088 -0.4046539 0.44190738 -0.7867185 -0.20554219 0.27959925 0.12244517 0.7203716 -0.4161858 -0.5627587 -0.94507295 -0.43275404 0.20304967 0.1624003 0.8762498 0.96127164 -0.5546408 -0.9102578 0.863045 -0.82873076 0.10214085 -0.28150192 -0.52182156 -0.61242396 0.23181318 -0.58909255 0.22392462 -0.43600303 -0.6617474 0.5351988 0.8908113 -0.70807093 -0.049816653 0.8366451 -0.21865916 -0.8029107 0.60895497 -0.42981008 0.4049742 0.8725146 0.13859887 -0.88737595 -0.49484003 -0.7281868 -0.55000097 -0.06907528 0.18400481 -0.81996095 -0.3662599 0.8515632 0.67203516 0.5384101 0.6339113 0.6810969 0.12403386 0.35788223 0.14869261 -0.88216335 0.65014833 0.4211631 0.2695505 0.21931846 -0.5119421 0.41179642 0.7509405 0.9500686 -0.39468518 -0.22572465 -0.8245842 0.57924277 0.58718395 0.8239964 0.0105440635 0.99358034 0.80868655 0.266227 0.31710914 -0.97417474 -0.24598737 -0.93110675 0.952445 0.4869242 0.7881431 0.30154568 -0.9952557 0.77272666 0.9650871 -0.9562688 -0.2266084 -0.45813233 -0.46457782 0.31910887 0.6077711 -0.14763151 -0.99010026 -0.4332905 -0.48085883 0.6179207 0.055178896 0.5009513 -0.7695707 0.063466184 0.947844 0.6089713 0.6354456 -0.39390063 -0.8017974 0.30840546 -0.22565342 -0.24819373 -0.14579302 -0.49967647 -0.48743936 -0.0632547 0.8535496 -0.8720743 0.7488779 0.9427525 -1.001367 0.40107423 0.29288232 0.7476681 -0.1715119 0.04422318 0.37470764 -0.22362073 -0.16567412 0.081984974 -0.7583278 0.7344368 0.7082062 -0.27431637 -0.5164344 -0.19431388 0.107717246 -0.21555719 -0.35177258 0.7716368 -0.79288137 0.38027903 -0.39654842 -0.049320217 -0.31379142 -0.870258 -0.87340933 0.45599422 0.9917776 -0.7606105 0.4327908 -0.56713706 0.9361474 -0.5442313 0.7119944 0.2144747 -0.32761756 -0.9194488 0.3886622 -0.8695814 0.66411936 0.46210396 -0.98784727 0.26419038 -0.5608841 0.40604657 0.8753535 0.8507229 0.7628675 -0.22723505 -0.5624571 -0.62899816 0.3400042 0.34857267 -0.17180204 0.28909013 -0.7743723 0.601391 -0.5327635 0.12359138 0.09743581 0.20634633 -0.5550654 -0.6679056 0.8968344 -0.9706355 -0.94699734 -0.8234507 0.009595384 0.5288133 0.8922432 0.21836369 -0.71172565 0.2855847 0.10283627 -0.98766106 0.03194612 -0.7165245 -0.09876358 -0.24432082 -0.9367864 -0.5216075 -0.6753583 0.85996455 -0.4211284 -0.5389414 -0.61358666 0.18313026 0.09158039 -0.7159097 -0.39389247 -0.46745834 -0.2091062 0.36461577 0.77979857 0.2126823 0.53867376 -0.77330726 0.16167258 0.79427445 0.41829616 -0.583908 -0.08115327 -0.028164752 -0.03269281 0.4448338 0.020858688 0.018068027 0.7388471 -0.40141022 0.29626337 0.9135457 0.46817583 0.15815026 -0.24695595 0.5435804 -0.5006006 -0.55235106 0.07604862 0.16074426 -0.38191897 0.79396325 0.7410804 0.9493936 -0.6900208 -0.4316994 0.6307284 -0.25568712 -0.52748895 -0.8289042 0.47024414 -0.0018272725 0.061845716 0.49382573 0.08635987 0.9596028 0.45620778 -0.7672917 -0.14180966 -0.86275756 0.8452839 -0.53550106 0.75229985 0.6570168 0.078542545 -0.68713176 -0.19008344 0.8999457 -0.49657202 0.1269247 0.29514214 -0.61539614 0.5726686 0.75072104 0.44307292 -0.04614733 -0.39764813 0.9708614 -0.07637031 0.1733189 0.073289305 0.5195336 -0.48285192 0.52828234 -0.9045705 -0.85250205 -0.9774812 0.11588947 0.09207874 -0.46823984 0.08958985 -0.91963714 1.0124655 -0.7066988 -0.47925565 -0.6659547 0.5048151 -0.89654815 0.5515569 -0.9644717 -0.08349938 0.70707816 -0.5601748 -0.15499292 -0.37745473 -0.1721684 0.102499574 0.5195899 0.5546854 -0.6867884 0.8469277 -0.8178677 -0.460434 -0.4624324 0.26679093 -0.28957665 0.20227577 -0.29200011 -0.16425376 -0.2677487 -0.18726799 -0.63743013 0.7424419 -0.34597263 0.06537426 0.79748434 -0.37481472 -0.8411346 0.020842744 -0.75907326 0.008758924 -0.018316744 -0.063483745 0.03135285 -0.16946496 0.8376005 -0.5841207 -0.3840989 -0.79922915 -0.70945936 0.79760975 -0.5498234 -0.6830336 -0.8339043 -0.4230085 -0.015426329 -0.5211783 0.5310673 -0.63613355 0.9511027 -0.1716641 0.88978654 -0.7103465 -0.5739695 0.9572414 -0.9195716 0.3328262 -0.78278923 -0.7302284 0.7987298 0.49617538 -0.7920599 0.5871064 0.28143767 -0.41227758 -0.27695215 0.0154065825 0.4538712 0.86126333 -0.7441333 0.9085476 0.014617432 0.22164407 0.8631259 -0.08630451 0.8227818 -0.9059519 0.013437727 0.07394551 -0.19039725 -0.20787014 -0.76112604 0.92997307 -0.86360854 0.99277544 -0.91304004 -0.30520874 0.26542172 0.036723487 0.36237058 0.91613305 0.94442725 0.30458894 0.279137 -0.7881703 -0.6189612 -0.003931305 -0.9251901 -0.27192312 0.14998296 -0.030188538 -0.26245567 -0.29257056 -0.0758459 -0.035603628 -0.7299893 0.029809222 0.7775407 0.24495982 0.79498565 -0.68291533 0.22177109 0.12225348 -0.4431989 0.39685306 0.24847142 0.3944802 -0.40165356 0.27482083 0.46120766 -0.23807274 -0.42128098 -0.38500276 -0.027027948 0.84113824 0.1804325 -0.97978675 -0.7195345 -0.8958908 0.97148067 0.8807733 0.77978367 -0.14701113 0.029740313 0.10484665 0.04227829 0.50506955 0.8421735 -0.13834915 -0.8880345 -0.30834016 0.5178959 -0.06445555 -0.6821854 -0.08551238 0.6673686 0.7772234 0.38552538 0.24293002 -0.47162074 0.61056674 -0.019071715 -0.41725194 0.5566643 -0.71923107 -0.6419737 -0.2051936 -0.4222986 0.11622276 -0.81325275 -0.14215723 0.4527478 0.88874304 -0.70673525 0.84612226 -0.060613144 0.7228427 0.023287069 0.27562138 -0.16233398 -0.48613775 0.78969777 -0.27470648 -0.027122116 0.23476829 0.92386186 -0.4671423 -0.018801345 0.3283026 0.06007753 0.9700735 0.38061768 0.10571697 -0.71073025 -0.58928025 -0.37751144 -0.60498536 -0.11288712 0.29535896 -0.96892506 -0.15521848 0.5459565 -0.62157077 -0.42059678 -0.047191028 0.5443884 -0.28000575 -0.6075098 0.15754022 0.43816012 1.0032262 0.66168267 0.91760087 0.48081303 0.20764944 -0.09920337 0.8514966 -0.20998986 -0.06959639 -0.9456769 -0.03046159 0.6809787 0.77190936 -0.34352034 -0.45474923 0.87907493 -0.5454283 0.46227098 -0.91589123 0.4297009 -0.68638074 0.35274893 0.2871981 0.045307364 0.93067086 -0.5518131 0.4571733 0.37147868 0.23652638 -0.75535005 0.03252468 -0.23342974 -0.7649546 -0.8465088 0.9469584 -0.50541186 0.96186376 0.26076454 -0.040665325 -0.94241583 -0.9788219 0.045184337 -0.42113933 0.9634474 -0.53085613 0.69716936 -0.32193556 0.68184006 -0.296994 0.6332943 0.6802592 0.44452384 -0.852366 0.93700844 0.12787795 0.14984977 -0.28109166 0.54263455 -0.7876731 -0.1963291 0.90116864 -0.02020665 -0.780589 -0.6846984 -0.85505235 -0.4119466 0.13066062 -0.12875323 -0.58929366 0.98242575 0.8753662 -0.5500125 -0.41800532 0.52365726 -0.5187489 -0.80740845 -0.02011694 -0.24926683 -0.9892115 -0.3387991 -0.26437324 0.06483928 -0.823817 -0.57746965 -0.3137019 -0.69394547 -0.45849887 0.87875384 -0.22901715 0.37673151 -0.5745557 0.54885316 0.39140865 -0.39265195 -0.23887558 -0.17036985 -0.045374043 -0.5948287 0.97511727 0.6577531 -0.60618573 -0.15139106 -0.16861062 0.81906337 -0.7206689 -0.8465124 0.9424956 0.105163604 -0.87227046 0.007976024 -0.40433586 0.36952746 0.52401674 -0.032171287 0.30575672 0.7590932 -0.84786147 0.961985 -0.7063103 -0.2183771 -0.03053381 -0.23091365 0.54820335 0.16708079 0.8127029 -0.2724781 -0.9004011 0.12120298 0.6823736 0.908749 -0.76338446 -0.20733337 0.040554557 -0.38256425 -0.45501262 0.97766465 -0.45734912 0.723906 -0.4891714 -0.34706387 0.6098197 -0.8059848 -0.9203768 -0.95216125 0.8504685 0.46335018 0.21509725 0.9814389 0.47502905 0.18876716 0.6480982 -0.5013622 -0.6809346 -0.77830875 -0.38158503 -0.44111282 -0.34611076 -0.5767449 -0.21232799 -0.56186527 -0.31546468 -0.88577247 -0.20857868 0.63126945 -0.28249463 0.92605335 0.93216187 -0.9021557 -0.24055049 0.77645445 -0.14816755 0.2846313 0.16606109 0.29966632 -0.31960312 -0.67023873 -0.96296304 0.5169615 -0.7844111 -0.9132724 0.54361594 0.17644815 0.2209827 -0.52523434 0.85385567 0.96032923 0.8529421 0.95864046 -0.16435835 0.21948841 -0.45354062 0.4755405 0.5134196 -0.35975605 0.32891768 0.557179 0.25600725 -0.28326145 1.0128073 -0.5772694 0.38745895 -0.031835508 0.74029446 -0.112749845 0.6974165 -0.72232956 0.30229273 -0.49988738 -0.22637086 0.64223087 0.10577382 0.86369383 0.5811611 -0.39687002 -0.36182883 -0.07078695 0.80177563 0.54694706 0.8991938 -0.33947203 0.49495324 -0.5497522 -0.84639627 0.57044625 -0.5991824 -0.23177497 0.15733959 -0.54152113 -0.7668296 0.34143242 -0.95576495 -0.20103285 0.83799464 -0.11828043 0.9489065 0.49216986 0.46567553 -0.106425405 -0.0018145418 0.64572763 0.13306235 -0.6657586 0.9861284 -0.14588578 -0.97966367 0.74940896 0.8700725 -0.8419231 -0.42543772 -0.9804808 0.6814693 0.7502201 -0.63216615 -0.8764665 -0.75745136 0.38444763 -0.07268943 0.724735 0.51645833 0.37283736 -0.029358748 -0.5428639 -0.3610581 0.47934183 -0.5214991 0.0888025 -0.7451347 -0.6919753 -0.36073235 -0.19071066 0.6807166 -0.08613723 -0.111865245 0.8366127 0.43325323 0.88588274 -0.2720901 -0.4585508 -0.92255783 0.6722978 0.9940778 -0.12648469 -0.5209162 0.51288253 -0.86814255 0.99910915 -0.8976004 0.09533603 0.08284961 0.45013255 0.36652428 0.19627379 0.0013743312 0.3331512 0.2759853 0.010715289 -0.5185866 0.81108874 0.12748966 -0.18721811 0.7753602 -0.45426208 0.82984835 0.36453426 0.089409724 -0.28471884 -0.72903675 -0.3130942 -0.7158998 -0.70819795 0.2538242 -0.08003788 0.746753 -0.5256539 0.46859547 0.4031165 -0.3409616 0.9608943 -0.122772396 0.34876624 0.013672922 -0.6816497 -0.46103594 -0.53836185 0.62091285 -0.83154964 0.047874916 0.0435163 -0.05329912 -0.19488254 0.23758216 -0.7480555 -0.21665934 -0.32600352 -0.38094583 -0.64113843 0.094657466 -0.036859877 -0.03809284 0.3751857 0.7893536 -0.5017973 -0.5416495 -0.5576087 0.68266964 0.22672619 0.95481557 0.1162936 -0.8593221 0.18546031 -0.079285815 -0.092294276 -0.44388738 -0.24873298 0.62647814 0.7008594 -0.6430387 0.94471127 0.15666781 0.08424616 -0.27858502 -0.540996 -0.6155759 0.13111135 -0.8063339 -0.31219515 -0.1032292 0.45920354 0.67156315 -0.57555574 0.26750058 -0.76683336 0.32076672 -0.19600348 0.5863699 0.62757206 -0.6917172 -0.4038391 0.41991395 0.012286403 0.3225991 -0.54641926 0.28498897 -0.6690534 0.23819812 0.91386867 0.45739478 0.7389804 -0.3652349 0.14116438 -0.99559826 -0.7553789 -0.15784661 0.15189952 0.21004023 0.48799062 0.9354042 -0.3015566 0.23654546 -0.65891874 -0.44500864 0.921754 0.55197144 0.83875364 0.36861613 -0.0372633 0.43880156 0.32519883 0.4530825 0.047880694 1.0140805 0.58331656 0.072246455 -0.81469357 -0.81188935 -0.45717603 -0.009912915 -0.7321289 -0.10704453 0.5259472 0.8281515 -0.29096997 -0.9155698 -0.73521614 -0.3646862 -0.44411284 0.38745922 0.9094223 0.30633408 0.8951908 1.0347209 0.64198095 0.09041765 -0.055610906 0.71026534 -0.10320748 0.97501636 0.54168844 -0.51513416 0.49402288 -0.823518 0.33756933 -0.66343665 1.0201252 0.21788514 -0.37402204 -0.57820135 0.12975231 0.13481216 0.25346956 -0.66909575 0.73223 0.6463826 -0.87617415 0.7309441 -0.5514016 0.53162146 0.01230748 -0.5490561 0.66979116 -0.67592704 -0.80232924 0.85503143 0.8481828 1.0299718 0.2981983 0.80820936 0.06641763 0.72257805 0.9679731 -0.74692994 0.20869887 0.3784888 0.5128252 0.08308148 -0.121616215 -0.6792583 -0.29292828 0.6309524 0.33399683 -0.89172447 -0.25714418 0.6877614 -0.303467 0.5849075 -0.37851447 0.9743661 0.92373055 -0.48943254 0.20160754 0.15716596 0.60166967 -0.42933428 0.9544372 -0.9051367 -0.5265078 -0.036677472 -0.0065557626 0.16916078 0.051723175 -0.5986803 -0.36275876 0.71440434 -0.32366407 -0.09867023 -0.49824476 -0.6119565 0.71843386 -0.63866293 0.39461395 0.13887493 -0.8301377 0.6462112 0.31881472 -0.6783838 -0.82923394 0.98822266 0.45716265 -0.1688222 -0.5056224 0.62570065 -0.20162961 -0.03746596 0.99664915 0.63067013 0.5690776 0.13939686 -0.6199093 0.5096965 -0.28392297 0.25889838 0.093567565 0.82358944 -0.80024236 0.9973404 0.99543965 -0.48894247 -0.7039705 0.35343966 -0.35782492 0.8397148 -0.54390126 0.0038991496 -0.32589152 0.5330784 0.19732785 0.9186093 0.26469174 0.10820998 0.0044798735 0.99725246 0.09775996 0.06377365 -0.768825 -0.06705247 0.13964146 0.03545171 0.98337483 0.17615287 -0.67416626 -0.27517125 0.25666025 -0.29226163 -0.7757115 -0.7116486 -0.56231874 0.5657917 -0.3406171 -0.4919709 0.62430465 0.97894335 -0.39695254 0.37566125 -0.42684793 -0.93494576 -0.22710414 -0.045609824 -0.66904557 0.68938863 0.50163007 -0.85899353 -0.3885997 0.6405116 -0.12095518 0.28735185 0.32915384 0.23731665 0.2688891 0.50197285 0.6439057 0.6032129 -0.8433675 -0.55810815 0.021794409 0.43291256 0.87290424 0.4082904 0.5113297 -0.17939018 0.427756 -0.3444562 -0.15154183 -0.40825316 -0.44839856 0.776037 0.7481215 0.1747676 0.024469519 -0.562219 -0.026274486 0.17943758 0.30100763 -0.5674468 -0.51716 -0.07934447 -0.94183874 -0.4240711 -0.69361854 -0.35145646 -0.57771224 -0.21723723 -0.5062172 -0.6522475 -0.9141672 0.35167533 0.18939784 0.1704507 -0.5370759 -0.7584856 0.8926564 -0.77337235 -0.77815074 0.8668884 -0.47230724 -0.045526877 -0.8204649 0.55932134 -0.5310853 0.07047292 0.4939405 0.7911111 -0.026788112 -0.8325742 -0.3045732 -0.5954471 0.16092128 0.8573527 -0.93836665 -0.25286984 1.0090158 -0.0020136447 -0.74525666 -0.58578366 0.65502185 -0.06303073 -0.313562 0.27575737 0.79579675 -0.47393206 -0.8287679 0.6197943 -0.53495234 0.935976 -0.88895845 -0.8844816 -0.41841325 0.38226518 -0.5065166 0.73781353 0.8591054 -0.45744154 -0.562344 0.55818933 0.33215418 0.8066074 0.18549441 -0.8360147 -0.76894015 -0.4523979 -0.10739516 -0.1682507 0.86720246 0.32521787 0.29059473 -0.5943201 0.81694055 0.9233303 0.47189435 1.0211493 1.0204055 -0.26017508 -0.060478017 -0.57851845 -0.6762888 -0.25448874 -0.20417143 0.3335528 0.42500907 0.67563546 -0.11144738 -0.6304433 -0.08042035 0.19951887 0.98229307 0.29007497 -0.778622 -0.67182916 -0.24113297 -0.6269846 0.40648344 -0.44510674 0.9092011 0.5837796 0.19704318 -0.059281804 -0.4937219 0.5814019 -0.49125075 -0.8760873 -0.5297559 0.8577074 0.9877119 -0.3832947 0.95633096 -0.8473128 -0.5200169 0.5312835 0.3602276 0.5831648 -0.944384 0.8304877 0.2954129 0.5689263 0.95943975 -0.06527933 -0.90836984 -0.7553035 -0.032749593 -0.1574738 0.7877441 -0.5972566 0.36315647 0.4906821 -0.085569076 -0.13290824 -0.119316734 -0.13182889 -0.65899014 -0.31981674 -0.79089785 -0.19733757 -0.100061625 -0.8407484 -0.07695447 -0.16776785 0.61105484 0.63734984 -0.7019112 0.9789728 0.3666962 -0.6086932 -0.72835255 -0.017139576 0.39002252 -0.12917005 0.3016999 0.8918133 0.3287338 -0.28990468 -0.8070655 0.69792765 0.567775 0.17238149 -0.37203822 -0.6547449 -0.68167835 -0.17489308 -0.94580966 0.46519667 -0.6595916 0.018095588 0.20658574 0.9133947 0.41405958 0.7450465 -0.7212856 0.8791307 -0.80740947 0.36704057 0.7990625 -0.08605649 -0.6498079 -0.73285407 0.040142097 0.030841999 0.6971915 -0.8676571 0.70537674 0.083679065 0.46360442 0.44713637 -0.4317256 -0.19355644 0.28070253 0.27077633 -0.5815816 -0.029837267 -0.31237447 0.46736103 -0.8259474 -0.1038506 -0.560742 -0.1204241 0.88170034 -0.9706343 0.85730934 -0.64267135 0.85973465 -0.08536558 -0.13511202 0.90083617 0.27166358 0.6190592 0.34340572 0.81747925 0.39054218 0.38016525 0.21261194 0.47746912 0.29477027 -0.49134272 -0.12649715 -0.8060124 0.9493668 0.6992654 -0.04654218 -0.30091745 -0.5797133 -0.24973065 0.21416043 0.58045346 0.37264737 -0.49742505 -0.7550967 0.25701472 -0.622987 0.2288454 0.7203251 0.94995415 0.7287833 0.438557 0.0441869 1.0243113 0.5831418 -0.556477 0.19522625 -0.26202708 1.0342145 -0.4097946 -0.87856185 -0.6830888 -0.98033357 -0.10542502 -0.73710555 -0.020642523 0.52027905 -0.82530266 -0.5695083 -0.64983946 -0.9248499 0.95627254 -0.84378713 -0.51235324 0.24723968 -0.12736645 0.06259904 -0.5530139 0.9951032 0.6563753 0.95399237 0.30371678 0.700813 -0.8076078 -0.33287972 0.5368712 0.86818737 0.13735408 -0.19761258 0.16190512 0.3400433 -0.32774717 -0.02010373 -0.21336414 -0.6302928 -0.03945576 0.92381394 0.21016414 -0.48623806 -0.47546664 -0.9380543 -0.6564929 -0.8373811 -0.7713959 0.39068335 0.24814796 -0.096717454 -0.93789715 0.41884908 0.692749 0.29779902 0.5169067 -0.3358129 0.5039553 -0.76984715 0.30234334 -0.12752438 -0.59750193 0.67611694 0.97309536 -0.32426187 -0.194501 0.20537296 -0.3268451 0.5549794 0.19300714 -0.19793111 0.9739753 -0.3407073 0.24092376 -0.61492836 -0.06299079 0.70126 -0.81122583 -0.6448158 0.7835148 0.70896757 -0.75031686 0.47887635 0.6357337 -0.89845985 -0.98405653 0.71196836 -0.4485884 -0.60949904 0.282814 0.92257994 0.023533553 0.24844742 0.3266595 -0.87603235 -0.037365496 0.03479468 0.21998855 0.00360862 0.73543006 -0.41144577 0.2936373 -0.65384597 0.66989225 0.9726707 -0.4498613 -0.63595265 0.74022967 0.450872 -0.12129129 -0.68638194 -0.13309059 0.26111737 -0.56454 -0.27830413 -0.5678895 -0.23836288 -0.24361938 -0.15130004 -0.6550787 0.23513056 0.14528933 -0.47802284 0.93136954 0.58404094 -0.025667235 -0.17115797 -0.22014078 0.87885827 -0.4469728 0.80380124 -0.2872552 -0.39949906 0.2723242 0.23240125 -0.010881171 -0.91378933 0.13311592 -0.66557044 0.75840974 -0.13068476 -0.77673006 -0.6392439 0.024480768 -0.65631384 0.23058824 -0.022103101 0.8198382 0.07419242 -0.4678619 -0.73368776 0.15001842 0.440183 -0.7612294 0.3755163 0.056171242 0.41072643 -0.4411385 0.9847523 -0.8880882 -0.794929 0.113373175 0.8417042 -0.055649742 -0.513821 0.4268178 -0.5807505 0.8023213 0.5959969 -0.23453692 0.6968325 0.7634425 -0.7544518 0.23121242 -0.863482 -0.80925834 0.9908278 -0.1613331 -0.7863849 0.5511915 -0.24014993 -0.8053468 0.41120476 0.34289098 -0.7369335 -0.104540996 -0.73638874 -0.7690655 0.046313826 -0.38822362 0.44647494 0.562511 0.8142829 0.41128698 0.63655853 0.82512325 -0.29567346 0.42185602 -0.11635979 -0.43496463 -0.69305974 -0.7760309 0.2662249 -0.9617748 0.3686757 -0.80176425 1.0242515 -0.38735387 0.75775707 -0.18356638 -0.15765953 0.17951103 0.76311475 -0.23760054 0.2620938 0.6921673 -0.7900241 -0.5838988 -0.05255638 0.6468866 0.45939812 -0.23253427 0.79072034 0.03459063 0.9647647 0.2570125 -0.29703 0.37381828 -0.46682838 -0.83840334 -0.24998373 -0.48691446 0.95628154 0.8299723 0.9114392 0.14409463 0.33793408 0.8387109 -0.61353236 0.19684489 0.27016377 -0.6923912 -0.61947674 -0.25152153 0.14641091 -0.7741856 0.76026535 -0.18070306 0.36257103 0.18281014 -0.90729696 0.51964724 0.33415896 0.88636035 0.3498023 -0.5200387 -0.7477923 -0.47140005 0.16652243 0.9757836 -0.6344352 0.25029936 -0.7441485 0.1463665 0.84720397 -0.30033794 0.52283984 -0.5160245 -0.64322567 -0.559393 -0.057545118 0.5811651 -0.5730438 -0.55412036 0.7979223 0.76423746 -0.6571832 0.74490464 -0.10431248 0.12546626 0.12127484 -0.92415774 0.49460366 0.75462765 0.62085843 0.7920648 -0.31854826 -0.8937683 0.05954243 -0.13680942 0.17105915 0.12850676 0.1751525 0.1720872 0.7704742 -0.6137595 0.37589583 0.087065056 -0.25343582 0.7935817 -0.03725711 -0.13768063 0.9362281 0.5880574 0.27665904 -0.81893617 0.002325159 -0.57638484 -0.9921323 -0.65308404 0.89260334 0.79371256 -0.4202364 -0.6031223 0.6846676 0.09773887 0.56978345 -0.8718452 -0.7256448 0.24275985 0.45858273 0.7198459 0.58296305 -0.41886872 0.21745844 -0.14201562 0.034897972 0.90373796 -0.6179464 -0.48647115 0.61258656 -0.96411914 0.914838 -0.6001529 -0.5729658 0.451353 0.31879726 0.99275213 0.06962411 -0.056195065 0.4744521 -0.5630926 -0.49263042 0.6938026 0.3292902 -0.73884743 0.17513314 -0.9521758 1.0065106 -0.4458076 -0.3376657 -0.22459684 -0.76730907 -0.7594575 0.37101495 -0.2910659 0.32603914 -0.98533106 -0.65606236 -0.91162246 0.76657975 -0.854293 -0.864508 -0.6077297 0.4821793 0.29535332 -0.6343294 0.9422289 0.50248164 -0.36406842 0.52217996 -0.023685463 0.575577 -0.13032039 -0.91940904 0.37595898 -0.44801554 -0.48492393 0.4751646 0.28029785 -0.050588958 0.2213527 0.41465762 0.21341366 0.86947185 -0.12317976 -0.47403392 -0.12782893 -0.92872745 -0.828252 -0.42621452 -0.2740827 0.62362605 -0.8203043 0.58514935 0.27345622 0.438893 0.67701256 0.106689274 -0.5172651 0.7411139 0.6286471 -0.9356235 -0.078185506 0.30568114 -0.13916498 0.7429929 0.65300447 0.8123925 -0.6054609 -0.44933328 0.13653462 0.35593408 0.80454975 -0.37232253 -0.07406492 0.6305826 -0.74688685 -0.07043865 0.8243964 0.29618493 -0.5340092 -0.031406365 0.5592685 0.9571815 0.901277 0.7162209 0.58247054 -0.73780274 0.14427279 -0.114594914 0.7111743 -0.07119859 0.06317218 0.8904577 -0.9613967 0.7961046 -0.28968626 0.13982248 -0.6626423 -0.52013814 0.796732 -0.0057994598 0.25842664 -0.82895863 0.5028424 -0.62386954 0.84248215 -0.53289306 -0.5364242 -0.8611013 0.6804854 0.88039076 0.65756917 -0.17832789 -0.55062807 -0.34165853 -0.29630676 0.9785125 0.064032115 0.11752787 0.6143669 -0.40822178 -0.9618268 -0.2500255 0.10202138 -0.6957919 -0.82496214 0.44479027 0.8254895 0.87940717 0.87007517 -0.36387107 -0.9845335 -0.4936333 -0.78498924 0.23528913 -0.1438858 0.1442504 0.78259176 -0.9384778 0.09740688 -0.11697542 -0.6194397 -0.68337953 0.8098634 -0.42667732 -0.86410624 0.60893667 -0.5395631 -0.37119994 -0.30891722 0.423004 0.73673797 -0.24494934 0.36300075 -0.66659516 0.9347841 -0.6213759 0.46668148 -0.39174056 0.5029255 0.9923739 -0.32733446 -0.18547772 0.35526574 -0.34287992 -0.31042737 0.91652924 -0.31093284 0.7389945 -0.31802475 -0.8157883 -0.32678396 0.3365126 0.69744086 -0.6197838 -0.35038748 -0.6453117 0.5102778 -0.538831 0.6170526 0.9415915 -0.07508545 -0.8469838 -0.66719574 -0.6996022 0.7053096 -0.45923367 0.66469157 -0.3284822 -0.609663 0.8652886 -0.24252692 0.07357632 0.78570014 0.14813119 -0.24506915 0.7320679 -0.37769243 -0.99093336 -0.13325684 -0.37842306 0.3799663 0.5643425 0.42321151 0.06189697 0.21034713 -0.508854 -0.17512725 0.010670917 0.17931822 0.28634962 0.9275321 0.50007087 -0.35397303 0.116784886 -0.47970873 -0.43634516 -0.73467845 0.6969719 -0.15681785 -0.091546625 0.44997332 0.6578155 0.5379673 -0.15035133 0.0739077 -0.49211115 0.9078269 -0.19877511 -0.87877357 0.54126143 -0.011708853 -0.58141154 0.086776726 0.37193888 0.7603058 0.90876997 0.9148189 -0.9656201 -0.24519776 -0.8890678 0.7586348 -0.24549457 0.14633836 -0.7117785 0.04634033 -0.6946935 -0.7510383 0.67093384 0.5037713 -0.947996 0.8993896 0.14514609 -0.1438329 0.5786801 -0.53746235 0.41392526 -0.823393 0.8880601 0.30839673 -0.19907168 0.546321 -0.25623626 0.372992 -0.9471806 -0.89827895 -0.5961424 -0.8705473 0.30560344 -0.18998641 0.4853257 0.8802073 -0.059973605 -0.33447805 0.7724534 0.5558813 -0.4661822 0.041158073 0.85303724 -7.71963E-5 -0.97256213 -0.12942313 -0.3753377 0.5120714 -0.31647342 -0.86717 0.05152499 0.8451844 0.5980063 -0.2951351 -0.12789604 0.085722364 0.76289266 -0.86680686 0.8861368 -0.96314615 0.31100276 -0.021196585 -0.06409172 0.74724287 -0.22868654 0.51680374 0.4829154 -0.37449074 -0.4903058 0.24882475 0.35350433 0.15771459 0.17248704 -0.70697325 0.62635654 0.42938253 -0.56965226 0.6024436 0.35832906 -0.794284 0.82671803 -0.7037045 -0.33387512 -0.3636181 0.93769974 -0.16667043 0.3226778 -0.95904607 -0.58235675 -0.93844205 -0.48750624 0.39108324 -0.10198865 -0.2267523 -0.5041901 -0.18645024 0.0031307088 -0.2655266 -0.5710859 -0.037858315 0.7897483 -0.3325383 -0.68787366 -0.9688673 -0.17885943 0.72532755 -0.84729475 0.66834146 0.25103188 0.4617904 -0.89498204 0.33047268 0.77703166 -0.99888116 0.8710034 -0.65706944 0.5707413 -0.23873378 0.22389877 0.4782714 -0.13864027 0.47906956 -0.48813474 -0.71067196 0.9453411 -0.3648744 0.8710974 -0.69010985 0.11361296 0.68427604 0.892573 -0.57904595 -0.3519155 0.7411407 0.19966736 -0.42876294 0.90101355 -0.6943788 0.20724617 -0.18377466 0.4458318 0.7518288 -0.1717371 0.13119622 -0.5804275 -0.8294287 0.66504264 -0.012725682 0.2171464 0.03003583 0.7926654 0.070036635 -0.27079046 -0.77070564 0.16086659 0.9012121 -0.99822295 -0.0077095283 0.84110785 0.7793978 -0.36655638 -0.8573265 -0.6126655 -0.99475974 0.22464818 -0.96897143 0.6117019 0.44703853 -0.6448334 0.09934425 0.3465272 -0.480473 0.13531536 0.8686067 -0.44845703 -0.36767134 0.16608621 0.6547745 0.80988103 0.0277286 -0.9160263 -0.70121825 0.8540417 -0.33462122 0.9147332 0.19447443 0.7889591 -0.244438 0.17763302 0.1491573 0.062435254 0.1779838 -0.2157514 0.87050885 -0.45341313 -0.66366976 -0.3653011 -0.55750316 -0.006845626 0.9237607 -0.5166338 -0.3387864 0.8863148 0.022708813 0.1865272 -0.5862735 0.56713724 0.29412484 -0.36737373 -0.2617465 0.6591958 -0.30712828 -0.62304807 0.0533861 0.449366 -0.9994405 0.70312035 -0.3874281 0.07166156 -0.16356277 -0.3537794 -0.12524928 -0.049278866 0.4393047 0.29647493 0.6744087 -0.9585843 -0.538957 0.60202557 -0.1584446 -0.11093751 -0.76760316 -0.028176403 -0.5302829 -0.5088153 0.24860618 0.39996213 0.8063569 0.19560666 0.54584676 -0.3839294 0.6879013 -0.20218971 0.02504019 0.5452176 -0.14099462 -0.48845392 -0.8525771 0.9569295 0.8199684 -0.16704926 0.6132458 -0.6555181 0.7203718 0.09297307 -0.22156563 -0.40665954 -0.8903423 -0.55617505 0.6552635 0.12381408 -0.5863374 -0.2544649 -0.5863825 0.8059346 -0.7556237 0.0076215337 0.16156875 0.21234375 0.82107466 0.7395165 -0.30728772 -0.6425125 -0.1763804 0.46587512 0.44883302 0.31475484 0.79470366 -0.6422089 0.32616636 0.74152994 0.26099217 0.56128013 0.12313219 0.3951445 0.5902845 -0.7929389 -0.23669602 -0.35431117 -0.6651054 -0.036816765 0.43472508 -0.5413399 -0.71553457 0.63780254 -0.778021 -0.0374227 0.24328126 0.6302562 0.76656806 0.13232598 -0.7348886 0.2941439 0.6499893 -0.95588106 -0.09284377 -0.7438052 0.66839486 -0.9913797 0.38432184 0.6303015 -0.18210147 -0.11936926 0.6054345 0.043990932 -0.776019 0.8890536 -0.26389518 -0.31874514 -0.7594681 -0.98749584 0.32163337 0.7721172 -0.48179406 -0.93767416 -0.08335554 -0.80969864 0.4838965 0.25857443 -0.4955024 0.80917263 -0.27947655 -0.7577109 -0.07865301 -0.5800315 0.92774737 -0.64674264 -0.8807844 -0.6872003 0.35546637 0.742985 0.20037697 0.7210226 -0.036434785 0.079634614 0.23290361 -0.28587124 -0.34356308 -0.930406 0.086519554 0.103429675 0.026238503 -0.08093092 0.380552 -0.059339404 0.56294924 0.946664 -0.8296717 0.26528662 0.8650923 0.45732537 0.5186284 -0.13979127 -0.4813492 0.4019223 0.66036004 -0.12711212 0.8802521 -0.4804062 -0.007582454 0.79293686 0.6741306 -0.1968193 -0.19321246 0.17521267 -0.5763108 -0.91062635 -0.7165387 -0.45508596 0.11210446 0.27321294 -0.53694665 -0.7382164 -0.39774328 0.68007207 0.8429318 0.82552457 -0.49723 0.19199859 -0.70530075 0.82767135 -0.09085398 0.5554049 -0.7996345 0.41624683 0.18743612 0.5399934 -0.095974095 0.039720368 0.7607412 -0.7549772 -0.17682028 -0.48727965 0.04276689 0.80086565 0.83344096 0.13221449 0.29383433 -0.080620736 0.51715475 0.17740072 0.29812217 0.71344036 0.44955635 0.8330248 0.7925684 0.057294913 -0.94881785 -0.11985738 -0.06295015 -0.57223594 0.91411084 0.8298416 -0.8419429 0.019544322 0.7885993 -0.19187754 0.8296807 -0.91522986 0.6802365 -0.95161533 0.6041518 -0.58215165 0.341576 0.47831225 -0.2617166 0.7925972 0.9619457 0.55652386 -0.6386865 -0.5969582 -0.1315903 -0.70141506 -0.98817813 -0.14444749 -0.76481545 0.11201709 0.22602816 -0.62894386 0.6167161 -0.7842612 0.96035403 0.5495714 -0.2807823 -0.9539439 -0.4233873 0.2226638 -0.9715496 0.14176683 0.08353128 0.21081409 -0.6954917 -0.7347132 0.79934585 -0.08903773 0.40351412 -0.22322693 0.39851555 -0.31190732 0.3550907 0.7553174 0.6722555 0.22978397 0.84390026 0.6301442 0.09015788 0.3513811 0.59753114 0.4402198 0.06869233 0.89209014 0.61742955 -0.99939555 -0.7325547 0.30346188 -0.8073267 0.33833593 -0.35447568 0.1644913 -0.5683921 -0.06613759 -0.4342081 -0.636324 0.37290806 0.9143905 -0.92930895 0.090073 -0.49749053 -0.84905624 0.48538747 -0.34432834 0.9785555 0.56092787 -0.8258142 0.82433283 0.52807194 -0.9719318 0.71995836 -0.54388136 -0.38019395 0.91428787 -0.60842234 0.3835588 0.08236982 -0.91870755 -0.71109426 0.28043967 0.7439129 -0.8863532 -0.056577012 0.5469871 -0.297102 -0.04173242 -0.4846456 -0.7197059 0.9513923 0.74205405 0.15715027 0.025380898 0.08206835 -0.103250876 0.8049297 0.073621206 0.58918375 -0.9116486 0.59856904 0.1477717 0.048609555 0.7262392 0.75193757 0.5509688 -0.70273197 -0.90606827 -0.392291 -0.6005747 -0.3817983 0.4392132 0.052794125 -0.5899581 0.6352994 -0.55306923 -0.42442545 0.17940438 0.76999176 0.15125753 0.79306465 -0.7497531 -0.51812446 0.44762954 0.33772597 0.9815192 -0.051143184 -0.71555257 0.45899194 0.8805402 0.52017844 -0.9951037 0.060644504 0.8045748 0.7250338 0.2957093 0.63143206 0.217508 -0.27848032 -0.86924404 0.8330145 -0.065655954 -0.71901727 -0.50708294 -0.8464697 -0.4228448 -0.8877217 -0.62738323 0.89204544 -0.9389386 0.91706973 0.2229828 0.2258199 0.8988975 0.0775008 -0.19427243 0.48263252 0.16557682 -0.34265476 -0.18885884 -0.93307596 0.50645965 -0.37595513 -0.2908664 -0.8396654 0.69938964 0.28625223 -0.70091265 -0.16004777 0.14224799 0.13426921 -0.7203105 -0.2932117 -0.623676 0.9917859 0.3342518 0.6500349 -0.014176182 -0.61825967 0.10555459 -0.13532045 0.9234493 0.21947572 -0.0508825 -0.257132 0.88372546 0.3711075 0.023744415 -0.7414277 0.72577596 0.0062667266 0.032667313 -0.13100058 0.24405006 0.53251004 -0.7172671 0.8887245 -0.91574377 0.7924341 0.038397983 -0.15251833 0.43191537 -0.20137867 0.26642817 0.9163884 -0.32671708 0.3074497 -0.20467125 -0.28567624 -0.29674277 0.6096697 0.5794447 -0.7565504 -0.57338846 0.570161 -0.23926009 0.4817284 -0.75691086 0.20501444 0.27108034 -0.87728536 0.19853939 -0.81717265 0.40742046 0.4581429 0.87436473 0.38199922 -0.48170748 -0.004440459 0.3551379 0.6610103 -0.10453385 -0.6175056 -0.21318924 -0.045812413 -0.9006064 0.7413095 0.18093245 -0.5187126 0.75654274 -0.62435275 -0.99401623 -0.371287 0.96376735 0.0284482 0.6197192 0.95489675 -0.06384412 0.37453976 0.44563523 0.03932163 0.37330738 -0.5201475 0.065385036 -0.18871948 0.19830833 0.88638496 -0.35974994 -0.122897714 0.70748144 -0.46574265 0.46447137 -0.11131976 -0.091794364 -0.53063256 0.43893433 0.35047433 -0.6559853 -0.6976543 -0.4280377 -0.3827929 0.32039255 0.6603088 0.3405736 -0.5789423 -0.17689253 0.3154441 0.06468153 0.9656089 -0.5941857 -0.7483606 -0.45664635 -0.20732053 0.2927937 0.04087762 0.26175222 -0.54037464 0.5380753 -0.99468124 0.95000345 -0.99514896 -0.327614 0.6825735 -0.5307429 -0.676963 -0.24003452 0.3394108 -0.59630716 -0.39475217 0.97676843 0.024395239 -0.46802333 -0.30012518 0.88914764 -0.22202246 -0.7015307 -0.56388414 -0.28169054 0.3269242 -0.77230483 0.7592095 -0.19974461 -0.24044584 -0.20194921 -0.50350827 0.37070045 0.54079115 0.464705 0.5520133 0.26365662 0.9499577 -0.4329299 -0.59990215 0.7228335 0.6802105 0.6396563 0.5243965 0.63646287 0.8998973 -0.51855713 0.1160054 -0.9032818 0.29039255 0.5697827 -0.026940407 -0.79267913 0.57436347 -0.47640494 0.63821566 -0.9788723 0.8076889 0.6899346 -0.7183353 0.75016004 0.8405648 -0.62399244 0.3159569 -0.73175895 0.60969406 0.9775397 -0.89824325 -0.21884626 -0.0626816 0.24077073 0.34145805 -0.6277173 0.7603677 -0.6049464 0.94512993 -0.50125813 0.10260788 -0.685359 0.21233845 -0.9981028 0.49707553 0.2676284 0.8988951 -0.5575058 -0.8647752 -0.9422704 -0.9333528 -0.4133955 -0.46884176 0.23299094 0.7382472 -0.8185234 -0.38414776 -0.24065393 0.029604588 0.20348683 -0.4370607 -0.9365323 0.7977157 0.53346854 0.14267777 -0.94798845 -0.06473333 -0.27200478 0.0906391 0.9052074 -0.56924224 0.93954074 -0.8155844 0.3275201 -0.063654415 0.997748 0.8568986 0.34097016 -0.71409184 -0.23864 0.29099694 0.24338114 -0.8175504 0.4342713 0.08194415 0.2279316 -0.745832 -0.6177496 -0.9161066 0.20505556 -0.98602235 0.40881416 -0.019882593 0.37617537 -0.070376396 -0.94670296 -0.8819459 0.9308142 -0.76448447 0.9760492 -0.2861002 0.36974642 -0.38212293 -0.16077305 -0.8219472 0.3291523 -0.061312765 -0.4632603 -0.8352476 0.34078544 0.9725875 0.22643442 -0.5602148 0.26987395 -0.27788937 0.13538966 -0.3890654 -0.29147163 0.39566505 0.9334092 -0.9455724 0.10746598 0.83640045 -0.13109049 -0.46845165 0.6106685 -0.3772445 0.94115907 0.5259818 -0.72023284 -0.3007561 -0.45933908 0.477693 -0.5989099 -0.31007782 -0.9273031 0.24336623 0.852629 -0.5994429 0.7843491 -0.41348788 0.7553761 -0.782884 0.8337013 -0.44748217 0.46434897 0.31820685 0.34530243 -0.21888015 0.7933769 -0.32596138 0.45678043 -0.5614986 -0.031000322 0.81260353 -0.5587911 -0.6498066 0.30312985 0.42387545 0.06985606 0.46143612 0.4561507 -0.24407446 0.96946275 0.32834098 0.68461144 -0.18510813 0.75819266 0.16506192 0.290398 0.32884604 0.010711252 0.77152336 0.4564145 -0.12858139 -0.12845813 0.060504314 -0.81523085 -0.69393533 -0.37733138 -0.77293813 -0.75705475 0.4909306 -0.6619423 0.42631704 0.6996107 -0.18583375 0.39337584 -0.023711491 0.45029742 -0.94510996 -0.9863586 -0.49955294 -0.6977037 -0.9261943 -0.49888605 -0.93371207 -0.059794083 -0.095403306 0.8223316 -0.6691289 0.41598216 -0.63681465 -0.036178164 -0.62652093 0.55820423 0.063024394 -0.080592334 0.5380559 -0.7525351 -0.6349314 0.98987967 0.5720347 -0.39247456 0.4384024 -0.7870891 -0.8935143 0.10607182 -0.09605374 -0.28526005 0.94815046 -0.26333395 0.8017954 -0.62123644 0.42342365 0.9044861 0.011817184 0.04366208 -0.918749 -0.18540116 -0.37776196 0.07515264 -0.047104213 -0.8012247 -0.99803627 -0.80307794 -0.88789046 0.49510399 -0.39088932 -0.0068974798 -0.09701598 -0.7849588 -0.6101991 0.81646866 0.030586379 0.4742602 0.0065139756 -0.58314675 0.17340432 0.2828206 -0.61663836 0.13185106 -0.45790234 0.05584391 0.8218634 -0.41351742 -0.194438 0.27487037 0.79481703 -0.22417006 -0.9824495 -0.82671815 -0.64080447 0.24165793 0.13146806 -0.26577824 0.13170566 -0.950997 0.5659179 -0.36956283 -0.6320277 -0.6863099 -0.5389721 0.5077169 0.9942213 0.5793678 0.5037732 0.7971823 0.60662514 -0.63529164 -0.8692831 0.2893088 0.029833507 0.12629144 -0.8315132 0.74542356 0.21286039 0.41218382 0.8608612 0.23460181 0.7837459 -0.057773545 0.030518787 0.5810264 0.8554812 0.725438 -0.09629857 -0.8715016 0.3396169 0.95411575 -0.70405185 0.91898876 0.5662393 0.13487883 -0.8209651 -0.20824717 0.7638631 0.45686015 0.896897 0.18827665 0.6904182 0.8667775 -0.4650443 0.46969354 -0.18092468 -0.6865058 0.84658664 0.4954498 -0.63239765 -0.6823235 -0.99606264 0.37397754 -0.8590883 -0.876785 0.32765284 0.42098132 -0.9711986 0.8906266 -0.6260582 0.61106056 -0.941028 0.1546852 -0.98101306 0.44307834 -0.9080267 -0.7127943 -0.19890064 -0.48006377 -0.8810249 0.037407253 0.9974599 -0.70710194 -0.92271334 -0.6542797 -0.12411114 -0.9628814 0.978333 0.40518618 0.22642922 0.10152805 0.7670207 -0.41043112 0.9061237 -0.33997843 -0.2344788 -0.28985226 -0.72262055 0.7419385 -1.0025638 -0.48772973 0.6422537 0.05817515 -0.25422975 -0.38008603 -0.55861014 -0.17529073 -0.38390145 -0.10721984 -0.07587658 0.8894721 0.656415 -0.2598753 0.8675617 0.60474527 -0.93140364 -0.13936713 0.277925 0.26559785 -0.55123246 0.0129981525 -0.6037018 -0.06778826 0.43434358 -0.3383365 -0.7463004 0.024001375 -0.5109647 0.6973336 0.15061459 0.32163063 0.637443 0.25201544 0.73548096 -0.90141714 -0.16246286 0.38221893 -0.9574418 -0.83882105 -0.8661608 0.5758822 -0.99165636 0.8163347 -0.4786911 0.6818233 0.12431131 -0.72082037 -0.7846213 0.9345053 0.80924016 0.37788606 0.56742877 0.27752545 -0.07094732 -0.6358532 -0.62138844 -0.29874906 0.9971062 0.8668091 -0.6280999 0.19672847 -0.7213242 -0.899323 -0.9360932 -0.6690144 0.42582786 -0.39442787 -0.027978543 -0.35370433 -0.63168347 -0.6580508 0.3660772 -0.94957715 0.27718917 0.6653052 0.25810322 -0.6367101 -0.7560051 0.3474181 0.19663392 -0.5966661 -0.58819187 0.19591953 -0.30621076 -0.027214168 -0.5167023 -0.14995947 0.3779086 -0.11886284 -0.50717115 -0.70216125 -0.16599658 -0.50981987 -0.97906196 0.2126908 0.57302576 0.56641096 -0.88478124 -0.21575497 -0.63259095 -0.37711933 0.22540909 0.1568628 -0.14638083 -0.3654823 -0.14852856 -0.46377897 -0.096283905 0.7947226 0.81273943 0.9218659 -0.7740018 0.22576967 0.8588655 0.9413925 0.45293498 -0.008558547 -0.71634334 -0.65003127 0.95954645 0.92135 -0.24168766 0.36252123 0.9323014 -0.8772497 -0.96161455 -0.5539146 0.83419627 0.64244884 -0.30455363 0.95067066 -0.45578736 -0.42161223 -0.11387403 0.12080743 0.26188448 -0.34418762 0.522536 -0.8143312 0.08747588 0.53642786 0.9207581 -0.12887087 -0.96532035 -0.59773844 0.0015294991 -0.949902 -0.34190747 -0.051196456 0.58956635 -0.7609786 -0.444257 0.23216628 0.45587364 -0.9254663 -0.23745303 0.9586471 0.78262424 0.11411943 0.21173051 -0.34759653 0.034265943 -0.072431654 -0.33680573 -0.075978816 -0.20152332 0.1211981 0.029861862 -0.40458494 -0.47016677 -0.19658993 0.8021953 -0.66367227 -0.72411937 0.06581152 -0.56704813 0.31158006 -0.58620316 -0.58598286 0.2691904 -0.7492138 0.29217076 -0.61533993 -0.9779156 -0.13670228 -0.51727986 -0.3540828 -0.6018039 -0.5482587 -0.44615352 0.09324939 0.6152312 -0.892422 0.21260488 0.85834837 0.08204389 0.33780155 -0.7056837 0.9195274 0.33416656 0.24146162 -0.01384381 -0.04463526 -0.13364206 -0.05599859 0.99489695 -0.6357425 0.8555582 -0.6947814 -0.96023524 -0.6406367 -0.64724404 0.11895021 -0.8248694 -0.40957695 0.89472157 0.7381272 0.3093483 0.052663308 -0.12790011 0.014466704 0.5999025 0.71991605 -0.39263663 0.7879721 0.7364178 0.82435846 -0.9376629 -0.9488952 -0.12975796 0.79551727 0.55653435 -0.984572 -0.57864535 0.8195136 0.74571335 0.20595925 -0.61630994 0.9865145 -0.78206384 -0.024957838 0.08070989 -0.8270991 -0.3895396 0.7456828 0.9853959 0.047043893 -0.79674906 -0.24923937 -0.56906235 0.7336547 -0.981745 0.9453567 -0.6874245 0.8000967 0.5591279 -0.38163698 0.5551826 0.7859631 -0.93698186 -0.1515393 -0.34338835 0.69967645 0.67745167 -0.65202856 0.29351947 0.038433295 0.9981951 -0.81423706 -0.49329594 0.18499216 -0.6838375 0.90651244 -0.87380904 0.3521138 -0.26336327 0.08617515 0.82027376 -0.98131466 0.78960353 -0.13030307 -0.007040655 -0.9118838 -0.50794744 0.07089373 0.9881045 -0.3847263 -0.113451466 0.46148342 -0.44979012 0.8569145 0.8858108 -0.3919211 -0.20048113 0.61355335 -0.959508 0.89102453 -0.7614688 0.06198024 -0.002226777 0.8219544 0.048433233 -0.024549767 0.7428415 0.34861398 0.9904264 0.18183237 0.07878896 0.40708992 0.93856794 0.97777617 -0.69523156 0.031288635 0.5482679 -0.786863 -0.29133102 -0.6950396 0.23957324 0.87069523 0.74220896 -0.49716926 0.6664272 0.20663771 -0.9058553 -0.21609177 0.8486508 0.8668253 -0.120627165 -0.31744885 -0.30773452 0.080573305 0.6393814 -0.92703754 -0.38201687 -0.6963839 -0.5945243 0.75267535 0.11848992 -0.9588166 -0.21358964 -0.6460487 -0.37461263 0.52283275 0.029990926 0.85251397 0.9808695 -0.34936443 -0.70324445 -0.06290215 0.23075177 -0.6351342 -0.055851504 0.6188578 0.10008541 -0.3636309 0.5775966 0.19368619 -0.1295675 -0.34104308 0.77140737 0.15087707 -0.98954916 0.54366046 -0.66116387 0.43420663 -0.2739619 0.6279259 -0.7054617 0.06511388 0.89407533 0.21043254 -0.7622442 -0.35748714 0.845958 1.0024371 0.75959635 0.021507047 0.9074152 -0.74341166 0.8417526 0.61059576 0.4827395 -0.6867037 -0.7794262 0.054482587 0.28393757 0.07493268 0.2196422 -0.8356598 -0.39790738 0.46565202 0.2848327 -0.27513322 -0.331165 0.3987075 0.24870057 0.6036673 0.2977768 0.28726554 -0.45199186 -0.015197391 -0.020747703 -0.23436777 0.023637975 0.2777873 -0.977331 0.5540784 -0.9229486 0.83546084 0.84808713 -0.9290953 -0.29846883 0.59661835 -0.09902798 -0.46772948 -0.8551212 0.71145326 -0.056848828 0.03627395 0.71658736 0.24342377 -0.5782842 0.8301436 -0.72227746 -0.20461257 0.9775992 -0.14026706 0.5448537 -0.6325643 -0.3838463 0.24580635 0.11753073 0.9089825 -0.6504179 -0.80612373 0.6601925 -0.5970063 -0.7978213 0.035361998 0.8984327 0.9964732 0.8463346 -0.7201573 -0.7933824 0.06786072 0.009853882 0.11093548 0.48025388 -0.045945875 -0.82307035 0.9178343 -0.63438964 0.021622276 -0.66002005 0.36699203 -0.63240576 0.8839698 0.6581432 -0.57169336 0.2093659 -0.7359246 -0.74526197 0.35625863 0.5470932 0.5251043 -0.8801935 -0.49370694 -0.52715904 0.50954145 -0.8800077 -0.89854366 -0.74321234 0.42401835 -0.381512 0.2782661 -0.22139452 0.6995877 -0.49719954 0.035620894 -0.8433077 0.6492742 0.15923057 -0.0034174912 -0.76248276 -0.58358586 0.44471547 -0.5988115 0.32466125 0.10853559 0.18748967 -0.7062652 -0.72169197 0.8614352 0.9358965 -0.32442343 -0.7892138 0.93558943 -0.13193232 -0.77495843 0.118804365 -0.55427265 -0.5882395 0.8128479 0.93484974 -0.5557282 0.56111526 -0.70078456 -0.24702354 -0.3421288 -0.28924373 -0.081366226 -0.59973925 -0.3643226 0.7090998 0.51177055 -0.63447976 -0.12465238 -0.1779587 0.1947871 0.32742617 -0.9954968 0.2568664 0.19020829 0.99284786 -0.7270942 0.9907448 0.5847999 0.88798976 -0.81070256 -0.0981011 0.11569619 0.6335641 -0.6441343 -0.677789 0.5494417 -0.6049936 0.8418875 -0.415987 -0.9682003 -0.532209 0.5029595 -0.7747245 0.5545795 -0.77904886 -0.78617597 -0.31994298 0.2780954 0.3779864 0.6064769 -0.6276781 -0.47850358 -0.6994424 -0.4273003 -0.36271045 -0.6912873 -0.18452145 0.692688 -0.41426483 -0.098244555 0.29027194 -0.5556772 -0.078697614 0.03206151 -0.4245679 0.97736347 -0.70699805 0.6581993 0.46294716 0.1534971 -0.970134 -0.10293392 -0.91057783 -0.994419 0.8339304 0.9540663 0.7543918 -0.17803924 0.3910131 -0.81189644 0.8793672 0.39902872 0.26706773 -0.33269885 -0.54432875 -0.33217934 -0.23630291 0.25388694 -0.362994 0.55061716 0.7836615 -0.77700585 0.15980299 -0.09584072 -0.71222997 0.85602015 -0.54799736 -0.16429342 0.7467164 -0.23559383 0.30205816 0.27277148 0.3498352 0.53965366 -0.3029418 -0.89006203 -0.091523364 -0.6052569 0.21537465 -0.7892691 -0.6178132 0.83539855 -0.82796216 0.0823455 -0.44808543 -0.9284438 0.6259577 -0.42310533 -0.18250826 -0.95502645 -0.42338246 0.09650902 -0.9332917 0.08421396 0.49167967 0.45715225 0.90004545 0.7629255 -0.22839765 0.23536342 -0.929522 -0.157202 -0.98809683 -0.5532252 0.15139207 -0.29114798 0.88775826 -0.89958745 0.9282457 0.65081364 -0.3320504 0.8160769 0.7000477 -0.6522165 -0.09806801 -0.5742635 -0.3257733 -0.8821552 -0.40405604 -0.43841586 -0.9402206 -0.35713622 -0.33696276 0.7554874 -0.33711827 -0.22916955 0.80297244 0.23521529 0.19598457 -0.66299295 -0.48591572 -0.7195756 0.5658793 0.54883647 -0.6632022 -0.17521915 0.99771553 -0.1960018 -0.037154976 -0.5262893 0.9339819 0.86715937 0.8965686 -0.31393316 0.5280999 -0.8351436 0.23408936 0.56750524 0.70176303 0.9867064 0.50982666 -0.26825184 0.32200053 -0.778861 0.88738483 -0.44617316 0.934189 -0.126547 -0.80002224 0.3101169 -0.20763573 0.22415808 -0.5598076 -0.19431928 -0.45043665 0.79888177 0.09823231 0.0907771 0.41559657 -0.22430274 0.03637918 -0.097625844 0.07720863 -0.7520961 0.72193915 -0.34342808 0.9122887 0.3475583 0.055742748 0.9318588 0.36337993 0.67978317 -0.17160332 0.21484292 0.44512483 -0.9430246 0.5638428 0.3784293 0.1500249 -0.65335286 0.3235001 -0.24174418 -0.70623004 -0.21731399 -0.19625546 0.03717376 0.64144295 0.592126 0.8616782 0.51142395 -0.7699004 -0.631272 0.8688912 -0.27978954 -0.9048376 0.15920858 0.4278956 0.9729824 -0.44027647 0.9611139 -0.85241324 0.56320405 0.5228005 -0.85352004 0.46483722 0.20947415 -0.3239523 -0.865919 0.25232777 -0.034276105 0.35452905 0.05677983 -0.029168578 -0.37618443 -0.84702927 0.2424052 0.89485115 -0.43043366 -0.4968477 -0.39664945 0.37934726 -0.12137648 0.28010127 -0.9528531 -0.4132165 0.69502497 0.029274033 0.43267193 -0.87229943 0.474293 -0.13718192 -0.1893257 -0.18475103 -0.22677316 0.28362814 0.25126436 -0.8613025 -0.5228297 -0.12041016 0.75218314 -0.9753776 0.93756336 -0.6720394 -0.94191253 -0.046463184 0.082654215 -0.12432345 0.9949891 -0.7294115 -0.7655603 0.69848233 0.5654223 -0.38048068 0.24769844 -0.84124666 -0.5322969 -0.7733161 -0.628253 0.24986391 -0.6075457 0.56311756 0.47528705 -0.7697377 0.23010713 0.21096598 0.7479742 -0.8990059 -0.12807806 -0.6923147 0.08342578 -0.8179337 -0.93658394 -0.6692175 0.7658077 0.8653328 0.53485614 -0.023069803 0.9669174 -0.07116733 0.42935327 0.4960112 -0.1010971 0.19638166 0.47430497 -0.64489186 -0.58716583 -0.856409 0.18787064 -0.81526643 -0.17945552 0.9463337 -0.92915857 -0.74400955 0.05117407 0.62560415 -0.3502037 -0.28509983 -0.3768708 0.93438655 1.0262173 0.29139116 -0.4157694 -0.1323653 -0.3436013 -0.9745998 0.7318333 0.21195672 -0.71333605 0.59933126 -0.260022 0.6750211 -0.56155366 0.53336626 -0.6589683 0.49668032 -0.07447011 -0.058142893 -0.79636467 -0.07509882 0.9051804 0.15154183 0.6498891 0.42701897 -0.6494886 0.9895755 0.33822215 0.5915468 0.50680995 -0.18811084 -0.50429213 -0.08498332 -0.89641273 0.3121286 0.7793249 -0.28866836 -0.77646977 -0.5176586 -0.1842502 -0.027928233 -0.8018795 0.69926286 -0.91807586 0.29481027 -0.88931775 0.11819056 -0.3405801 -0.49421138 -0.2471224 -0.29726914 0.36009184 0.2127601 -0.14903834 0.33397353 -0.14631476 0.6184851 0.14133187 0.28593656 0.43487823 -0.76588076 0.31132117 0.33695522 0.75114363 0.25812784 0.8828957 0.20858116 -0.49107632 0.3226694 0.43256795 -0.88735867 0.3339963 -0.67567086 -0.22504032 0.33955535 -0.759183 -0.009667898 0.6907181 -0.33459234 0.9974912 -0.974446 0.79093426 -0.6157502 0.6199483 0.14335427 -0.1388739 0.09571743 0.28363645 0.07798355 -0.12718962 -0.6074171 0.29488927 -0.92936695 0.8182206 0.48050335 0.45776913 0.25460395 0.25231287 -0.50345683 0.89509755 -0.14802086 -0.9382972 0.68813646 0.9466454 -0.59572226 0.307864 0.14512478 0.5007985 -0.7410751 0.35010165 0.87457806 0.07038315 -0.42077523 -0.6488012 -0.85653675 0.6862437 -0.6727092 -0.29504624 -0.67334086 0.35046074 0.32801715 -0.08902324 0.44772848 0.0040557813 0.31483564 -0.5592949 -0.7931783 0.8383748 0.32173222 -0.8191973 -0.50809747 0.07793137 0.6411708 -0.7646949 -0.084522955 -0.4279737 0.35744432 -0.51588815 0.43930745 -0.26677644 -0.62743664 -0.6372616 -0.124237455 -0.57453656 -0.07794224 -0.25611907 -0.2943381 0.6277199 0.5179076 -0.105248794 0.7387183 0.023977943 -0.4289194 -0.7322285 0.4840612 0.07351367 -0.55892104 -0.72787625 0.68864167 -0.16424765 -0.28488645 -0.66148204 -0.12143065 0.78355294 0.36451095 0.041116018 -0.9230749 -0.28102633 0.49896485 0.10786945 0.9595587 -0.3686461 0.560713 0.7919462 0.20278056 0.223159 0.11377223 -0.51120603 -0.36441877 -0.1634945 0.8658968 0.43068576 -0.59085166 0.23265624 0.22634377 0.8558729 0.19944182 0.30810043 0.050634183 -0.5852298 -0.56643486 -0.48111248 0.016982634 0.28264278 -0.078580126 0.5663216 0.018835545 -0.21868218 -0.0023256538 0.904005 0.42497608 0.61696714 0.78672 -0.21338934 -0.9780997 0.017816871 -0.81285626 -0.007128784 0.7897383 0.8437191 -0.6961002 0.37178117 -0.42935228 0.33130115 0.6238345 -0.6263436 0.065023646 -0.06446857 0.05064993 0.045118254 -0.6313359 -0.34307256 0.22588576 0.12988518 0.8175313 0.13520102 0.032672763 0.9904316 -0.11168378 0.27420938 0.5348461 -0.93032366 0.33342758 -0.6691901 0.37893903 0.10631178 -0.5414379 1.0120429 0.83440876 0.5128617 -0.8508011 -0.9269654 -0.9631854 -0.81333905 0.6837175 0.7566387 0.76236 -0.4597231 0.56442535 0.8048811 -0.80750054 0.88542247 -0.6809364 -0.13971926 -0.30420676 0.44677913 -0.3621711 -0.36514333 -0.82423806 -0.40083683 0.49950087 -0.56123775 0.553077 0.8443983 -0.8566457 -0.7502115 -0.059458863 -0.4391638 -0.76669204 -0.9577627 -0.90186954 0.33266652 -0.06259485 -0.8460727 -0.038803574 0.8288741 0.2549003 -0.21868038 -0.84193516 -0.57623893 -0.52565116 -0.7940773 -0.14206034 -0.353173 -0.50180304 0.22043398 -0.027028002 0.63184816 -0.9351227 -0.66608447 -0.51150566 0.15706944 0.10128379 -0.46196577 -0.20109433 0.3790074 -0.32973933 0.16850805 0.58468235 -0.073378 0.010009628 -0.9615263 0.8501714 0.62456113 0.8104239 -0.5443048 -0.9497927 0.85534495 -0.67510855 -0.8253814 -0.09606582 0.59706986 0.24907658 0.7613557 -0.6171215 -0.6181009 0.8445788 -0.8666075 -0.83244485 0.81398654 0.87440246 -0.56113994 -0.82941777 -0.831578 0.72229195 0.9104699 -0.77618897 -0.017229442 -0.085212536 0.26516464 -0.80836636 -0.35739887 0.4183462 0.36703086 -0.784715 0.41250187 0.23047052 0.7308577 0.8115111 -0.044413835 0.43344247 -0.78723866 -0.15737139 0.5574135 0.9066179 0.08712015 -0.3264903 -0.96879864 -0.5823676 -0.62627697 -0.89782214 0.6781502 0.1857424 0.75812536 0.45883372 -0.47975123 0.86063665 0.39730108 0.09885512 0.5896631 0.1600818 0.3529166 0.11968256 0.062547356 0.474457 0.5440693 0.06535287 -0.17293574 -0.7215142 0.14608955 0.53680885 0.6074199 0.7098609 0.14532053 1.0281664 -0.6842514 -0.028678123 0.16269113 0.52083653 0.44595906 -0.7448201 -0.0028255403 0.49855658 0.03866603 0.013235275 -0.9685278 0.44659185 0.49533087 -0.041276302 0.020230036 0.78878725 -0.25625986 0.041150946 0.47855902 -0.4972152 0.020251937 0.7294173 0.49086064 -0.08713359 -0.9841814 -0.17704973 0.673304 0.82736856 0.18366486 -0.4383485 -0.3731918 -0.9254036 -0.72780585 0.7169153 0.133734 0.42558175 0.63251555 0.28424567 -0.67539966 -0.037841026 0.2659949 -0.3177407 -0.8425927 -0.20865895 -0.160973 0.28902757 -0.8248923 -0.7744255 -0.39029506 0.6980474 0.9388769 -0.27616245 -0.46293858 0.016150571 -0.9700163 0.93083644 0.738736 0.19193946 0.1364234 -0.14047611 0.71184844 0.6457032 0.7823891 -0.19155475 -0.36518803 0.71283937 -0.29286256 -0.7916414 0.20131887 0.6625831 0.44230545 -0.5002382 -0.18612877 1.0031997 -0.42503548 0.3398001 0.097687766 0.97360533 0.7404305 -0.056685098 -0.3453921 0.79351634 -0.08085734 0.44641608 0.88671625 0.5262044 0.8974708 -0.52699465 -0.8338412 0.29491186 -0.7529688 0.5613024 0.65468305 0.050642367 -0.46338868 -0.59219867 0.60058224 0.25226662 0.2365677 0.1515629 -0.036821198 0.69635284 0.05463312 0.39870965 0.04870973 0.327633 0.9837748 -0.24846879 -0.21488357 0.62483346 -0.3464849 0.8385978 -0.48675212 -0.2834308 0.0105626695 -0.7947613 -0.6199313 0.19681342 0.38375652 -0.58248794 -0.7122577 -0.56118304 0.29818508 0.2222357 -0.05447039 -0.5890419 0.45781815 -0.7703561 0.58463705 -0.3208719 -0.3290442 -0.76386446 0.47083032 0.8336324 0.17066614 0.9858079 0.1926219 0.28131118 0.33226424 -0.38029504 0.16357076 0.31110215 0.5043029 0.30071944 0.07329128 -0.6971382 0.21526256 0.30280566 -0.60575277 0.9861779 -0.6909004 -0.9638478 0.42264876 0.8537068 0.49746633 -0.8739744 0.12667257 0.41145414 -0.41790563 0.435506 0.5635749 0.08001676 -0.6873833 -0.13215362 0.70730716 -0.695155 -0.10603459 0.69911677 -0.7690072 0.7394413 0.098394305 0.3178496 0.45288116 0.6721003 0.4081726 0.28323537 0.1529052 0.79261523 -0.7767803 1.0100342 -0.84583175 0.43515792 0.20862485 -0.6475308 0.5210384 0.4734464 -0.5380063 0.80229616 0.5790502 0.93287486 0.3699026 -0.07688245 -0.86046636 0.14755353 0.08900655 0.9616659 0.08654936 0.46313015 -0.085272186 -0.43540072 -0.050407503 -0.6936038 0.6997882 -0.40815932 0.82473874 0.5399089 -0.70700145 0.8043398 -0.5510051 0.42182788 0.055258848 -0.07169019 -0.5599082 0.7091091 0.80756384 -0.11768217 -0.14062937 -0.028354574 -0.10667363 -0.3149805 -0.9784905 -0.9098345 -0.5765275 0.9001587 0.3953534 0.41284359 0.9156618 0.93945163 0.80569035 -0.9613128 0.38615814 0.8970723 0.9957805 -0.43369633 0.37009984 0.6405825 0.1917915 0.29115206 0.6264387 -0.7117669 0.4129894 -0.8466505 -0.8356015 -0.05266765 -0.9902797 0.37518016 0.75855684 -0.7341264 -0.3694595 0.6337018 -0.67238694 0.113535315 0.24832007 -0.6169607 -0.1324039 0.054370552 0.90919626 -0.27158198 -0.30003074 0.8771282 0.84783286 -0.47688425 0.1732697 0.49084353 0.96141696 -0.95199573 0.24750236 -0.04848247 -0.5487928 -0.18532024 -0.16003478 -0.9714249 0.06034185 -0.8288234 -0.6659859 0.37108645 -0.7468537 -0.16287425 -0.8834763 0.49232927 0.43215305 0.19590801 0.11982052 -0.9019179 -0.109473534 0.5851592 -0.69790184 -0.38919526 -0.47832346 0.49630815 0.17373239 9.95068E-4 0.40665463 -0.10862157 0.42858183 0.5544842 0.048067193 -0.13131233 -0.48333198 -0.8672985 0.34253582 0.5113834 0.9269419 0.16352373 0.25405157 0.009868968 0.45334226 -0.3600233 -0.87900734 0.43514735 -0.2293677 -0.11420028 -0.5596684 -0.009320385 0.96874523 -0.74257654 0.05911528 0.10295962 -0.10575887 0.5083229 -0.6720052 -0.10243371 0.34810376 0.73486745 0.3344887 -0.98135614 -0.069306985 -0.28370878 -0.0495355 0.45748377 -0.3160354 0.45965707 0.53268313 -0.063605875 0.3652795 0.4786648 -0.016029079 -0.19758432 0.85141927 -0.4527311 -0.07369568 0.58921516 -0.39463094 -0.3107995 0.7694443 -0.07036856 -0.51524067 -0.6262311 -0.7010146 0.77685463 -0.8632613 0.7146945 -0.6121546 -0.998782 0.46994442 -0.2398351 -0.31661627 -0.32879832 -0.041098624 0.81745815 0.23896053 -0.5879853 -0.98533446 -0.6326319 0.41000393 -0.27554005 -0.7006058 0.16817333 0.61653745 0.7446957 -0.17166576 -0.6541685 -0.3462528 0.880161 0.0010226889 -0.8385561 -0.8118581 -0.13895041 -0.35821036 -0.7137961 0.047447223 0.8077208 -0.47267312 -0.24794161 0.42619896 -0.77201337 0.44913986 0.49228364 -0.58269215 -0.4834893 -0.39895657 0.9710489 0.43454263 0.5762904 -0.9399748 0.2670748 0.15475339 -0.5341788 -0.03880078 0.005264441 -0.9007011 -0.42889485 0.7718144 0.3778165 -0.3602675 -0.5519164 0.28951547 0.21901251 -0.79366416 -0.5937859 0.5737713 -0.1777695 -0.73822314 0.46018395 -0.354677 -0.42568982 0.34108263 0.5525114 0.44527715 0.5235482 -0.99639314 0.20176186 -0.23439692 -0.5683831 0.5026152 0.3664659 -0.10391537 -0.83858943 -0.40814158 -0.79447097 -0.6325864 -0.50187993 0.5703295 -0.16804573 0.103223994 0.85787255 -0.07916365 -0.64587724 -0.7338983 -0.7689284 0.26439023 -0.60589933 -0.09347191 -0.49687234 -0.40783834 -0.85309255 0.633773 0.26731148 -0.8503568 -0.16177376 -0.6822037 0.12296869 -0.54294395 -0.9697193 0.92234993 0.45904773 0.81848395 0.9494492 -0.71026367 0.51065284 0.90604323 -0.84340835 0.95844436 0.91232264 -0.5874865 -0.7213121 -0.21230409 -0.77801263 -0.56616414 0.111843914 -0.54011786 -0.13168024 0.98672795 0.9371372 -0.60538805 -0.28975263 -0.5438469 -0.06065255 0.41565254 -0.744237 -0.07892264 -0.35277924 0.09261802 0.99790967 -0.9493393 0.81013036 -0.40425277 0.8235866 0.8694919 -0.72334415 0.82355446 0.03861992 -0.26604745 -0.2449581 0.47778794 0.5896975 -0.19634162 -0.49185923 -0.24065267 0.74603003 -0.327991 -0.104944594 -0.7865492 -0.9211334 -0.16389383 0.15426026 0.88824683 0.92185 -0.8372838 0.9200217 0.5163473 0.5061839 -0.04182117 -0.78372693 0.1009978 -0.4373349 -0.849498 0.62281656 -0.1984987 0.5949643 -0.07924971 0.93452144 0.95634055 0.53136075 -0.2213572 -0.3624314 -0.51010156 -0.9600666 0.034167465 0.15198228 0.61829424 0.9787583 -0.12024051 0.6784583 -0.53064895 -0.6235247 0.29025114 0.5966515 -0.7394509 -0.8805786 -0.23220262 0.73811454 0.57846403 0.08341272 0.22470088 0.36762556 -0.4253861 -0.9585445 0.57309556 -0.10631754 0.6048539 0.23572806 -0.04696695 0.98504084 0.2409657 -0.07638596 0.49450612 0.3713584 0.45283076 -0.16422231 -0.32233843 0.80522674 -0.61197865 -0.3273614 -0.41546375 0.8208989 0.59653366 -0.7375105 -0.24764079 -0.52151227 -0.5311791 -0.5646884 -0.40716058 -0.18680468 0.3195297 0.13604376 0.644359 0.26187262 -0.042212293 -0.48574883 0.71576065 0.7514772 -0.5654076 