-0.95298785 0.6979084 -0.95508343 0.3170254 -1.1140445 -0.6488092 -0.32565153 0.8394558 0.659563 0.38217083 0.8511507 -0.98001164 0.5004048 -1.0247904 -0.5726093 0.35195476 0.7645615 0.57470804 0.12099008 -0.5683477 -0.5575154 0.49504873 -0.81908447 0.82581633 -0.5838503 -0.597169 -0.39005718 1.1166352 0.21373054 0.46200815 -0.49499074 -0.83014417 0.18581237 -0.25068238 -0.17066528 -0.68241614 0.34712774 0.23687692 0.35476872 -0.1105237 0.6601937 -0.90452 0.8826115 0.4089542 -0.61860573 1.3597344 -0.37013766 -1.0293989 0.55769527 -0.6762809 1.1034135 -0.5708324 0.2043752 0.9605396 0.93034434 0.62232494 0.022876779 0.8316535 -1.2494435 0.48923397 0.6211258 -0.039712135 0.43283165 -0.11631241 -0.8629326 0.25493193 0.6354024 0.7534851 -0.6133446 0.69639295 -0.98467535 0.46816766 -0.7152985 0.16459346 -0.7125251 -0.588776 0.660489 -1.1782928 0.5365474 0.005403709 -0.64954084 0.58460844 -0.30358946 -0.22722568 0.23936285 0.29830265 -0.3047823 0.87904483 -0.7573729 -0.2464633 -0.21714805 0.6463342 1.1881392 0.7646054 -0.48209557 -0.99355906 0.84552455 0.6531508 0.75507104 0.43342102 -0.90790844 0.5861354 0.37458792 0.36367434 0.2735226 -0.43969542 0.6750265 -0.44870472 0.9791186 0.07460094 -0.50073373 1.0743377 -0.8476111 -0.679103 -0.7674748 0.6933466 -0.38114896 0.29076904 -1.0936453 1.5090809 0.38201153 -0.50297034 0.4837616 -0.9153567 0.20343027 1.143247 -0.25794184 0.6621781 0.43162307 -0.3196678 1.1290807 0.9712209 -1.3621562 -1.2118684 -0.45792678 0.11344307 -0.083969615 0.10137287 0.83169174 0.19539288 -0.015778635 0.72240055 1.0493685 -0.5137738 -0.82444006 0.077165976 -0.81868094 -0.2683237 0.8202264 -0.41554883 -0.7064179 0.75393516 0.08692406 0.38324785 0.33908665 -0.38978595 0.18405573 0.32925153 -0.44008008 -0.15380433 0.7342658 1.0162187 0.52400565 1.3321983 -0.52370006 -0.06314879 -0.021258876 0.8454325 -0.54820275 1.0773323 0.31491593 0.16948785 0.40800267 -0.133782 0.38048342 0.05699279 -0.66101855 -0.65774864 0.22507358 -0.8070602 -1.1770371 0.2714903 -0.45851025 -0.7573919 0.29838684 0.19525509 -0.5433356 -0.60980093 -0.47720897 0.5492467 0.6668885 -0.64160854 -0.6692338 0.5825336 1.168264 0.16758795 1.0419464 -0.40561867 0.36443162 -0.9665776 0.3499498 -0.75178766 0.21791364 -0.41890153 0.97469324 0.33660176 -0.54318756 -0.49434185 0.06745183 0.67236453 -0.26375717 0.69355327 -0.25926015 0.71734816 -0.20939806 -0.8059111 0.30988201 0.04850523 -0.3021168 -0.48337188 0.15973857 -0.17935446 0.25758722 -0.7324394 -0.597517 0.6121031 -0.8459865 0.13961026 -0.9882312 0.17616162 -0.2692177 0.966826 0.06089024 -0.8573437 0.5870523 -0.9002224 0.7645594 -0.6648705 -0.960977 0.34299377 0.34368232 -0.7561903 0.42341 -0.59829235 -0.91843265 -1.1833777 -0.057325646 0.8365376 0.25245982 0.98871464 -0.2737865 -0.87366045 0.94175017 -0.7979208 0.33004484 0.362176 0.978311 -0.045687765 0.45722625 0.5381412 0.08855716 -1.014355 0.72502023 0.3232342 -0.44650352 0.6356922 -0.7533564 -0.11651572 0.4689892 -0.8315001 -0.9866872 0.57481366 0.25843185 -0.85256755 0.21400362 -0.052157763 -0.0014717949 0.559852 0.93673825 0.66755015 -0.56942606 -0.7734254 -0.8230427 -0.16193947 -0.90877855 -1.3810893 -0.95235413 -0.08996231 -0.17698178 -0.1344109 -0.08229357 0.21805452 -1.4209728 -0.25741753 0.39629418 0.607919 0.054420553 -0.40503725 0.6257597 0.62930155 -0.082718395 0.024009882 0.7961521 0.4936338 0.41036412 -0.41482362 0.50942487 -0.58158416 0.106220394 -0.6179494 0.13432884 -0.20194525 0.34001014 0.3586066 0.5345794 -1.139894 -0.29381546 -1.0322657 -0.29013857 -0.39116743 -0.82049024 0.3491849 0.81272066 -0.4065898 0.44613576 -0.9234852 0.35141978 -0.97117263 0.39219895 0.6820375 -0.1392747 -1.3818529 1.199236 -0.8091024 0.581086 0.5868521 0.3275574 -0.37835905 1.0268722 -0.43081912 -0.344573 -0.8007808 -0.28265154 -0.9097103 -0.91273475 -0.14229578 0.36955318 0.38682204 -0.76601166 0.7842437 0.20259722 -0.10694503 -0.92186964 -0.14336738 0.14935407 0.28539833 -0.5203536 -0.29206887 0.88798225 0.7096776 -0.2401528 1.0104771 -0.5746779 0.68307513 0.43448558 -0.87619454 -0.20862646 -0.5988777 0.45379102 0.1391419 -0.5200325 0.85423917 0.2738933 0.07272571 0.077644035 -0.7232558 0.1393401 -0.28521138 -1.2557195 -0.6835227 0.41201013 -0.38688198 -0.27887863 1.0519165 -0.0654538 -0.90582436 0.30760068 -0.95140326 1.249063 -0.94036394 -0.6226387 -0.25066555 -0.23132348 -0.34646845 -0.58628696 -0.39872822 -0.08439832 -0.18766165 0.2567678 0.29318097 -0.25721562 -0.15425247 0.98654276 -1.0144992 -0.47421834 0.3782998 -0.36395964 0.6395336 -0.9564513 -0.9577406 0.44199756 -0.38535458 0.640888 0.68919826 -0.20468566 -0.99794775 -0.6802358 -0.2059648 0.47763315 0.40144557 -1.0657568 -0.8917513 0.03886904 0.4944164 -0.38764414 -0.023672393 0.27326798 0.20412321 -0.03661043 -0.89035934 0.66037595 -0.9496227 -0.19368175 0.38714862 -0.0770267 0.49899238 -0.05703054 0.70170057 0.77490443 0.09832401 -0.33934492 -0.56916225 0.6251434 -0.44004697 0.22502297 0.07348327 0.56300724 -0.3890082 0.07579392 -0.59891796 0.30369666 0.80963016 -0.3858107 -0.8370904 0.22122985 -0.13513242 -0.76869947 0.623118 0.7349042 0.13656531 -0.98093516 1.3157599 0.782325 0.8746907 -0.3702467 -0.9098732 0.67544377 0.8714801 0.6286721 -0.18954554 -0.7893941 -0.21849236 -0.21046779 0.8645827 -0.2033274 -0.4111282 -0.4188953 0.80333006 0.36351728 -0.32947332 -0.06509922 -0.0399163 -0.5297788 1.0227084 -0.09197074 0.61750597 -0.14957978 0.69644934 -0.17554785 -0.8491314 0.025618818 -0.25558248 0.5838493 -0.6627428 0.14948046 0.26244047 0.43547907 0.14331733 -0.20741715 1.026377 -0.7951074 0.043124128 0.7441403 -0.42733777 -0.09004119 -0.97783214 0.22605793 -0.54173565 -0.71752197 -0.5271808 0.5936402 -1.1110398 1.1044393 -0.17914262 0.7789917 0.30581832 -1.3163514 -0.51195097 1.2164531 -1.4227428 0.3470061 -0.46860757 0.4584714 -0.13408451 -0.6139447 0.6910314 -0.0033760348 0.29119503 0.5844633 0.20485054 -0.4832533 0.14141859 0.45822123 0.49742317 0.6438599 -0.37390915 0.49152705 -0.72296005 -0.26001668 -0.25641206 -0.6235114 0.12067943 -1.197009 0.30301657 -0.44340333 -0.5153721 0.6210346 -0.95947 0.800774 -0.87354237 -0.8243312 0.024982328 -0.48181242 -0.4507714 0.24399757 0.46654946 0.032740213 -0.50009125 0.26663744 0.27826378 0.36946943 -0.26395085 -1.584836 -0.9791535 -0.1402098 0.70688105 -0.6949909 0.47233114 -0.28302506 -0.61702603 0.6557855 -0.91680557 0.949952 0.7385887 -0.7417488 -0.11060522 -0.71460146 0.064176925 -0.76532114 -0.22372356 1.1455529 -0.44421354 0.5181648 -0.3573603 -0.9507774 0.5322474 0.7771687 -0.59399384 0.042744197 -0.22752151 -0.08691254 -0.44064438 -0.94528365 0.7949138 -0.7622924 -1.0043343 -0.7428524 0.62275773 -0.4987959 0.26527408 