0.71559185 -0.7085683 -1.6972157 -0.7759203 1.0100101 0.4603081 -0.18713112 -0.08636382 0.8477168 0.7127177 -0.99151343 0.5460404 0.22076291 -1.2487679 1.0245895 -1.2908964 -0.88207567 0.28501087 1.2545928 -1.1775054 1.0378339 -0.53631055 0.5427605 0.042470604 0.0038140574 -0.27050534 -0.8498016 0.46832988 0.5829056 -0.3848974 1.3408113 -0.33864143 0.37886792 -0.045057543 0.12160682 -1.179193 -1.4350106 -0.026289744 1.2750478 -0.9562277 0.6746916 -0.04707377 -0.6793807 -0.039312173 -1.2486182 -0.4658307 0.2488089 -0.3136082 0.2521919 0.9838021 -1.327875 -0.9565259 0.9113631 -1.3128464 -0.0422481 0.005405962 -0.94738966 1.0558319 -0.3103374 0.7707779 0.5932877 -0.83049005 -0.43281397 0.116063364 -0.5044494 0.32452634 0.83283174 -0.97761136 -0.30688167 -1.6386719 0.23068072 0.84746605 0.92978543 -1.2128555 -1.9599186 0.44043928 -1.3804388 0.090071276 -0.34263614 0.69023335 -0.36272517 -0.18238948 0.5611158 0.30315584 0.89489037 -0.91405314 -0.53360945 0.1735209 -0.13900362 1.499372 -0.42508665 0.9821139 -1.2039264 -0.18606594 -0.7885397 -0.07224782 -0.9015233 0.35515594 1.3332497 -1.1390959 0.67667735 1.0138203 1.5988139 -0.6476589 0.30209756 -0.9549364 -0.71306 0.33163273 0.9298577 0.698749 -0.5169285 0.39969894 1.7345152 1.9532124 -1.3300775 0.68042666 0.6832059 0.739334 -0.745427 0.3135855 -1.7874672 0.27386123 0.0052750576 -0.76822263 -0.13543375 -0.43386537 0.9398632 -0.20189135 -0.5845176 -1.3874999 0.11700402 0.076658405 1.17167 -0.36811534 0.67050034 0.5372652 -1.247565 -1.2056212 -0.6031595 0.8152916 0.9603616 0.2000342 -0.15824626 -0.5774476 0.37494588 0.046014618 1.0661778 -0.8924602 -0.37573972 0.13279915 0.04618085 1.364595 -0.029605702 1.2678558 0.59141785 -0.75147694 -0.16031492 0.4609375 0.5546941 0.13895303 -0.49773195 0.18976846 0.37917086 -0.2739366 -1.2748668 0.89951605 -0.76683426 1.2082218 1.0616143 0.3113915 1.0668641 -0.16068614 0.32434177 -0.47232324 -0.191925 0.33974203 1.208882 -1.5071226 -0.81418574 -0.6471292 -0.26184866 0.21010073 -0.8697703 -1.4279569 -0.58846515 1.3808665 -0.2586943 0.5098917 0.23449548 -0.6214745 0.45717853 0.68114316 0.9466705 0.7054316 1.1270243 -0.7925135 -0.41026175 -0.6044929 -0.6161766 1.0077827 -0.7715605 -0.5773868 -0.40303585 1.6185634 0.5740764 -1.1463352 0.4596576 0.62028795 -1.7917514 -1.3445326 0.51030487 -0.5988892 -1.1927328 -1.0133098 0.41327873 0.6254173 0.9267357 0.25954726 0.57916534 1.73984 1.0878116 0.8574132 -0.19047825 0.4291045 0.50270694 -0.10140183 -0.33820197 -0.2576224 0.34239244 1.0560193 0.6791093 1.1210796 -0.4743575 -0.46996856 0.2227681 0.48698023 1.666153 0.7397945 -0.6224063 -0.7576607 -0.13131908 0.6126224 -0.39072537 0.029514648 0.8752116 -1.0532781 0.6253896 -0.064764135 0.44458222 -1.0991018 1.1206027 -1.148458 -0.19200279 0.58684814 -0.47529647 0.44305456 1.2496647 0.41042382 -0.18054703 0.9585598 -0.7480482 0.80197704 1.0526596 -1.2066419 1.2291344 -1.6067722 -0.003461165 -0.038962077 -1.1058342 1.0814371 -0.7194766 -0.50194764 -1.286693 -0.41044185 1.1808338 -1.4547698 0.08783901 0.39744797 0.6923546 -0.14790657 -0.774747 0.49667206 0.6666694 0.7840728 0.28412616 -0.69470537 -1.0574669 -0.79165274 -0.7993122 -0.19528012 -0.097714365 -0.19536932 -0.8803629 0.4509633 -0.03541187 -0.7852151 -0.7503038 -0.9005179 -1.2085495 -0.11960552 