0.28420436 -0.17044355 0.278161 0.3009054 -0.23747571 0.5246261 0.6099739 -0.6443158 0.43876284 -0.28304124 0.5917257 0.8370284 0.30445522 0.94877386 -0.16018344 -0.5891038 -0.8661488 -0.4987735 -0.49188766 0.2981233 0.5979469 0.21259561 0.72707176 0.85165954 -0.810036 -0.19842397 -0.62406445 0.3743156 -0.9820167 0.14058347 0.43665105 0.5630869 -0.22354831 0.5866589 -0.17220831 -0.5849077 0.7315914 0.56201416 -0.82288706 -0.96614826 -0.29539344 0.9417029 0.28884298 0.3898176 -0.1238737 -0.9439197 0.120724015 -0.45933926 0.22280148 -0.44457892 0.79253024 0.0706039 0.40338427 -0.53219396 -0.31537637 0.49356896 0.25939703 -0.7589744 -0.64687353 -0.10299908 0.5330173 -0.49050194 -0.49441788 0.9809578 0.25783145 0.30358416 0.8985907 0.3919009 0.8202384 0.9863456 -0.38466766 0.44062197 -0.9700109 -0.8491353 -0.98757386 0.16817944 0.86005676 -0.31976354 0.47308725 -0.10507202 -0.5165238 -0.84334594 0.25200725 0.78596365 0.08432541 0.81085825 0.9706125 -0.1406356 0.72645116 -0.99274683 -0.20501684 0.42847145 -0.9913654 0.2105685 -0.62049663 0.96248215 -0.019819908 0.92230886 -0.29652375 0.9891111 0.6101889 0.09842195 0.78260213 -0.6371477 0.9726598 0.8768236 0.9884097 -0.90085226 0.5554991 0.12447621 0.80180323 -0.55548656 0.5641511 0.6525598 -0.9680892 0.8236631 -0.61647046 -0.101757504 0.7041675 -0.49417117 0.6320542 -0.34131736 0.4090684 0.5555098 0.1742645 -0.670125 0.27510908 0.5210333 0.5267486 -0.7479716 0.5723559 -0.8653089 0.5967829 0.04845084 0.7908808 0.50485384 0.31178325 0.9161287 -0.06608531 -0.38426375 0.2199443 -0.8876785 -0.2944792 0.76829386 0.3566307 0.2454144 -0.11157858 -0.7984296 -0.32926598 -0.8879078 -0.58794075 0.940844 0.29150647 -0.9500913 -0.33709222 0.3488451 0.80689144 0.43836936 -0.98476136 0.9577422 0.72295296 -0.82492197 0.91430545 -0.8049897 -0.2542127 -0.33237436 -0.4509961 0.41447595 -0.4191335 0.7450916 -0.81978965 -0.6957217 -0.7006912 0.03874473 -0.47969842 0.82364494 -0.49815178 0.92776865 0.8943716 0.6198099 0.9022294 0.89567685 0.52395654 0.33853737 0.5765878 0.9283959 0.4906761 0.3942861 -0.29301196 -0.5277295 0.40932363 0.65305364 -0.2937057 0.15004605 0.11631528 -0.13350417 -0.8867047 -0.439364 -0.08261721 -0.24682634 -0.615365 0.41554996 0.3547405 0.8837887 -0.08740753 0.26610464 -0.8641638 0.6593116 0.5765104 0.06123325 0.8250163 -0.2808251 -0.9500547 0.0047286632 0.044850055 -0.4351233 -0.45581988 -0.5163163 -0.044165105 0.9221541 0.8627587 -0.73522323 0.15099129 -0.5098656 0.6145734 0.56385833 0.39155245 -0.046913967 0.5588398 0.66120213 0.5555719 -0.48582834 -0.11649895 -0.49778745 -0.6392051 -0.4948926 -0.2579358 -0.9304408 -0.70812744 -0.64359057 -0.60291564 0.9338867 0.8408052 -0.5107276 0.85742325 0.45992473 -0.8369227 0.8804179 -0.1804379 -0.942863 0.45025918 0.61582625 -0.6641375 0.32724473 0.7401127 0.6852885 -0.42412555 0.329033 0.096343 -0.43329453 0.9274642 -0.7097928 -0.9869856 -0.260958 -0.86904365 -0.3805898 -0.969104 -1.0161439 0.3928498 0.19560689 -0.88522726 0.91142654 0.019332808 -0.65718246 0.8554687 -0.10571553 -0.10602758 -0.7988154 0.17055386 -0.030701378 -0.16995916 0.058982443 0.04323481 0.33290014 -0.39908296 0.7691982 0.19110218 -0.3788992 -0.49212745 -0.583196 0.6683783 -0.56856024 0.9200071 0.3943722 -0.2824259 0.6051894 -0.67061317 0.007807007 0.69389176 -0.28905 0.1447329 0.09370299 -0.46186 -0.61350775 -0.27196372 -0.7857106 -0.8188639 -0.9183174 -0.683027 -0.7140757 -0.42548293 1.0054424 -0.48786148 -0.4891119 -0.40846625 0.28948665 -0.8642885 -0.46717247 0.35041007 -0.71534127 0.6442465 -0.010011773 0.618763 0.5718064 -0.033954743 0.033118717 0.06478622 -0.3244506 0.59747064 0.5972961 -0.8460041 0.8113559 0.922726 -0.591387 0.5711157 -0.6765836 -0.28250256 -0.92512584 -0.47351 0.07782203 -0.8781063 0.5137821 0.18101282 0.27935073 0.31927413 0.60643053 -0.6816222 0.44406715 -0.5848409 0.3355716 -0.46806696 -0.91207445 -0.49991313 -0.11058672 0.46498218 0.54091007 -0.07545216 -0.2912802 0.2942671 -0.95584923 -0.9104924 -0.5682412 0.21283558 0.10886419 0.029325962 -0.35307902 0.61025745 -0.5281541 0.16939586 -0.71010035 0.39878514 0.6473053 -1.0202384 0.7177072 0.97829705 -0.55591744 -0.49876148 -0.51069695 0.48504227 -0.18344618 -0.67960787 -0.30333018 -0.9658099 -0.47822234 -0.6902833 0.10678792 -0.32952824 0.036355384 -0.34890923 0.13812819 0.5987206 0.16989516 0.27893963 -0.9082792 0.64304686 -0.86596155 0.15117487 0.79612607 -0.63300014 -0.17430063 0.30458882 -0.30499762 0.12774828 0.71109813 0.5112504 -0.72778356 0.2119383 -0.5580115 -0.5700827 0.54101056 0.8847166 0.4861098 0.5225387 0.13368453 -0.71213293 0.23436847 0.94440156 0.28131142 0.67997855 0.8024887 0.9610295 0.97928107 -0.50933677 0.77500737 0.70023775 -0.04590849 -0.0073004174 -0.24372526 -0.42025518 -0.53554076 -0.8837007 -0.8410233 0.9140454 0.8664044 0.6170161 0.060152687 0.16559143 -0.74160886 -0.21894316 0.34528294 0.772699 0.15038528 -0.21244612 0.016307693 -0.5469472 0.005743964 0.97071594 0.10685892 -0.7373058 -0.73311836 0.16362172 0.5054528 0.18142751 -0.2938097 0.43407357 0.3306987 0.055222526 -0.53273 -0.16021904 -0.78093475 0.9621784 -0.33974963 -0.34207785 0.19945508 -0.9794309 0.90421623 -0.009183099 -0.5090137 0.6742726 0.5021444 0.7964962 -0.5769463 -0.94929975 -0.5861455 0.98805046 -0.34752306 -0.84856004 0.7782937 -0.27576432 -0.85045725 0.51928806 0.69858265 0.17670429 -0.70137 -0.60692793 0.7487635 -0.87596065 0.8343994 -0.8024386 -0.2616249 0.9576017 -0.11684271 -0.28620994 0.6339109 -0.45290172 -0.60292757 -0.28769642 0.3114755 -0.9571389 0.35947788 -0.69382274 0.22941512 0.7711 0.31596985 -0.4345354 -0.86047375 0.3511176 0.6367036 -0.039292473 0.37683833 0.8384818 0.054595463 -0.6678816 -0.3297674 0.38109905 0.11343474 0.13270567 -0.39906248 -0.48939657 -0.043856435 0.57534677 0.7634942 -0.13736746 0.7327681 -0.019865438 -0.50614375 1.0007445 -0.042703316 0.4724417 -0.14296421 0.1976463 -0.39787877 0.31476223 0.15801458 -0.17900565 0.9378799 -0.4795279 -0.6172366 0.5070247 -0.13074264 0.84073323 0.98283744 -0.61353177 0.57497495 -0.39790612 -0.22260056 -0.9477628 0.20573051 -0.14190999 0.83911014 -0.72729796 -0.8894459 0.075048536 -0.83599776 -0.24159689 0.53824943 0.36070627 0.99638945 -0.34369084 -0.20526463 0.4508397 0.09868396 0.7399386 0.6638302 1.011277 -0.3365797 0.046369765 0.33432454 -0.8715697 0.20867963 0.83339304 0.9768478 -0.12669262 -0.4498442 0.6563076 0.9449765 0.3034511 -0.63103294 -0.12869084 0.84961194 0.82137203 0.28653464 -0.38579485 0.59293044 0.11534582 0.089024775 0.2885751 -0.99810654 -0.687645 -0.15292789 -0.5115907 -0.3603006 0.98571134 0.19033374 -0.14461148 0.34175375 -0.81412774 -0.040160302 0.14245428 0.89111006 0.9935991 -0.94818234 0.66994655 -0.2282713 -0.95505834 0.3543066 -0.9744517 -0.31225038 -0.122487806 -0.23153676 -0.7829097 -0.18356845 0.9680437 0.37882563 -0.39044666 -0.6966692 0.9449146 0.024679769 -0.045189887 0.6460497 0.6019741 0.23308052 -0.50688326 -0.7357819 0.9945663 -0.6256504 -0.23975976 -0.5196705 0.19736382 -0.1943753 0.96539235 1.015514 -0.8941543 0.16047458 -0.14170198 -0.34749928 -0.8001875 -0.9014276 -0.8502945 0.40256402 1.0356477 0.5939793 -0.03298112 -0.77818817 0.46559295 0.78885466 -0.075045444 -0.36471134 0.343572 -0.9193741 0.49971026 0.52000767 0.7683316 -0.011481046 -0.7561138 -0.9048304 -0.60931647 0.64723635 -0.56438583 0.006354278 0.32022557 -0.43504956 0.3105675 -0.36685988 0.6301993 0.73686975 0.12441183 -0.09888942 0.41958228 0.17391247 -0.49771932 0.2727181 0.28748998 0.40021327 -0.7599004 0.6478446 0.14188199 -0.5051731 -0.21400838 -0.47344923 -0.564869 -0.13823973 -0.116318524 -0.36555195 0.50799835 -0.6553582 0.094277665 -0.4210702 -0.5219199 -0.086473286 0.8023375 0.07666529 -0.43573278 -0.3137602 0.10172168 0.9676079 -0.37690067 0.6255316 -0.10194564 0.37487856 0.59145355 -0.771311 -0.26890472 -0.2410038 0.57622147 0.8583499 0.70887965 -0.09340328 0.5266146 0.7676654 0.2402513 -0.6682562 0.44423467 -0.7865119 0.67572504 0.23927747 -0.3392623 -0.7515321 -0.51369196 -0.073378704 0.17325568 0.885014 -0.59678787 0.33674484 0.8909856 -0.16633701 0.75531244 -0.27708474 0.67152625 0.47821802 0.085675314 0.78232306 0.46902835 0.2780008 -0.15525647 0.8965735 -0.58969605 -0.84247506 -0.42053774 -0.7759372 -0.14249545 0.82209766 -0.9406946 0.65121233 0.84345543 -0.86461914 -0.31342077 0.3977541 0.30077118 -0.057095457 -0.6215829 0.61637056 -0.88640577 0.7569706 0.54521537 -0.1127774 -0.3748461 0.10083085 -0.03480328 -0.72903556 0.39373583 0.33980945 0.16612819 0.106799014 -0.5099842 -0.5465477 0.88979244 0.58238053 -0.14931706 0.041493393 0.9143237 -0.12532888 0.45614716 -0.76855934 0.20391782 -0.8607885 0.90845495 -0.5285981 -0.30269784 0.37237528 -0.5699335 -0.05842448 -0.20894559 0.12946703 -0.5426475 -0.71661484 -0.6654003 0.8288018 -0.3975455 -0.58240336 -0.8337674 -0.28004447 0.2860069 -0.82452446 0.6138746 -0.9616835 -0.3454228 -0.9144793 -0.37518445 0.085625984 0.79338896 0.6331571 0.88795257 0.5009454 -0.78605604 -0.23120111 -0.83107305 0.94804263 -0.63283736 -0.7730566 0.8404001 -0.64551264 -0.6366263 0.4716434 -0.25771853 0.9393836 -0.5832946 0.32505405 0.7465769 -0.28636912 0.59610647 -0.48028964 -0.11254065 -0.86397386 0.5856525 0.1207717 -0.46168777 -0.7748613 -0.8826764 0.830746 0.029858047 0.6112833 -0.3841352 -0.53289914 -0.20872983 0.88167846 0.49490342 -0.48833534 0.41757354 0.5889458 -0.63571453 -0.67308724 -0.89115983 -0.42409566 0.8342803 0.6154094 0.80115867 -0.3761273 0.652696 0.30508217 -0.23794456 -0.7836852 -0.82918435 0.06207438 -0.5350388 0.10521158 0.4669992 0.3671436 0.32981554 0.19714399 -0.15144607 -0.84326595 -0.13114342 0.14960869 0.28822148 -0.41117847 -0.7593795 -0.16160482 0.7801253 0.42312765 0.77490383 0.48726317 -0.9382399 -0.87793964 0.7012034 -0.608024 0.45315915 -0.74815804 -0.24188593 -0.62352705 -0.5744651 0.32343596 0.33298758 -0.12914747 0.14246857 -0.15735203 -0.6124128 -0.50076866 -0.46405542 0.8772541 0.92009276 0.6231857 -0.60134566 0.29413766 -0.8582575 0.39750102 0.68804073 -0.036853716 -0.44481903 1.0209864 0.8626956 -0.966189 0.16774862 0.35553265 0.35280392 0.93845683 -0.9436673 0.34287056 -0.575813 0.82649374 -0.2411616 -0.347182 -0.7931058 -0.50346905 0.63342243 0.23091762 -0.70904225 0.8507 0.43458316 0.36682457 -0.7259966 -1.0215284 0.63017064 -0.40762797 -0.88354284 0.070085235 0.95686466 0.20930415 0.83815414 0.84758884 0.8996449 -0.60345274 0.6940743 -0.6637485 0.035777446 1.0427717 0.8832264 0.59479934 0.116482444 0.4195453 0.48322788 0.62357354 0.14588697 0.14441487 -0.84072334 -0.20717494 -0.19195013 -0.16790368 0.77943057 -0.64883137 0.51391083 0.86737466 -0.33356544 0.72792757 0.7732335 0.07766652 -0.12863842 -0.2135214 -0.5791714 -0.14123967 -0.06621995 0.7475691 -0.4372185 -0.35180032 0.30883944 0.98749226 0.5260925 -0.06775465 0.13572711 0.07489391 -0.5845451 -0.6064166 0.2899708 0.3319284 0.8508036 0.37709954 -0.7331711 0.5157435 0.25856566 -0.42216992 -0.5821784 -0.7956279 -0.9332144 -0.8911862 0.62749743 -0.33425778 0.2825684 -0.07566808 0.065123655 0.49388665 0.28188625 -0.24791515 -0.29927567 -0.9280695 -0.7918024 0.6330301 0.79876035 0.52842337 -0.64913106 0.9387423 0.79661506 -0.080438636 -0.51704377 0.88577724 -0.34460506 -0.7872584 0.19141728 -0.695844 -0.2156268 -0.10921594 0.9496482 -0.82004076 -0.34548283 -0.08494735 -0.24779296 0.7451938 0.60036653 -0.53805935 0.9513892 -0.26707166 0.13791172 -0.92282087 1.0005878 -0.4864207 -0.6291897 0.17274699 0.67868537 -0.49751583 0.83077854 0.36197942 0.82686365 0.12242708 -0.82058936 0.37736937 -0.26427588 0.3999484 0.3812757 0.23755346 -0.44257733 -0.6964195 -0.25872108 -0.937351 -0.5961116 -0.2313833 0.30618143 -0.5994364 -0.9653677 -0.5070775 0.602863 0.14184631 0.6310118 -0.1290003 0.15832616 -0.0020386018 -0.79959744 0.8597908 0.7016224 -0.5774591 -0.51961774 -0.10401326 -0.03593966 0.81020725 -0.07696466 0.4902942 0.88252974 -0.5560719 -0.45342672 -0.20191924 0.5921091 -0.59254646 0.23289052 0.840541 -0.870897 -0.44142625 0.83955514 0.16683474 0.5335191 0.47463545 -0.8461188 -0.2274542 -0.6741341 0.04032177 0.42588338 0.9302053 0.6150569 0.82565236 0.04538468 0.97245055 -0.24233419 0.449208 0.67992264 -0.009285155 0.90253067 -0.9622482 0.85230017 -0.58871174 0.26814416 -0.16978607 0.9821243 -0.0649036 -0.10928333 0.7509626 -0.21725823 -0.6388062 0.7491739 0.40416726 -0.20134343 -0.008910253 -0.8729218 -0.78877866 0.579558 -0.9210628 -0.25513667 -0.31939855 0.6794481 -0.9359604 0.8087618 0.6333031 0.024563877 0.6135698 -0.9547588 0.5460188 -0.5241683 -0.95070887 -0.72174764 0.84160465 -0.5730053 -0.9209582 -0.8736173 -0.93234605 0.90722996 -0.7557486 -0.66571885 -0.3500185 0.62873983 0.2074916 0.7223925 0.960891 -0.37161276 0.618911 0.5420916 0.1957892 0.8199889 -0.7617121 -0.88992727 -0.3951307 -0.20500356 -0.8843296 -0.7363907 -0.6316339 -0.32798308 -0.5394139 -0.5383091 0.88160795 0.37441477 -0.5717788 0.27379382 -0.12534307 0.19884254 0.9447924 -0.46896246 -0.014912741 0.46324286 -0.2765288 -0.15263276 0.062124506 0.27791163 -0.42798612 -0.9245876 0.7118748 -0.17357154 -0.18135424 0.91921157 0.27835855 -0.43446922 0.7952985 0.6168466 0.98974895 -0.62024134 -0.5356121 0.03705133 0.6155435 -0.74387777 0.9827052 0.1972038 0.59435415 -0.41131136 -0.7906897 -0.8123999 0.9704241 -0.13004877 0.05765572 0.108946 0.2238616 0.90413 -0.6465025 1.0114204 0.9804846 0.5770367 -0.29102275 0.46584898 0.8423758 0.09585972 0.10711603 -0.45379132 0.25136298 -0.6452439 -0.75757945 -0.8600889 0.51590925 -0.66800785 0.8700755 0.85184574 -0.3608041 -0.14420757 -0.1290585 0.4272097 0.64210606 -0.74262565 -0.36181447 -0.60629517 -0.8850968 0.97472465 -0.95920223 0.63447964 0.29366034 0.4027731 -0.45880464 0.41993785 0.6321118 -0.09667377 0.52823985 0.14805368 -0.12917307 0.4460018 0.70023024 -0.9433987 -0.69260967 0.37804163 0.81009406 -0.016713697 0.60523975 0.8545861 -0.98352814 -0.78419906 -0.49398452 -0.78101224 0.98094213 -0.7574257 -0.4457511 0.337244 0.14209194 -0.13525644 -0.42947382 -0.14244473 0.86283344 0.40871513 -0.6275128 -1.0196234 -0.8237247 0.92049533 0.4559958 0.6194759 -0.5393413 0.213693 0.74025446 -0.37934193 -0.92088246 -0.34076932 0.50123304 0.28289905 -0.22984968 0.39382496 -0.35340288 0.64467 -0.46697718 -0.69382274 0.7583817 -0.94908714 -0.81017685 -0.7345177 -0.2869544 0.050833732 -0.33056343 -0.98448837 -0.4389738 0.84098595 -0.5968598 0.15377676 0.005272883 0.30502746 -0.95269036 -0.46396512 -0.35741657 0.52960527 0.18440631 0.5522258 -0.5242578 0.21376327 0.81460494 -0.5427661 0.5288549 -0.7359433 -0.6897316 0.95566905 0.48900533 -0.040271048 0.82071996 -0.27297905 0.8730431 0.45078674 -0.35246047 -0.68525636 -0.14393497 -0.58111894 0.4188541 -0.47573027 -0.6133333 0.20582247 0.6325776 0.8195375 -0.096211225 -0.27355266 -0.9061869 0.40418476 0.8171899 -0.45118862 -0.11356633 -0.6484435 -0.7539608 0.6337262 0.7372524 0.59336805 0.7283199 -0.14477062 -0.16210403 0.4136473 -0.2184179 0.105157845 -0.49429137 0.07246426 0.1821376 -0.17168602 0.38562426 -0.39146084 -0.9339746 0.7930882 -0.56778526 0.28428757 -0.34353527 0.08721358 0.8683154 -0.39314544 0.81405586 0.28180614 -0.64435476 0.03976474 -0.035229187 0.9258607 -0.08683673 0.42131653 -0.77987164 -0.3913939 -0.094658725 0.919326 0.55672044 0.3012322 0.48962355 -0.3726286 -0.3018943 -0.584903 0.20804344 0.29517797 0.4306254 -0.9153678 -0.0107540665 -0.23596668 0.7134277 0.8090864 -0.39256352 -0.59323335 0.8713309 0.03716432 0.29578048 -0.5658477 -0.41411984 -0.13542186 -0.21561363 0.08296692 0.39388716 0.5194149 -0.99069285 0.8353308 0.32855046 0.68128014 0.03462029 0.6639487 0.68074924 0.6106755 0.45199654 -0.5248638 0.7269196 -0.6405788 0.8206512 -0.5828025 0.7371696 -0.27659118 0.22414643 0.2419458 0.8596831 0.06524344 -0.34091967 0.6784869 -0.00903104 0.34797865 -0.22851968 0.23554642 -0.9148961 -0.5981087 -0.17466591 0.41959476 -0.060212117 -0.7679265 -0.4601507 0.75065136 -0.3690158 0.75870764 0.38319746 -0.3386911 0.75973797 0.7776581 -0.13922702 0.2367335 -0.9727208 -0.3606919 -0.9087003 0.75805306 0.87661314 -0.18287797 -0.65566546 0.67912763 0.07984069 -0.40873438 -0.48979947 -0.7233335 -0.20046546 0.96369606 0.3706668 -0.8449744 -0.7618174 0.6936328 -0.9034829 -0.1297608 -0.6613954 -0.6622427 0.91863763 -0.40930745 0.91572374 -0.94573826 -0.48493934 0.4831398 0.27704293 0.9874347 -0.8607353 -0.605799 -0.47127524 0.3288982 -0.9991145 -0.3451745 -0.5190103 -0.35553315 0.90624094 -0.45399418 0.5182484 0.7763196 0.09877091 -0.47129083 -0.4719007 0.05318245 -0.8408002 -0.570321 -0.8835375 0.6667665 0.45197144 -0.17373581 -0.7819885 0.20104879 0.23076102 0.60102373 0.5171128 -0.40093198 -0.5662465 -0.3088201 0.4547482 -0.46756002 -0.24783367 -0.46898818 -0.7404351 0.67488134 0.0026629728 0.60831714 -0.90730554 -0.7194547 0.26128116 -0.16713807 -0.87377286 -0.08111441 0.7581669 -0.40597707 -0.734965 -0.11046384 -0.51135916 0.96616477 -0.393562 -0.6470366 0.87167984 0.20474553 -0.84489447 0.9467539 0.031675298 0.31974763 0.97952557 -0.07693662 0.84797335 0.69058734 -0.9360353 -0.81773096 0.92802185 -0.9301034 -0.61500204 0.81542104 -0.17560181 0.5948745 -0.3558141 0.9235856 0.0678114 -0.6629491 -0.19780912 -0.54022 0.4300591 0.99101835 0.6790853 0.18860695 0.2425677 -0.815918 -0.6277453 0.9322007 -0.70240265 -0.5468876 0.73954684 0.9131869 -0.7310165 -0.9419905 0.6785753 0.14410864 0.4043602 -0.07940775 -0.4751076 -0.91048217 -0.6117267 -0.740456 -0.32610494 -0.7923964 0.6956182 -0.78558826 0.5239055 -0.22223325 -0.11931697 -0.697677 0.4835281 0.9208505 -0.5471867 -0.750492 0.48688963 -0.45983976 0.18936019 0.42703378 0.20724519 0.94328153 -0.28531095 -0.054785613 -0.8567531 0.4414613 -0.72482866 -0.87474036 -0.69658065 -0.057800643 0.804652 0.22356422 0.7047952 0.83800215 0.7940041 0.13848102 0.4796525 -0.50853455 -0.087829724 -0.9813802 -0.57702196 -0.82806444 -0.35284337 0.825552 -0.3269271 -0.91925955 0.686845 0.37933713 -0.4145293 0.84740436 -0.29298863 0.32780856 0.068405956 0.057261482 -0.1802771 -0.24506763 0.39091846 -0.4384347 0.810001 -0.71346396 -0.5644644 0.76999784 0.5266054 -0.37685847 -0.19200288 0.28816307 -0.4790256 -0.779423 0.99654937 -0.28406316 -0.24765629 -0.074167 0.29749915 0.84752697 -0.47670478 -0.99735636 -0.037439544 0.5646372 -0.66057926 0.57176894 -0.12645729 -0.15958631 -0.59467065 0.5077569 0.8721654 0.83879805 0.8962811 0.809003 0.57621634 -0.5274405 0.24812412 -0.43259847 -0.03764794 0.42180428 0.7592282 -0.85339755 0.27957284 0.30372325 -0.3741256 -0.4987766 -0.43933773 0.263709 -0.5255529 -0.2769318 -0.85055107 0.7172073 -0.8373103 -0.92544293 0.35071847 -0.055928994 0.67111117 -0.50677836 -0.08858556 -0.5618269 0.5236193 0.34322715 -0.48153856 -0.17552942 0.044733264 -0.75536275 -0.58649325 0.37501696 0.85165644 -0.47406328 0.1895056 -0.93188334 0.527932 1.0081637 0.6714836 1.0146558 -0.6223657 -0.4493881 0.06424821 0.5940997 0.30147916 -0.6438669 -0.2625724 -0.57088065 -0.037563678 -0.719999 0.88693607 -0.34476292 -0.43653274 0.63061684 -0.56009024 0.29853055 -0.77170336 0.02856478 -0.28276876 0.90865123 0.42571598 0.8137193 0.8519458 -0.7938135 -0.7836125 0.77821505 0.58495003 0.82487535 0.037144873 0.052017834 0.47142166 -0.42860752 0.61403435 0.9557916 -0.32958743 -0.53217494 -0.15288776 0.778297 0.26139057 0.33078378 -0.13660103 -0.7178138 -0.8849438 -0.6531367 0.76797485 -0.53522974 -0.1450662 0.91008246 0.014301529 0.4168038 -0.645521 -0.36672646 -0.22699068 0.83928174 0.7782155 0.3759228 -0.6541932 0.16872509 0.4563545 0.9308141 -0.17490298 -0.81561387 0.056740794 -0.69261354 0.11940779 0.8239611 0.34960014 0.061115053 0.09689484 -0.74478817 -0.64257276 0.6206485 0.7485951 -0.8977331 0.5729079 -0.6886367 -0.008542768 0.22688198 0.59246516 -0.19392683 -0.25144634 0.68783444 -0.039129306 -0.9635889 0.61490047 -0.5892675 -0.7832344 0.8632603 0.4373741 0.105313584 -0.5349168 0.19709712 -0.4277136 0.66393197 0.88627166 0.6538803 0.87687474 -0.2716076 0.15147026 0.47104958 0.7469384 0.5341673 0.71506244 -0.82990676 -0.8220798 -0.24176292 -1.0002904 0.35609713 0.5152013 0.07565005 -0.7984262 0.2723069 -0.82005143 0.3063489 -0.641363 0.111271 -0.012723765 0.4117917 0.24223766 -0.93672734 -0.097612225 -0.6609742 0.10523723 -0.16162331 -0.013817181 0.6722467 -0.21199197 -0.8481763 -0.75417846 0.52039415 0.37966877 0.94550645 -0.22701871 0.6362361 0.56924844 -0.7937162 -0.71637654 0.5633302 0.21875344 -0.4215541 0.67440605 -0.5065718 0.6997483 -0.4811672 0.9537374 -0.2190902 0.49328297 -0.05659083 0.7227788 -0.15684915 0.045596562 0.65911 0.0142346285 -0.057087235 -0.36671925 0.53033084 -0.41196018 0.7152043 0.50715786 0.11260237 0.7829434 -0.3292944 -0.49201035 -0.7403707 0.41788027 0.65867174 -0.49588567 0.5570881 -0.5184909 -0.3584225 0.111773886 0.24693248 0.8387692 0.8727319 -0.85959524 -0.212686 0.2579666 -0.15665346 -0.80989563 0.19563875 -0.015164992 -0.0067293453 -0.20118292 0.9159685 0.5539011 -0.14831826 -0.4288163 -0.69761676 -0.51347566 -0.65129155 0.46363539 -0.636479 0.19651066 0.59261745 -0.027338322 -0.5264866 0.8325362 -0.37879544 0.83638155 -0.43526536 -0.45754552 0.78145814 0.4337385 0.1156716 0.2332538 -0.14667407 -0.26210755 0.6554064 0.13155636 0.5423581 0.9410393 0.7716712 0.20955884 -0.572439 -0.76680416 -0.10222138 0.09160969 -0.38511685 -0.6676381 0.8184857 -0.3465248 -0.30592632 -0.07303926 0.8100868 0.97709334 -0.7542968 0.86780334 1.0234729 0.20532526 -0.8351444 -0.6890287 0.64239085 -0.45890266 -0.5361256 0.95073134 -0.4021527 -0.79848284 0.24610421 -0.15722515 0.042054947 -0.61899036 -0.6747783 0.041114688 -0.29843876 -0.6866325 0.38080132 0.1572663 -0.8137432 -0.6439453 -0.9945518 0.34340703 0.5136795 0.56904596 0.5141671 -0.62779707 -1.0040206 -0.40249828 0.6472131 -0.954022 0.77237236 0.94190073 0.3840843 0.16233446 -0.5459954 -0.32270953 -0.8748079 -0.7662589 0.088379815 -0.33765194 0.6921577 -0.35518378 -0.93886185 -0.0028072095 -0.68706685 -0.5984762 0.57134545 -0.9476747 0.9595193 -0.080061 0.18414055 0.7959627 0.37478307 0.27217555 -0.62044114 -0.012422694 -0.19952323 0.5730805 0.60956204 0.41542602 -0.35986784 -0.15488581 0.80347973 -0.8489447 -0.4915027 -0.47557756 0.4581983 0.6076496 -0.15677488 0.18091425 0.008103693 0.1696914 0.13779378 -0.23438136 -0.38300553 -0.8711078 0.7097 -0.61785513 0.5228052 -0.004968093 0.70502126 -0.033660516 0.9565193 0.58736145 0.51568323 -0.87405264 -0.56474596 0.43238726 -0.6451536 0.6430341 0.78869706 0.46588436 -0.6105934 0.32353795 -0.6332149 -0.46737656 -0.24983332 -0.63584745 0.061891638 -0.3400617 -0.73974425 0.31873533 -0.03622089 0.8054246 0.41103217 -0.44192278 -0.85789466 -0.5752829 -0.32852003 -0.12308762 0.2710786 -0.52130663 0.47965163 -0.75347733 -0.2110479 0.3416196 -0.4745618 0.34402063 0.18813197 0.17933126 0.24376525 -0.8049 0.34707016 -0.58561265 -0.81196445 -1.0481303 0.13812412 -0.20977671 0.54840726 0.647422 -0.89530766 0.66220057 0.80328166 -0.9706836 -0.9033971 -0.10490381 -0.7627865 0.4720627 0.34592903 -0.6967982 0.08322852 -0.7109774 0.16034597 0.9265162 0.5990314 -0.018452514 0.057177175 0.6876161 -0.8751023 0.36392584 0.050729595 0.9941532 0.20185162 -0.10098766 0.30290908 -0.49223074 0.85388786 -0.7412451 -0.5465405 -0.18899782 -0.5162574 -0.4574895 0.08168705 -0.8343372 0.9253757 0.5114694 -0.22491516 -0.29790002 0.7141229 0.9041335 -0.4662392 0.796295 0.15053546 -0.9282542 0.7873797 -0.21725275 -0.10966685 -0.7101248 0.4523561 -0.9999091 -0.30051377 -0.9949163 0.6958554 0.76475203 -0.2714206 0.25881976 -0.94528145 0.64107233 0.0779735 -0.16390583 -0.079574004 0.6704669 0.40846032 -0.14464167 0.060442045 0.61179435 0.2683634 0.05378115 -0.61178195 0.45172688 0.11087486 0.2634236 -0.5175906 -0.8847383 0.81565154 -0.76052105 0.3203347 0.46981043 -0.5064029 -0.07815319 0.03587767 -0.16150726 -0.6920884 -0.8190151 1.0183811 0.7553784 -0.6911115 0.91742754 -0.5618479 0.4248856 0.10639113 -0.3375344 0.93731403 -0.32742015 0.76106143 -0.9060252 -0.08738172 -0.073185876 0.43766782 -0.8672214 0.8410926 0.78818953 0.95387834 0.93719375 0.47678053 0.07722118 -0.65685123 0.8298817 -0.61936045 0.7201078 0.58266485 -0.7043077 -0.6298543 0.6012642 -0.68484515 0.29641956 -0.03711819 -0.13718778 -0.40458584 -0.7292937 -0.69716644 0.7859315 -0.26273522 -0.9380486 0.0737394 0.13212015 0.14375965 0.072710775 -0.87240493 0.42713675 -0.0019018106 -0.515337 0.82944983 -0.30533522 -0.060305726 0.196866 0.32781073 0.26119205 -0.82862186 0.4762872 0.09202321 0.92422473 0.9627766 0.50874376 0.5499838 -0.6934508 -0.32268432 0.5287477 0.81766456 -0.13115232 0.7415483 -0.06368179 -0.12539849 -0.50358075 0.27756807 0.97602236 -0.8411371 0.3698743 -0.29160395 0.3109757 -0.7150802 0.21324888 0.74717045 -0.25364268 0.35022894 0.18933648 -0.30011523 0.66978204 0.029043913 -0.06829889 -0.14264469 -0.7018209 -0.8979779 -0.5507541 0.25735608 0.4671022 -0.007419251 0.39343446 0.37383515 0.3548834 0.08183814 0.7140853 -0.24347423 0.9116934 -0.16863242 -0.20640144 -0.42936948 0.16636205 0.65152436 -0.5004009 0.8507622 -0.8259496 -0.24282667 -0.45803398 -0.26749146 -0.035618458 -0.39431223 0.20773017 -0.5936685 -0.48810735 0.097371146 0.5228785 -0.047732804 -0.27362984 -0.95260113 -0.017952867 0.91599894 0.72012186 0.52930135 0.026455728 -1.0105765 -0.78823596 0.59220266 -0.70609933 0.04022197 -0.6261275 -0.91956294 0.8395852 -0.6058817 -0.19364023 -0.61452293 -0.14080288 -0.32112312 -0.75772095 0.7701672 -0.82141125 0.6104155 0.5870956 -0.5952992 0.93743986 -1.0080662 0.41700074 0.15029229 -0.23829328 0.8519791 0.51599723 -0.941574 0.25677195 0.7847746 0.32775605 0.86710256 0.5338874 0.6918263 -0.49360442 -0.7983816 0.078471765 0.14833377 0.07101153 -0.18668564 -0.29322502 -0.19025238 -0.9457802 -0.30799454 -0.9621671 -0.12435564 0.024456508 -0.06790951 -0.43543017 0.9257572 0.32676733 -0.08866973 0.91814446 0.15586042 0.89421946 -0.09229363 0.20401914 -0.5815632 0.08848116 0.683362 0.11447728 -0.0242049 -1.0113437 0.8422898 0.3302608 -0.82525116 -1.0597669 0.2844897 -0.32012567 -0.009079487 0.77899307 0.68207943 -0.20303915 -0.019984268 0.52863365 -0.16926514 0.70465475 -0.2880779 -0.22305591 -0.15614475 -0.29721618 -0.07748576 -0.31359336 -0.69894195 0.90542775 -0.23987137 0.80003715 0.10777565 0.2523827 -0.5288749 0.8991179 0.46310183 -0.10401348 0.9649743 0.97172767 -0.43327066 -0.412088 0.3915782 -0.20765083 -0.4685974 0.016730431 -0.15880999 0.091930225 -0.26509467 -0.54235315 -0.69860643 0.7150436 0.11631293 0.25281668 -0.9631395 0.9817915 -0.55708396 0.39095336 0.49392098 -0.5422675 -0.12740813 -0.2894976 0.57538563 0.1364775 -0.22661376 0.027188405 0.28490514 0.0598159 -0.86506283 0.7304314 -0.1018203 0.110050194 -0.7533049 -0.907132 -0.46102118 -0.34770516 0.39941812 -0.18938176 0.7463442 0.40168205 0.74297667 -0.41746452 -0.052021623 0.45521602 0.51150215 0.8976155 0.1486274 0.56943476 0.3959316 0.19735986 -0.88322556 0.8599388 -0.11695371 0.034276776 -0.8647409 -0.40562278 -0.2425128 -0.23115537 -0.98045564 0.39671314 -0.786369 -0.5614561 -0.5504572 0.87014693 -0.9529302 -0.22350915 -0.57505333 -0.49713165 0.2879112 -0.5256711 0.9448361 0.87769234 0.81427735 0.736585 0.25719386 0.5801893 -0.60968935 0.5626213 -0.21029435 -0.66677463 0.15891922 -0.35612303 0.39952615 -0.59622306 -0.89387554 -0.39040163 -0.26874214 -0.96448106 -0.14517109 0.6077019 0.16648662 0.89902943 0.44028986 -0.78164774 0.79911906 0.30602288 0.30594453 0.93964833 0.39713746 0.81111264 0.62269914 -0.026448812 -0.665582 1.0028917 -0.7990582 -0.84647113 0.21752432 0.27700806 -0.11997279 -0.73084563 0.9673019 -0.48450485 -0.9966317 0.24831992 -0.9475613 0.9747545 0.034642506 -0.9683047 -0.541031 0.55910397 0.40715134 0.38087326 0.7719795 -0.51492834 0.08669183 -0.43307993 -0.94579375 0.23599817 1.0127065 -0.754324 0.505495 0.5251038 -0.23708603 1.0081258 0.9221548 -0.70486486 -0.6361318 -0.20927203 0.12884231 -0.555264 0.4542977 -0.21547082 0.39191112 0.14491339 0.17190522 -0.9203626 -0.16278383 0.57886887 -0.40905926 0.108920895 -0.95725155 -0.17809214 -0.39192152 -0.45529932 0.067424126 -0.95229065 0.70498145 0.7913022 0.18181798 0.8669293 0.76364046 -0.33142695 -0.11327324 -0.34326607 0.8420444 -0.3138075 0.99943817 0.65913963 0.7774284 0.12670065 -0.89458084 0.47674012 -0.04884986 0.3961124 -0.26505482 -0.74434245 0.75776386 0.6491118 0.13712326 -0.62853056 0.6130022 -0.93096143 0.98569036 0.75762415 -0.6523874 -0.397794 0.75123674 0.09283709 -0.9518709 -0.9411553 -0.8004869 -0.74312395 0.12492009 0.18467176 -0.049968265 -0.7957174 -0.16451745 -0.16870765 0.195439 0.35512504 -0.33267704 0.81323296 0.9490479 -0.11941116 -0.10932483 0.6081896 0.87230736 -0.8213294 0.2723689 0.24160257 -0.56210876 0.51100445 0.2469702 -0.34950066 0.45545205 -0.9869254 -0.8670169 -0.1478429 0.3281115 -0.9707469 -0.88622504 0.029327145 -0.3433362 0.24392644 -0.13006218 -0.5450655 0.77222973 -0.5914313 -0.8514435 -0.6221858 0.30410188 -0.2497042 0.6394631 -0.95858645 -0.6464549 -0.41334912 0.84949905 -0.4334255 0.97543776 -0.37079927 -0.32109767 0.42062312 0.007757367 -0.8498831 -0.37523583 0.30618143 -0.7285181 0.2512657 0.96322876 -0.74939406 0.0037919313 -0.5903449 -0.2470964 0.051858664 0.54044163 0.852268 0.80664134 0.17600806 -0.5561589 -0.1797687 -0.91072285 -0.2687751 -0.6691922 -0.010167767 0.09033757 0.074686185 -0.48987058 -0.55689776 0.43761817 -0.38440472 0.22109112 0.4340423 -0.7552176 -0.6334435 0.76735014 -0.9719338 -0.08762205 0.6444145 -0.28345698 -0.8806588 -0.4176239 -0.39608914 1.0092617 0.7720954 0.42430744 -0.021987975 0.08186132 -0.96350014 0.3786804 -0.14589164 -0.052182842 -0.83002985 -0.69922763 -0.7769257 0.1517945 -0.8231558 -0.81787294 0.035225518 0.8074815 -0.34094816 0.8881035 0.2049829 -0.48950607 -0.43907294 0.17624374 0.51504815 0.44285667 0.52039367 -0.17715134 -0.6328437 -0.086161174 -0.22051871 0.732831 0.79597145 0.9963563 -0.10069195 0.6358321 -0.49962783 0.4926044 -0.9009936 0.94920284 -0.42575696 0.9070522 -0.62278557 0.6121095 0.74057597 0.3893344 -0.18099609 -0.720525 -0.15172076 0.4979602 0.53637326 0.3107009 -0.7664472 -0.30967328 0.8688894 0.9449536 0.38660276 0.26559556 0.49870345 0.5417022 0.52545315 0.12097522 0.73096293 0.6748772 0.5228018 -0.65815115 -0.7071749 -0.2436504 -0.5659021 0.06202161 -0.17942731 0.76083887 -0.4696436 -0.5545873 0.96337134 0.9884749 -0.74709606 0.16882175 0.30771217 -0.94442016 0.6709485 0.10401064 -0.038712107 -0.40235397 -0.711534 -0.70739615 0.3847972 -0.24995363 -0.9092581 -0.5187138 0.81708133 -0.706127 -1.0188626 -0.12691699 0.42856812 0.5381809 0.85667926 -0.20222072 0.94187057 0.9560516 0.38863915 0.6740646 -0.8767136 0.5415163 -0.33499113 0.91496855 0.053090364 -0.013696436 -0.87251264 -0.37688118 0.37017685 -0.49887845 0.58228135 0.7108233 -0.34920502 -0.7910503 -0.2941355 -0.052933596 0.18221843 -0.2887969 0.81586105 0.3289386 0.8947167 0.7229073 0.99080443 0.50920534 0.89331615 0.84358007 -0.7614496 -0.4501675 0.17397377 0.36449677 -0.108254865 -0.04011211 -0.03392263 0.8767743 -0.9797763 0.65122384 0.2466793 0.8627124 0.8036077 -0.3541665 -0.6381784 0.17683809 0.060402427 0.65770584 -0.5902413 -0.11733846 -0.6982504 -0.06545507 0.3057144 -0.4063019 -0.3781374 -0.1774324 0.33430877 -0.8917726 0.53073233 0.732368 0.12840208 -0.4376922 -0.5506056 0.56303453 0.81851816 0.58431476 -0.76868963 0.77986884 -0.70062715 -0.43638158 -0.5911014 -0.67335635 -0.46093655 -0.4891943 -0.7770162 0.02088769 0.8728011 -0.03165254 0.5484779 0.009197241 0.032467645 -0.03601663 0.7351688 0.96116745 0.23892051 0.71977055 0.8493984 -0.9331762 -0.14168462 -0.47005978 -0.52082783 -0.7190031 -0.2820462 -0.62474567 -0.45187274 0.7516408 -0.6224573 0.41062784 0.78615206 0.52260727 -0.23953074 -0.51806426 -0.6034467 0.7144445 -0.34464297 -0.52469355 -0.9518629 -0.7081243 -0.4365074 -0.068876535 -0.29227543 -0.29044095 -0.9119686 0.32352984 -0.460589 -0.7927311 0.088830076 -0.62772036 -0.5485015 0.029453624 -0.47407877 0.773051 -0.058298413 -0.7576685 0.18853126 0.97240055 -0.35545143 -0.08081799 0.019355467 -0.86522675 -0.13377415 0.43316647 0.5200671 0.5180317 -0.9793229 -0.68495 -0.7718033 -0.33184808 0.67995703 -0.62798125 -0.6452065 -0.7161361 -0.600275 -0.45866242 0.38557974 0.72865486 -0.7400592 -0.6294119 -0.39168212 -0.24525343 -0.30636573 -0.69238245 0.4747701 -0.97174436 0.10927379 0.032604974 0.6952408 0.05131456 -0.17138743 0.992139 0.180234 0.39522704 -0.53187096 0.674506 -0.33804464 -0.7052807 0.13578036 -0.7834532 -0.035242416 0.2630258 0.4840042 -0.035639353 -0.7955438 -0.30459645 0.7203688 0.2108034 0.95749956 0.22097902 0.048780933 -0.7109378 -0.6359254 -0.16133448 -0.88850355 0.528451 0.0921403 0.42135346 -0.42319337 0.60094917 -0.6810941 -0.007749425 -0.085863344 -0.82270867 -0.20141469 0.43468693 -0.3244938 0.33074683 0.7266281 -0.5699792 0.75689673 0.11912252 0.49843916 -0.71596706 0.36810222 -0.24205638 -0.023606973 -0.75110465 -0.07842331 0.48448935 0.31958017 -0.31836912 -0.24393703 -0.24539027 -0.8142199 -0.695632 -0.43850657 -0.42815092 -0.6067811 0.19089267 0.948787 0.8737955 -0.01572656 -0.41114473 -0.39150846 0.15853481 0.40390113 -0.77450585 0.84898937 0.22635792 -0.92041606 -0.60363895 0.5340244 0.47617093 -0.8410121 -0.3083789 0.41189402 0.018645523 0.37610507 0.9130033 -0.7613067 -0.14353758 -0.68611425 0.9611377 0.281644 0.7878775 0.80067635 0.24433073 -0.32002082 -0.255752 -0.6459557 0.51894003 -0.86776924 -0.3195747 -0.76970565 -0.7115051 0.92690456 -0.96588427 0.7511372 -0.13055535 -0.66819465 -0.8763836 0.5315078 -0.64762586 -0.33025077 -0.94485956 -0.8979405 0.059370406 0.3948353 0.68373275 -0.84350824 -0.59652174 0.87294835 -0.29721105 0.6969712 0.44184342 -0.53422624 0.24950747 0.32368404 -0.9678281 -0.14453214 0.866543 0.048397988 -0.29049453 -0.18184224 -0.51656663 0.409157 0.72072595 -1.0077723 0.4946372 0.2567055 0.018463232 0.3495437 0.061955426 0.28640944 -0.2982961 -0.32591212 -0.75544196 -0.676166 0.56672573 -0.30358678 -0.45607886 0.80482316 -0.952253 0.6158113 0.22615248 -0.2399499 0.672449 -0.85649145 -0.8142554 -0.3218255 0.3014123 -0.83132493 0.93141496 0.50323886 0.85616714 0.79348356 0.3374171 0.031610515 -0.8725966 0.71145904 0.088411056 0.8336109 0.9034455 -0.3356675 -0.244285 0.8461501 -0.031366974 0.929075 -0.84865063 0.3063401 -0.3940498 -0.5838395 0.25952324 -0.10246815 -0.7559515 0.0072764796 0.5513298 0.112500496 0.6280737 -0.18608785 -0.07446729 -0.3508464 -0.2461663 0.34298792 -0.9356278 -0.76444685 -0.5097776 0.77850187 0.3403774 0.20460278 0.23790184 -0.892405 0.11878182 0.82382274 -0.32419485 -0.8843525 0.24630454 0.83888817 0.38932955 -0.9136235 0.62158257 -0.18895058 -0.71884465 0.22928677 0.34984946 -0.3921956 0.40402308 -0.023960076 0.90850556 -0.7677711 -0.69081026 -0.79675865 -0.41062883 -0.026146818 -0.8962396 0.3622906 -0.28080645 0.8137174 -0.838948 0.8535818 -0.18222971 -0.99298877 0.65268815 -0.14611188 -0.36693397 -0.15481658 -0.72618985 -0.14600898 0.86827207 0.77949697 0.6976523 0.122812234 -0.8579401 -0.38594902 0.3876977 0.09419973 0.75311214 0.31194717 0.6971739 0.26180634 0.98846865 0.015985552 0.9210486 0.4754502 0.42951298 0.33448902 0.14730732 0.029016126 -0.26446143 -0.50467575 -0.48006144 0.22087444 0.75525075 0.6012192 -0.404945 0.30303803 -0.24149202 0.4576725 0.70350015 -0.20929912 0.81763285 0.35240817 0.034960218 0.32912275 0.046616293 0.8092738 0.02217152 -0.02623929 0.2692969 0.5704237 -0.7235277 0.26849386 0.16920346 0.8761228 0.16893543 0.86320215 0.6016515 -0.3916265 -0.62453145 -0.3372184 0.98054826 0.6713786 0.6173736 0.45449808 -0.87159145 -0.5302602 -0.8176737 -1.0132223 0.557458 0.18939048 0.8158166 -0.64248586 -0.659156 -0.7212702 0.7958892 0.2150897 0.13895378 0.45092848 -0.5082265 0.74424994 -0.9678047 -0.43475813 -0.18267436 -1.0173286 -0.8978012 0.36270404 -0.41601413 0.853901 -0.12982158 -0.22201595 -0.827743 -0.12178836 0.5520906 0.08677158 0.15353443 0.67131954 -0.6982983 -0.3160398 0.93392634 -0.9341398 0.3165097 -0.7007908 0.66813135 0.06683485 -0.6703694 0.60093933 0.71520984 0.6998773 0.8941813 0.3271061 -0.11507677 -0.39303696 -0.035217393 -0.0052237106 -0.2790481 -0.947394 0.9407695 -0.5455236 -0.413695 -0.02106384 0.32041398 0.6214314 -0.12001302 0.60420454 -0.6809208 0.13961834 0.07668341 0.09445411 -0.5049619 -0.5765809 -0.17085932 -0.86410266 -0.47254276 -0.5190229 -0.27124962 0.280196 -0.16233203 0.41122693 -0.35270742 -0.25885066 0.4210118 -0.11739481 0.92734903 0.028918894 -0.38789773 -0.32896122 0.81442934 0.77885556 -0.23655395 -0.93039274 0.1582304 0.7669518 -0.7577406 -0.67124736 0.6258576 -0.4734954 -0.7033938 0.89372987 -0.79826343 -0.7529227 0.23953258 0.05421003 0.8901889 0.28963903 0.30447236 -1.0265363 -0.3267131 -0.38166282 -0.89273965 -0.89473027 0.37375018 0.17653735 -0.39412794 -0.53631485 -0.8259366 -0.39880258 -0.4592657 -0.057019107 -0.4683423 -0.04328492 -0.6990225 -0.9135777 -0.3292163 0.9583854 0.042289354 -0.5247949 -0.44734457 -0.3852258 -0.34420952 0.72728324 -0.87818563 0.67318046 -0.5622328 -0.9707494 0.95831835 0.15371831 0.027353419 -0.39540815 0.420109 -0.5763533 -0.6773712 -0.6742042 0.9349523 -0.061521128 0.80921733 -0.85210395 0.9181205 0.8420959 0.031834938 -0.51228625 -0.13308077 -0.36839136 -0.62306154 1.0588768 0.5866947 0.30388445 -0.059279267 0.41147876 0.26092982 -0.9094141 0.7678027 -0.5010649 0.29538408 -0.5697406 -0.5402628 0.03410281 0.46264783 0.63678294 -0.6641475 0.3579361 0.04981554 -0.5784381 1.0503172 0.34255722 0.3908672 0.58821964 -0.5148366 -0.87741756 0.59257525 -0.30834273 -0.6573133 -0.10501511 -0.1631874 0.886077 -0.27586097 0.16792946 0.9235569 -0.105084 0.9483092 0.7053784 -0.5514615 -0.46670166 0.58537555 -0.3746223 -0.7974995 0.12530254 0.3433926 -0.11215582 0.23307198 0.7377783 1.0103976 0.116244726 -0.27336055 -0.4330454 0.07603649 0.3196873 -0.6216471 0.399442 -9.647069E-4 -0.064588144 -0.44606394 0.8591624 -0.62022805 -0.026573997 0.22357817 -0.59025717 0.09148662 0.500114 0.021830393 0.98588437 -0.516805 0.54104125 0.075493045 0.61406785 -0.090526424 0.35527644 0.7769127 0.17789909 -0.33516616 -0.26554152 0.13242047 -0.062783554 0.81275046 -0.5175796 -0.33273444 -0.07767272 -0.9797457 0.27955276 -0.7134685 0.2111632 -0.18655095 -0.06818557 -0.12317292 -0.80589014 0.10534755 -0.4679956 -0.27216408 0.17809682 -0.041309297 -0.91639376 0.3132254 -0.23818992 -0.67871314 0.71189773 0.71180534 0.30821228 0.4381816 0.96678275 0.8590342 -0.5469381 0.5279872 0.4210569 0.6911789 0.0924598 0.9815162 -0.850656 0.25298184 0.59753317 0.6619482 0.24284598 -0.08313766 0.98767275 0.14892083 -0.4339034 -0.54570544 0.6114849 0.14537756 -0.35677636 -0.8903683 0.7752432 0.5916199 0.27338278 -0.78178936 -0.58099824 -0.9536998 -0.50676405 -0.85627383 0.22206458 -0.13430694 0.6179647 0.2104209 -0.29982433 0.45334214 -0.6638232 -0.8707846 -0.2546113 0.28439814 -0.7520564 -0.98645806 0.71383464 -0.16331539 -1.0038968 -0.88373536 0.45227975 -0.5594961 0.39516425 -0.9673908 -0.26371428 -0.79373646 0.63240916 0.053494006 0.4936892 -0.12236233 0.5155274 -0.1411291 -0.24512626 -0.13970211 -0.8142707 -0.87857765 -0.23405646 0.94204795 0.43791822 0.27109683 0.5574005 -0.1698838 0.028742088 -0.14209223 0.90128964 0.6466429 -0.9912234 0.46823934 0.59133404 0.070112646 -0.6754349 -0.82615834 0.21081206 0.699258 0.49709558 -0.53142637 0.14991437 0.6174928 -0.03898858 0.75326395 0.122295916 -0.5119319 0.4892619 0.5954137 -0.43445024 -0.2611912 -0.540048 0.05102909 0.582851 -0.5077937 0.83017987 0.5982921 -0.30524564 -0.48265588 0.115128584 0.21041943 -0.12618709 0.077925384 0.25779954 -0.042599183 -0.4321892 -0.4494159 -0.10434643 -0.19679938 0.6148635 0.82911974 -0.5777967 0.98547244 -0.742201 0.62782156 -0.8006969 -0.73996055 -0.29454407 0.16744143 -0.44660056 -0.9510362 -0.8187488 -0.18691806 -0.83709115 -0.5613194 0.79562587 0.60890186 -0.117842205 -0.6181037 0.1284678 -0.3408158 -0.69248503 -0.82277405 -0.34911895 -0.89508164 -0.04492526 -0.15606709 -0.8093147 0.8620465 0.9075023 -0.16864382 -0.42833778 -0.31563157 0.6735991 -0.11462496 -0.98358685 0.39239752 -0.8880631 0.96426326 0.47038302 0.30742633 0.66264486 -0.50846756 0.5656166 -0.06554451 -0.12219693 -0.8751596 -0.37912172 -0.355877 -0.374249 -0.025197122 -0.040811706 -0.101494454 0.015856244 -0.16934104 -0.24649884 -0.39469135 -0.5130984 0.1772628 0.16351266 0.33448127 -0.318483 -0.53884614 -0.7019852 -0.045518134 0.7161891 -0.9824953 -0.61204773 -0.5578947 0.56110907 0.123364665 -0.45198607 0.67164266 0.7528039 -0.67497605 -0.14493102 0.43148774 0.6334918 -0.5655506 0.29019326 -0.4335585 0.40704834 -0.1339091 0.21536045 -0.16668682 -0.60313284 -0.75664407 0.18841086 0.7857803 -0.6566009 -0.10713169 0.41324723 0.07214813 0.015078994 -0.35497212 0.49433833 -0.16187362 -0.27415824 -0.06919596 -0.35938403 0.5829231 -0.17131065 0.4871349 0.14559647 -0.62506306 0.10213854 0.7120916 -0.89709085 -0.71044344 0.6913982 0.29572427 0.23159531 -0.19002484 0.71587276 0.4556991 -0.62643236 0.29624996 -0.2001004 -0.74868405 -0.14320153 0.44316638 0.76253176 0.8184327 0.046930727 -0.63570756 0.46097836 -0.43443835 -0.26826736 -0.09631827 -0.3091299 0.38862476 0.47107196 -0.71027297 -0.34983212 -0.80592155 0.51120085 0.2763441 0.50329286 0.36666316 -0.16027561 -0.02905288 0.11694454 0.30936423 0.57908535 -0.92233056 -0.9305664 0.28456047 -0.8542802 -0.49888337 -0.15670986 0.9102738 -0.680019 0.032647237 0.52817386 0.4357187 0.16916013 0.5563319 -0.731759 0.90375096 0.39345372 -0.83352286 0.33546233 -0.39768264 0.71848875 0.7775874 0.8304705 0.91345465 -0.88052803 -0.4106696 -0.8494771 0.85648805 0.7210859 -0.37260574 -0.9543151 -0.38729608 -0.1997595 -0.93672365 -0.8476086 0.9608386 0.92803156 -0.12071778 0.6452722 0.27786928 0.036904722 0.3554004 0.7375818 -0.353596 -0.08775807 0.3581447 0.8319957 0.9959777 -0.027571136 -0.57407814 -0.32969445 -0.054493394 -0.6499195 -0.5889124 0.26957157 -0.6600299 0.1493318 0.7623506 0.6257028 -0.16268545 0.17751662 -0.48351225 -0.5093883 -0.42948964 0.65026605 -0.5997505 0.35943586 0.71129787 -0.66778356 -0.35689995 0.23033409 -0.56094223 -0.78355986 0.50441355 -0.5383668 -0.5713882 -0.86349607 -0.28097156 -0.37011975 0.8385907 -0.44505432 0.4919378 0.28861582 0.29561952 0.10611688 -0.7181611 0.8061204 0.93104434 -0.3024987 -0.9393072 0.39622527 0.86028165 -0.5232383 0.45781842 0.3346927 0.6022566 0.19821951 -0.05144259 -0.16076733 0.06155357 0.47241774 0.12711033 -0.73462975 -0.9453948 -0.15937519 0.63423115 0.8695392 -0.63565564 0.48043945 -0.17323163 -0.5249759 0.8545167 0.47464725 0.6901176 -0.3359967 0.23016807 0.5084003 -0.08833789 -0.60435706 0.70971316 -0.16630892 -0.6471492 -0.54385966 0.2648641 -0.32109118 0.2178892 0.32189482 -0.99211127 0.31581226 0.84509647 -0.75156504 0.15975852 -0.9413964 -0.011634005 -0.62968165 0.2633798 -0.40144065 0.00891273 0.3425278 0.33654848 -0.050320704 -0.8669614 -0.9344347 0.2573398 -0.31578186 0.1743747 0.8801517 -0.9014091 0.7614852 0.022331504 0.9203413 0.25559565 -0.41779187 -0.6996401 -0.18613769 0.16300903 -0.10715006 0.66771495 0.8353485 0.43646187 0.4343328 -0.16043796 -0.14046627 0.4870871 -0.9957287 0.8736393 -0.9145899 -0.29965818 0.18702237 -0.6902303 -1.0157005 0.9948883 0.23109491 0.8419186 -0.8008095 0.17990364 0.695295 -0.38666013 0.87746966 -0.6734823 0.81354225 0.077575944 -0.70966846 -0.18936156 0.36022994 0.8294073 0.72226346 0.3608935 -0.94515884 -0.44820434 0.9770464 0.65566665 0.2944564 0.045849312 -0.1501847 -0.5413358 0.4347846 -0.8321898 0.88979805 0.4327265 0.6526942 -0.7283694 -0.034111336 0.42800757 0.26755255 -0.6795043 -0.5620113 0.2023858 0.94968426 -0.82624704 -0.45763958 0.08219655 -0.9200581 0.30695724 -0.9342671 0.54726166 -0.19585322 -0.090967216 -0.5260702 0.47946653 0.28127828 -0.2981821 -0.85822666 0.61881214 -0.47888234 -0.08797557 -0.009145822 0.7204511 -0.77361786 -0.037415482 0.9659764 0.7716564 0.03157061 -0.3569016 -0.043798495 0.8481087 0.13122591 0.22415103 -0.6426963 -0.07640843 0.43463463 0.93877584 -0.38726157 -0.65125036 0.99059296 0.8341124 -0.060474794 -0.58590776 0.53410804 0.52868277 -0.19651312 0.34234586 -0.9718204 0.6877734 -0.07502734 0.76865023 0.5444577 -0.3838816 -0.51391864 0.30528596 0.8339139 0.07137584 -0.08149627 -0.90321016 -0.7343499 0.8903282 -0.2058585 -0.022048775 -0.6415946 -0.25731373 0.24468124 0.22671326 0.44817308 -0.2099169 -0.17382407 -0.4568019 -0.8815338 0.8750112 -0.3059467 -0.75564426 0.96028924 0.12647244 -0.29093325 0.8139817 0.9197592 -0.11657786 -0.22755398 -0.030569607 0.6029843 -0.3627478 0.27146965 0.43703747 -0.15829419 -0.009692554 0.01865008 -0.34242162 0.53890365 0.24830307 0.7147598 0.9361952 0.93348545 -0.30399308 0.87151086 0.7073134 0.12975939 0.8173716 0.71747744 0.95865434 0.16059336 -0.4872411 0.31448674 0.05870413 -0.012368158 0.13203077 -0.71495086 0.03771183 -0.17964837 0.2577642 0.031021511 -0.29174787 0.69419014 0.04158293 -0.6593775 -0.6339621 1.0142769 0.10544317 -1.0011666 0.5478784 0.73823345 -0.28996062 -0.43744987 0.954996 0.87944573 0.7785012 0.060108062 0.9201729 0.7104152 0.62379354 0.016134746 0.8808515 -0.70161694 -0.2511071 -0.6388569 0.35783038 0.09961686 0.748216 -0.8367781 0.337281 0.82390356 0.40192685 -0.99055904 0.07355102 -0.032112394 0.9299344 0.15347657 -0.30951944 -0.19717985 -0.5106647 -0.70294607 0.8562592 0.0772889 -0.2180983 -0.67383164 0.36718813 0.11695299 0.112516925 -0.94335467 -0.6599916 -0.57953966 -0.16788825 0.5732292 -0.8565961 0.36831367 0.2790178 -0.5773878 -0.374045 -0.15789464 -0.4902844 0.44329932 0.9808347 -0.14060709 0.8702629 -0.21340598 0.8913475 -0.0878112 -0.8454748 -0.021122323 -0.9527541 -0.0123278005 -0.6428845 0.76130867 0.906003 -0.75952035 0.20580275 0.18421818 -0.99249387 -0.11858722 -0.5025517 0.85847425 -0.7705077 -0.16807723 -0.1360796 0.0173675 -0.6076417 0.53647304 -0.33558628 0.42722446 0.076770626 0.22037326 0.8578392 0.97981477 0.63673246 -0.0047758087 -0.9298613 -0.9181466 0.10345335 -0.6347607 -0.54092926 -0.93284976 -0.47869822 -0.47217116 0.5594543 -0.87429225 -0.5230106 0.7226508 0.63777214 0.6934224 -0.1454008 -0.7074357 0.29475296 -0.8289743 -0.05201447 -0.23910743 -0.07773 -0.7749787 -0.5367693 -0.3266722 -0.6257358 -0.6868028 0.84541464 0.5173118 -0.25629616 -0.6671314 0.8233882 -0.16133273 -0.64523834 -0.13710359 0.8202228 -0.8753244 -0.93923837 0.9266583 -0.7898225 -0.7369087 0.71900785 -0.12078184 -0.7043565 -0.8819051 -0.38103065 0.85689133 -0.7598527 -0.49592343 -0.73178697 0.30170897 -1.0436572 0.37546077 -0.41229895 0.8441862 0.2209398 -0.9769504 0.9735786 -0.8652933 0.6103979 0.62860656 0.1318516 -0.057599213 0.6116085 -0.36783192 0.78510904 -0.15157698 0.7309789 -0.017538674 -0.9280187 0.3138539 0.18896742 0.41142386 0.34833288 -0.9288199 -0.08324051 0.6750726 0.62658626 -0.4512339 0.23668914 -0.5373027 -0.15031143 0.30192834 0.030714948 -0.22698589 0.9092447 -0.793997 0.57855856 -0.77276146 -0.9036742 -0.44916308 0.37631696 0.05168649 0.2118291 -0.70379204 0.96230274 0.96031123 0.30612063 0.94573337 -0.8545129 -0.124413334 0.39204967 0.35855678 1.0073142 0.13152349 -0.9411423 -0.70879334 -0.87611014 -0.35359272 -0.669154 0.346796 -0.00669306 -0.59438676 -0.8375758 0.8187306 -0.88936967 -0.31960937 0.0053959163 0.977794 0.6888787 0.11547742 -0.7966093 -0.054263264 -0.9375403 0.114339784 0.92211396 -0.11980274 -0.5618906 -0.67817 0.26569203 1.0084641 0.05247424 0.23058508 0.16811232 -0.505466 0.95430464 -0.48845267 0.45430028 0.0036986629 0.11387624 0.08961541 -0.34634998 -0.8568517 0.97342956 0.3755096 -0.5854757 0.19018711 1.0029178 -0.7444699 -0.7466969 -0.6559028 0.7378871 -0.27499536 -0.28119475 0.26131013 0.6428686 0.92672753 0.6226046 -0.30519593 0.40239212 -0.76568276 -0.37981087 -0.38683683 0.92341393 0.117096275 -0.805759 0.3202051 0.5356107 0.10956615 0.63919806 0.29280013 -0.86288357 -0.22907814 0.52499115 0.04764093 -0.83598197 0.27137533 0.1918291 -0.8462253 -0.7183895 0.8432015 -0.15214834 0.18575126 -0.24771768 0.10116174 0.89284337 -0.90050197 0.9963464 -0.55195427 0.19519703 -0.29115945 -0.3368991 -0.01820332 0.29110473 0.25601774 -0.4078436 -0.67672205 0.843986 0.08992678 0.9418741 -0.02468331 0.45949838 -0.66590786 -0.3289726 0.97536343 0.40973043 -0.8573347 -0.49695286 0.12791161 -0.0629747 0.68325233 0.39256358 -0.3418449 -0.44687602 -0.20923893 0.3584254 0.5256576 0.14450422 0.40531197 0.47826192 0.24013114 0.49927288 0.59223944 -0.84138024 -0.7192178 0.74744993 0.90528363 -0.35187665 -0.40712288 0.66574025 -0.39686912 0.31003076 -0.44879586 -0.6466969 -0.076820925 0.37883097 0.44505885 0.5148448 0.15191026 -0.5109479 0.009380568 -0.66538155 -0.45654035 -0.44110116 -0.7299067 -0.91618854 -0.8769204 -0.06908578 0.91294324 -0.09814501 -0.8722846 0.50665724 0.18455747 -0.67580557 0.4629457 0.8909595 0.014799742 0.74873185 -0.7201208 0.6496246 0.9653298 -0.9034307 -0.82206464 -0.2444717 -0.19413167 0.60320127 -0.28923967 0.77777785 0.91404414 0.9513165 -0.84818745 -0.010202557 -0.7115212 -0.47302005 -0.5636308 0.4812229 0.7409555 0.8587529 0.9148472 -0.44929022 -0.06734613 -0.3160133 -0.25505698 -0.45772007 -0.722563 -0.53463614 0.07389585 -0.8458814 -0.9588528 -0.6139315 -0.4556395 -0.33717877 -0.30320808 0.6097046 0.52262384 0.5225103 0.18390082 0.45520198 0.62144095 0.011984299 -0.82007426 -0.073469855 0.52481425 1.0387076 -0.6204434 -0.46228316 0.8384211 0.11375711 -0.41737068 0.9070062 0.6012654 -0.5860403 -0.17452629 -0.33696535 -0.91171676 0.6455609 -0.3358451 -0.62929213 -0.7733974 -0.31006745 0.16044962 -0.06733864 -0.8712547 -0.47495127 -0.81501025 -0.56556666 0.18705994 -0.9521639 -0.5866468 0.94494736 0.39349565 0.025093367 0.85836196 -0.041094813 0.07603825 -0.67018735 0.013041908 -2.4474732E-4 -0.3716811 0.59140104 0.6429388 -0.78037804 -0.92868936 0.90305895 0.110223114 -0.02384929 -0.63744986 -0.50119764 0.59219456 0.30566218 0.07154983 -0.5047326 0.91492957 0.113082275 0.15924418 -0.36150867 0.7958477 0.8053174 0.9351223 -0.33465603 -0.31445405 -0.07878725 0.21492407 0.87253 -0.3963468 0.40693977 0.020479992 0.9727018 0.5476861 -0.11650831 -0.70539457 0.79858774 0.09233898 -0.107262716 -0.12823728 0.8578435 -0.9456153 -0.36845163 -0.38080364 -0.72664994 -0.003940422 -0.24771568 0.15043616 -0.7242121 0.19427909 0.4562603 0.528134 -0.15196455 -0.6098004 0.42012605 -0.24006352 -0.9845689 -0.09940817 -0.18713221 0.43494838 0.82260936 0.02855585 0.69680756 -0.09759147 -0.24070713 0.33809465 -0.03072879 -0.1028172 -0.052844785 0.7373993 0.053640768 -0.42535782 0.6089902 0.60543597 -0.7940407 0.4156354 -0.15315981 0.69243944 0.9379407 0.3592165 0.17039959 -0.86054444 -0.937971 -0.22876826 -0.18857339 -0.23410791 0.23310949 0.392271 -0.20815276 0.7318778 -0.74052626 0.71398383 -0.52277356 0.5662357 0.115760736 -0.99422204 -0.4240802 0.070142336 -0.7697869 -0.8427042 -0.18195124 -0.8833261 -0.7480176 0.8362194 0.76215464 0.5180915 -0.61403567 0.0042524817 -0.8089781 0.6585576 -0.81828773 0.39811328 -0.23744625 -0.29554507 -0.9538714 -0.9403498 0.07960388 0.38772076 -0.9099444 0.51191276 0.400038 -0.109719574 -0.89082175 -0.10671588 -0.24269038 -0.9913152 -0.6692287 0.07063986 -0.4729376 0.93629324 0.8494455 0.24366914 0.83349496 0.21562901 0.17620751 0.61653084 0.123046204 -0.8788608 -0.903495 0.2607709 -0.12698388 -0.9973335 0.5635248 -0.08693403 -0.84771365 -0.8899879 0.8380247 -0.30273438 -0.051598337 0.8348969 0.3612165 -0.54451483 -0.58433014 0.23466425 -0.6274085 0.73876905 -0.9228483 0.20478971 0.43245935 0.1574446 -0.41458684 0.65044194 0.5147725 -0.4897994 -0.74302715 0.3235056 0.97863513 0.9129112 -0.9140788 0.029381111 0.8584258 -0.5409153 0.6771531 0.9880451 -0.60583365 -0.53064674 -0.8799401 0.61391675 -0.47181597 0.7755279 -0.48295647 0.60698605 0.5796281 0.6951742 0.19051018 0.18418929 -0.33296472 -0.20864497 -0.34747568 -0.8339337 0.34585875 -0.6407633 0.45112315 0.42501765 -0.40009546 -0.9685419 -0.16689894 0.5043914 0.7273134 0.029111642 0.28522646 0.78714025 0.60884535 0.87643486 0.84773 0.31118163 0.34182125 -0.82855064 -0.36852193 -0.38417324 -0.5991537 0.7739052 -0.6929134 0.24185294 -0.884996 -0.0670041 0.034424428 0.55838054 0.8358195 -0.5981421 -0.8510428 0.13788205 -0.4889182 0.43965673 -0.7740147 -0.7279053 0.007007213 0.21485214 0.9287517 0.7131549 0.49158666 0.9940998 -0.5092409 -0.5930507 0.23392814 -0.0384764 0.35799876 0.048440956 0.9565942 0.6058209 0.30046734 -0.006796768 0.4476258 -0.24443796 -0.89156055 -0.058386672 0.1475582 -0.5712855 0.3730085 -0.4209406 -0.7252466 -0.7450511 -0.31132358 0.8828979 0.56083196 0.92904735 -0.75064725 -0.38457438 -0.83413047 0.3350774 -0.09958541 0.86803955 -1.00274 0.0629577 0.1576383 -0.84359986 0.67752343 -0.5591745 -0.61085516 0.36799806 0.58004683 -0.59930146 0.70927674 -0.26974222 0.18251486 0.54425913 0.20695439 -0.96352625 0.18187864 -0.7717194 0.6767508 0.82314944 -0.33053356 0.05686946 0.3592072 -0.21381374 0.24377844 0.0015228109 -0.60245484 0.86949337 -0.10181564 -0.14504077 0.44614375 -0.22263527 0.46088353 0.47790253 -0.14349368 0.14171107 -0.24650453 0.7078909 0.13757521 0.57132465 -0.10061652 -0.6172686 -0.39127028 -0.5104417 0.26704165 -0.74582714 -0.7760342 0.06843719 -0.90957177 0.04754407 0.7858492 -0.893603 -0.38889337 0.9223176 0.3001417 -0.88814837 0.61152005 0.82560873 0.53980273 0.459823 0.64729345 0.8157639 0.8654812 0.90921974 0.69656575 -0.6785296 -0.6777373 -0.92847013 -0.7954663 -0.26276794 0.30372712 -0.6812478 0.78956366 0.42014357 -0.88317937 -0.6745333 -0.5071853 -0.8867967 -0.4501196 -0.89315027 -0.0036876425 0.8900876 -0.93869096 -0.10211524 0.16188672 -0.4808341 -0.034058534 0.29983482 -0.22224265 0.660041 0.24284828 0.39309692 -0.9304737 -0.057914924 0.7038164 0.13048747 -0.030995838 0.026186828 -0.93593335 0.7074637 -0.60188925 -0.9089492 0.74156076 -0.8543574 -0.8316243 0.93938535 -0.21553485 0.84057254 -0.8951675 -0.79679424 -0.9131099 0.24168879 -0.48502854 0.23536703 -0.22741348 -0.76043355 0.05097175 -0.27910095 0.16556536 0.82571876 0.19325964 0.19516213 -0.03149672 0.24821067 -0.87591416 0.5978656 0.15828867 -0.26061702 0.056206148 -0.13585833 -0.03254065 -0.6830733 0.50989026 -0.71618676 -0.47083575 -0.95404726 -0.07180618 -0.9004201 -0.49022713 -0.38164318 0.093196265 0.6184846 -0.8334622 -0.32632986 0.6995203 -0.66326827 -0.38027343 -0.15106492 -0.0792335 -0.2536327 -0.26598042 -0.8337011 0.024516907 -0.895897 0.17758425 -1.0038531 -0.39987588 0.9186277 0.48073775 -0.3387256 -0.07184459 0.38726237 -0.9715032 0.47151166 0.7770175 -0.9003997 0.39518297 0.04295794 0.4010994 0.09200161 0.69011927 -0.9798846 -0.11883061 -0.33144566 -0.8018639 -0.6827727 -0.4162845 -0.32015097 -0.12188373 -0.7795561 0.11191359 0.17306337 0.3872342 0.45574716 -0.10541203 0.86346483 -0.24988407 -0.8629424 -0.8557611 -0.9447973 0.16077541 0.89221597 0.7770581 -0.70050865 0.3356803 -0.9609563 -0.52075016 0.6554754 -0.08191536 0.1772025 -0.57563287 0.31793186 -0.15764548 -0.40965527 0.013822606 -0.42273903 -0.2465547 -0.12311235 0.80529857 0.72410756 -0.5222163 0.7384828 -0.4589625 -0.7452518 -0.42265588 0.535312 -0.17531726 0.8009057 -0.61016697 -0.3928719 -0.49494985 -0.8139806 0.9523405 -0.49105757 0.68984526 0.5927207 -0.810464 0.3606302 -0.42241818 -0.15872371 0.66572607 0.77848846 0.035857532 0.12720989 0.5335149 -0.99079156 0.38893893 -0.03649945 0.23295853 0.90387094 0.17764434 -1.0340945 0.88190246 -0.1498473 -0.3024875 0.015106732 -0.22286583 -0.28957638 0.757512 0.26237896 -0.5435605 0.5949542 -0.44817296 -0.5392615 -0.34173915 0.63137394 0.15050408 0.029217504 0.5653572 0.9193073 0.20287389 -0.19252674 -0.59533364 0.97684175 -0.58621275 -0.56674904 -0.724465 0.15566738 0.20569278 0.6819877 0.7083706 -0.030170476 -0.43567365 0.625695 0.8146282 -0.062602326 0.15554433 0.3359405 0.66581666 0.6594178 0.20812485 0.35509446 -0.08028345 -0.6663153 0.5121664 0.15927806 -0.81658465 -0.14397775 -0.41463304 -0.06387977 0.3660092 0.18420239 -0.3048226 0.4032203 0.011270586 -0.71851766 0.60156137 -0.10599987 0.4884611 0.9853317 0.6986773 -0.40294477 0.43536237 0.8853558 0.060367215 -0.35950622 0.45649016 0.05905066 0.014804469 0.6802009 -0.6373597 0.57377577 0.54165864 0.86442167 0.20703354 -0.67495596 -0.48702624 -0.042685933 0.89345026 0.48719695 -0.95453644 0.03735183 -0.116948545 0.053848766 0.114814706 0.412673 -0.21833038 0.27122483 -0.8580318 -0.5050523 0.27982044 -0.32056937 0.35484475 -0.18790892 -0.08592918 0.94378096 -0.2946478 -0.67287296 -0.67913055 -0.72366863 0.28093064 0.48482898 -0.36757582 -0.6278964 0.2760086 -0.22959647 -0.41725978 0.44229966 -0.29646513 0.7629443 0.28758037 -0.7034117 -0.31999156 0.0090207895 0.7843967 0.67991966 0.23774692 0.83155394 -0.05478662 0.19010197 -0.75747687 -0.79506576 0.70906615 0.53489333 -0.8062074 -0.78101563 0.80002457 0.88772064 0.8460482 0.18161137 -0.2296734 -0.1093344 -0.52088344 0.7761791 0.7208095 -0.4025503 0.026703771 0.7358873 -0.9558752 0.15428045 0.09244543 0.56322235 0.80868983 -0.7725723 -0.6368075 -0.2308189 0.76798004 0.90707684 1.0049677 0.5761283 0.15501526 0.90251696 -0.36826187 -0.82166195 -0.5722582 -0.7192353 0.652716 0.34974614 0.715199 -0.29969978 0.15849535 0.72026104 -0.80041397 0.40757796 0.7820621 -0.54017353 -0.14354965 0.6902919 0.57454014 -0.5425882 0.38091722 0.37606323 0.23151606 0.004547934 0.54813296 -0.6252147 -0.4504323 0.058019675 0.535516 -0.81738335 0.058574025 -0.075743884 -0.9781588 -0.5668399 -0.10647693 -0.31739223 0.2795884 -0.34482917 0.39729342 -0.3433922 -0.012670256 0.70535403 0.15279008 -0.8934881 -0.07616073 0.9610923 0.5558929 0.17459226 0.07754124 -0.29838216 -0.95317924 -0.3869477 -0.94307524 0.7466139 0.058518734 -0.7937153 0.26080248 -0.7971676 -0.07559192 -0.694138 0.6742493 0.4679431 -0.057296246 -0.8949376 -0.33496183 -0.11279359 -1.0261123 -0.8778201 -0.39457184 -0.0026589683 0.18452628 -0.6990522 -0.882164 0.2858284 0.5077255 -0.90518874 -0.37080848 0.65687186 0.7653632 -0.5316327 0.20515051 0.5054235 0.41475692 -0.39851364 -0.21463831 -0.70297474 -0.76988256 -0.6960933 0.5411085 0.10835642 -0.44502842 0.7396089 0.70645666 -0.60671216 -0.7912262 -0.32105535 0.107993595 0.3235776 0.5135676 0.41919315 0.8193585 0.43872604 -0.02640867 0.21401875 0.9872329 0.52867204 0.43883464 0.83751994 0.93422234 0.60742325 -0.3437059 0.19396925 0.76288414 0.35105348 -0.39298505 -0.10923758 0.5785138 -0.27974302 0.5985405 0.75693315 0.22490633 0.88102245 -0.15194063 -0.53290343 0.12645443 -0.9597851 0.5431309 0.99716586 -0.34106508 0.932973 -0.22526516 0.6970205 -0.66405994 0.16431622 -0.74164397 -0.89195836 -0.6519241 0.9575581 -0.7363969 -0.0672197 -0.1620353 0.19526094 0.3200246 -0.062328085 -0.36059138 0.32764727 -0.7253846 -0.9530997 0.9012267 -0.9257119 0.65307003 0.50559026 -0.54615396 0.69848764 -0.53748316 -0.40221885 -0.16293459 -0.48189676 0.11750779 -0.62097657 -0.9037302 0.4826292 -0.079353884 0.05216568 -0.19908346 0.16598469 -0.7285149 -0.49483928 0.09703396 0.36093014 -0.31165597 0.53056943 0.11919469 0.2584258 0.29042643 -0.5511467 -0.495508 0.33115608 0.77443814 -0.95673317 -0.31456065 -0.39994517 -0.4034169 -0.6328098 0.8085028 -0.24635932 0.32623008 0.052597642 0.45744652 -0.18988554 0.7548767 0.68422425 -0.31449896 0.5399452 -0.72054833 0.12274469 0.1691027 0.8211606 0.45955023 -0.93050146 0.58173877 -0.6596382 -0.19206455 0.04331373 -0.14631297 -0.699651 -0.2159247 -0.54049426 -0.9512475 -0.030000431 -0.56085616 -0.24777797 0.45191836 -0.49340487 -0.6017273 0.52450794 -0.8752816 -0.86491925 0.811361 1.000923 0.6659152 -0.75172794 0.8953498 0.9481716 0.7938786 -0.63369936 -0.6102234 0.6553652 -0.89125884 0.7101314 -0.4005719 -0.44620654 0.8279783 0.9216788 -0.71634376 -0.08333441 0.81147695 0.9091409 -0.75948435 -0.008923644 0.48978332 0.45691702 0.13201666 -0.7706228 -0.8818443 -0.25134125 -0.43704098 -0.41363114 0.78704154 0.97716063 0.050529268 0.09010948 0.5741624 0.27886865 -0.82406324 -0.7512389 -0.46778402 -0.46469516 -0.6691591 0.26201445 0.4521778 -0.6823103 0.78902775 0.436405 0.60687274 -0.3519743 0.20046708 0.39828542 -0.82046205 0.84814155 -0.92328805 0.11575706 0.3057752 0.3501306 0.29513875 0.62675124 -0.40594164 0.039136656 0.43005818 -0.1198533 -0.26268554 -0.5040069 0.66028947 0.043064702 -0.87067574 -0.3802364 0.80849546 -0.72263026 -0.48941478 0.43448278 -0.021126384 0.39803877 -0.39844495 0.1091817 -0.2516431 0.22801152 0.64027077 0.34897456 0.100394554 0.19076294 -0.08600496 -0.9767464 0.6152427 0.27142274 0.864952 -0.5537544 -0.1184177 -0.84420604 -0.974237 -0.31229192 -0.11280659 -0.3512456 -0.13448556 -0.37172604 1.0062417 -0.38026017 -0.096948236 0.4882001 0.44721872 0.44931406 0.022516003 0.40009415 0.22238418 -0.55136734 -0.5304641 0.21770933 -0.55097735 -0.35175464 -0.24905317 0.2856382 0.3561158 0.9825749 0.32689533 0.107508875 -0.1873143 0.39509854 0.29574466 -0.069259666 -0.16756666 0.6829654 -0.14323449 0.4197212 -0.26084447 0.033542868 -0.49895483 -0.7249105 -0.23575905 0.6645716 0.78285515 -0.0931545 -0.8890856 0.7082498 -0.9276419 -0.6167186 0.75459814 -0.95983845 0.11366689 -0.6497802 0.88920975 -0.19940148 -0.29505005 0.14121082 -0.31447572 0.6363687 -0.5043924 -0.75477004 -0.79998136 0.114465356 0.096863225 -0.38264772 -0.88287085 0.17534582 0.999228 -0.20231383 -0.63022447 -0.25310203 0.91587216 -0.53917056 -0.16004305 0.42352095 0.5881847 0.62712324 0.106061615 0.580933 -0.9313673 -0.77070063 0.06985633 0.82913125 -0.5515163 -0.6180415 0.118227795 -0.20980641 -0.020853689 -0.0065537468 -0.99196196 -0.7424568 0.5387525 -0.9202663 -0.18608868 -0.85234267 -0.42726442 -0.8863179 -0.5972493 0.20682633 0.79216343 0.7555379 0.7163242 0.14229216 0.16747826 0.57891005 0.55700856 -0.24505652 -0.19424261 0.55803764 0.45865065 -0.17241757 0.68131953 -0.5704002 0.06396443 -1.0071954 0.45960528 0.31889227 -0.114333 -0.15269397 0.22871387 -0.083619334 -0.1579075 -0.8809549 0.88974726 -0.24529974 -0.37758532 -0.08635564 -0.48746276 0.05056614 -0.406912 0.3122658 -0.9596387 -0.3757106 -0.14056079 -0.6541475 0.042957887 0.59997874 -0.4565649 -0.27668056 -0.9032642 0.65033716 0.6628875 0.5838071 -0.21648476 -0.07966221 -0.6219352 0.40067303 0.7462672 0.073977984 -0.3151007 -0.5673486 0.92804104 0.47544888 -0.19187535 0.7409682 -0.09285507 0.28943953 0.1514639 0.39907822 0.6916271 -0.40320504 0.7808383 0.7080137 0.42153016 -0.09616289 -0.55998147 0.56283057 -0.26093447 -0.99007064 0.16522868 0.6455826 -0.6253985 -0.20952678 1.0004703 0.52630067 -0.009913321 0.01296096 -0.36165428 0.18642658 -0.37690958 -0.43673074 -1.0127541 0.3299989 -0.1824469 0.33409297 -0.497216 -0.36315095 -0.48430762 -0.26723182 0.46741053 0.32517815 -0.5139089 -0.22888833 0.04657022 -0.26153794 -0.65114206 0.7604857 0.4129626 -0.13741606 0.335601 0.10554474 0.8639933 0.18110913 0.17397135 0.6332785 -0.8642696 -0.82633364 0.6028741 0.19292895 0.7093338 -0.6377732 0.11619077 -0.6993176 -0.96220946 0.5019315 -0.3082484 0.8954017 0.32604817 -0.41085958 -0.5826468 0.73168 0.19914715 0.76064396 0.40711647 -0.71235645 0.6911521 0.56556153 0.6761049 -0.84277934 -0.7373319 -0.5578539 -0.09389028 0.7558767 -0.16623732 0.09304782 0.76603466 0.5635826 0.8560514 -0.5210299 0.21591705 0.6304271 -0.3700172 0.71851164 -0.20159012 -0.3747774 0.5739406 -0.4455265 0.051681772 -0.37877518 -0.35206628 0.95568156 0.086991735 0.093612246 -0.5462122 0.88992876 0.28009188 0.417407 -0.2515855 -0.43475422 -0.74336505 0.74797904 0.48788884 -0.98148483 -0.6765702 0.10309258 0.22291093 -0.22153789 -0.8571391 0.5960635 -0.59176654 0.057962302 -0.9148937 -0.10221431 -0.4815475 0.81434834 0.50524884 -0.36143926 0.910439 -0.5626152 0.8166745 0.2613966 0.6128407 -0.22484212 -0.22958928 0.4873292 -0.13010606 -0.428026 0.10602071 0.39834666 -0.880771 -0.56574273 -0.714155 0.6882982 -0.014473921 0.0123146195 0.46234113 0.029063905 -0.14122432 -0.4649418 0.4518796 -0.83850473 -0.3540027 0.63879067 0.6362973 0.65510035 -0.32515162 0.9434602 0.45902327 -0.5720182 -0.5248517 0.36163756 0.7657908 -0.026701294 -0.49123928 -0.65704644 -0.102908425 -0.990711 -0.9587854 -0.9577818 0.09970106 -0.5271798 -0.29709277 0.70008385 0.34162837 -0.08809409 0.53907454 -0.7495896 -0.4881653 -0.118331976 -0.32445502 0.5924822 0.12926374 0.50077546 0.10200151 0.62500525 0.37796187 -0.080285154 -0.48067346 -0.32011673 0.76677656 0.8279387 -0.9520416 -0.5773733 0.596131 -0.81734014 -0.5982297 0.12134484 -0.043058403 -0.5606479 0.06132491 -0.7415715 0.42582434 -0.9573905 0.086060375 0.30680275 0.21756516 0.6671947 -0.38408726 0.31311607 0.47346315 -0.2920855 -0.6025318 0.050952267 0.9748603 -0.5207988 0.5872742 -0.64381605 0.28105125 0.8196232 0.33766934 -0.30271378 0.47103634 0.4905098 -0.24794932 0.37441924 -0.9847018 0.20199469 -0.81710577 -0.30667457 0.45533872 -0.7074024 -0.69805443 -0.9002861 0.33109248 0.35751158 0.8463181 0.019158224 -0.21042411 -0.87032485 0.16072653 -0.0137612745 -0.59802103 -0.8550822 0.15097743 0.48748213 0.46764964 -0.05130703 0.78997475 -0.6182973 0.30711725 -0.3461584 -0.7826855 0.21529925 0.3423616 -0.60986906 0.37287018 0.6313038 -0.035746135 -0.024654958 0.90590924 0.06535368 -0.40363082 0.47760633 -0.32572103 0.19105613 0.2170838 -0.12014599 0.9350992 -0.7562146 -0.009516157 0.13231221 0.92156047 -0.18085265 0.21419923 0.87355024 -0.7203539 -0.40054414 -0.03344164 0.506055 0.49727073 0.6921632 -0.9236751 -0.90835553 -0.17934205 -0.632119 -0.5990225 0.8735606 -0.089803234 0.015547605 0.25159243 0.058342483 -0.55239916 -0.028909419 0.5239778 -0.01304583 -0.94170713 0.20341687 -0.55484784 -0.025553342 -0.5038683 0.48028937 -0.3385272 -0.16060941 -0.5217284 -0.74598867 -0.834615 -0.836294 0.88149905 0.17594102 -0.4292672 0.536352 0.54527056 -0.6829816 -0.73685694 -0.91096216 -0.08063164 0.7670107 0.96720797 -0.07107044 0.6340024 0.5151973 0.74462783 -0.9165417 0.51631576 -0.67792946 -0.3127111 -0.5851666 0.34812906 0.4827427 -0.89689463 0.6995372 -0.8132157 -0.32234308 -0.13801192 -0.37781885 -0.08702731 -0.29963195 0.3102353 0.8092304 -0.13525762 0.5030506 -0.6177064 -0.33225176 -0.7441217 0.13695632 0.6324791 0.14444189 0.63733983 0.19030207 -0.89125574 0.02697994 0.01267057 -0.2859588 0.07373699 0.2529889 0.34728345 0.7641986 -0.6527536 -0.41858676 0.80478865 0.008658916 0.47558102 -0.51840407 -0.29908043 0.30067772 1.0011684 -0.8799172 0.1315678 -0.6084485 -0.5992794 0.64774966 -0.37992007 -0.73213345 -0.5797411 0.2931362 -0.7739407 -0.32592848 -0.38848418 0.38974887 0.4817878 0.7939507 0.52135825 0.7253087 0.33048913 0.94265836 0.74996424 0.42336598 0.52274966 0.47466683 1.0474457 0.49994132 0.2571559 -0.8739985 -0.6378105 -0.15174192 -0.9184052 -0.1374173 -0.8853743 0.58691615 0.6416839 0.78489274 -0.92265385 0.40592524 0.52016234 -0.285092 0.94443846 -0.20179924 0.6373762 0.62912697 -0.37042984 0.31177142 -0.8930435 0.64640623 -0.503684 -1.002869 0.9330383 0.9455568 -0.31366286 -0.33950225 -0.7074839 -0.17167911 -0.5492863 0.24221267 0.5895739 0.7952438 0.59719265 0.012828715 -0.7175403 -0.95180935 -0.55602825 -0.51533437 -0.84014696 0.74230194 -0.16408837 0.90294045 -0.94285 -0.25239322 0.9673037 -0.27196813 -0.408786 -0.7385889 0.26665816 -0.49482468 0.11072039 -0.0070996424 0.22785382 -0.41555542 0.09720035 0.9318416 -0.47943768 -0.87724537 -0.54821813 0.26983747 -0.47505307 0.9946662 0.079076685 0.98866594 0.921303 -0.36803013 0.64346164 -0.29980057 -0.4465385 0.4509558 0.97461253 0.22723311 0.848821 0.17136642 0.54688936 0.40410978 0.43847537 0.6887971 -0.22185339 -0.44909137 0.86674094 0.9017114 0.7486686 0.056729216 0.083834074 0.31227547 0.7276965 -0.7557266 0.9834041 -0.7427115 -0.5233088 -0.28841814 0.7570801 -0.84116703 -0.6131181 -0.06981288 -0.36182377 -0.7921306 0.51573074 -0.80435735 0.6202418 0.5007143 -0.242535 0.58827716 0.94588286 -0.1524374 0.7199091 0.29220644 -0.4227625 0.98908126 0.44554284 -0.8147456 0.81649196 -0.74309385 -0.82975364 -0.9228823 -0.6031601 0.03624809 -0.30341396 -0.55755216 -0.85138094 -0.7914909 -0.06672051 0.71105343 0.47923613 -0.8380238 -0.88581127 0.44564822 0.521332 -0.80048 -0.1985411 -0.15225995 0.76842254 0.3715382 0.25822175 0.22282141 0.9450716 0.6058125 0.23420233 -0.48695883 -0.57905644 0.6502286 0.93940955 0.8594502 -0.77393407 -0.15576155 -0.94751203 -0.56308204 0.26230618 -0.52032524 -0.92578137 0.9886239 0.002444619 -0.18728323 -0.6974273 0.19705038 0.23129374 -0.5374393 0.75821143 -0.24816334 -0.81400543 -0.2430116 -0.3597137 0.71906376 -0.050350487 -0.10299527 -0.10321189 -1.0093147 -0.68964976 -0.9870188 0.50495505 -0.88387895 -0.37496126 0.79744816 0.83418447 -0.8241061 0.15376543 -0.3113336 -0.18667878 0.7912802 -0.7101777 -0.22388563 0.10059215 0.32397607 0.078232914 0.43591282 0.14212286 0.3904292 0.2740574 -0.5024629 0.4056722 -0.5495613 -0.079248324 -0.10267287 -0.951186 0.82229215 0.09969716 0.017639505 0.5794336 -0.50835735 0.12144046 -0.98172516 -0.24956472 0.16139576 -0.7491655 0.80684525 -0.5987236 -0.75145453 -0.6832954 0.8847946 0.9475312 0.4371828 0.2425261 0.2675884 -0.74251944 0.72536385 0.8645429 -0.2904862 0.7851609 0.91191995 -0.09987793 0.5434456 -0.9582283 0.4042018 -0.6982419 -0.4138365 0.6859121 -0.13596012 0.02339726 0.18132949 -0.25840917 0.5345322 -0.21093877 -0.8369857 -0.23717396 -0.26382428 1.0274996 0.7425994 -0.2606233 -0.8637332 0.1594708 0.7755773 0.38298592 -0.5605654 -0.16275886 -0.85766655 0.3768141 -0.7813993 -0.56856996 -0.46444488 0.5212206 -0.5629555 -0.87380457 0.45750132 -0.024848495 -0.008500373 0.16252348 0.36918777 -0.1012113 0.7676618 0.32838723 -0.6656416 -0.2528218 -0.8806181 0.41535723 -0.3607899 -0.39629054 0.74796265 -0.25512853 0.5752726 0.94284046 0.21664645 -0.1836244 -0.06771452 0.6655195 0.13171045 -0.2860792 -0.046066683 -0.12272796 -0.07180857 -0.18199307 -0.025720354 0.82357717 0.07688363 0.18611845 0.6329734 -0.28128266 -0.7128424 -0.62903607 -0.9019205 -0.54749286 -0.029606337 -0.83759224 0.7529516 -0.45418838 -0.279761 0.75820905 -0.80924803 0.751237 0.84994453 -0.6189318 -0.5719373 0.8073799 -0.036822766 -0.08246086 0.60976833 -0.1024943 -0.24815203 -0.62825525 1.0996411 -0.44169554 0.7552235 1.007035 -0.31652182 0.42975596 -0.41780612 0.72736454 -0.74443173 -0.3484982 0.38094726 0.644038 -0.703384 0.909636 0.65351355 0.7696326 0.17323938 0.8362861 -0.3795517 -0.6829513 1.0049969 -0.5754396 -0.77758354 -0.6149949 -0.39389095 0.25682414 -0.74860126 -0.9114889 -0.9289915 -0.4321779 -0.106206514 -0.59084105 0.47272378 -0.3649951 0.6722275 -0.7639983 0.62687904 0.63965935 -0.5780132 -1.000726 0.7949701 -0.4644134 0.85965025 0.3705795 0.31087086 0.18441157 0.46165904 0.5960118 1.0302697 0.47940493 0.81567293 0.11183755 -0.93083733 -0.28717646 -0.026550313 0.9507384 0.28072864 -0.51544297 0.9456186 -0.985129 -0.6599818 -0.43005538 -0.2965604 0.08655725 -0.0859949 -0.38934955 -0.63350135 -0.67515457 -0.041563153 0.52942955 -0.13664502 0.15960191 -0.9463105 0.11787261 -0.8561105 -0.34057674 0.88283783 -0.43515933 -0.52660716 0.26202232 0.4142965 0.6928763 0.115742035 -0.21839459 -0.7622909 -0.71482015 -0.5466753 -0.61998427 0.103581935 -0.98245627 0.93071204 0.848899 -0.4567241 0.5723958 -0.4679237 0.48626322 0.5279604 0.83745456 0.07254348 -0.47119856 0.36236086 -0.18696743 0.43939906 0.8462757 0.26351604 0.011973661 -0.31673875 0.51133 -0.27851796 0.5607276 -0.27052397 0.9819247 0.042353027 -0.7264894 0.394185 -0.43138456 -0.010023784 -0.7698102 0.21064185 0.11043796 0.305389 0.7452382 0.5546271 0.4262572 -0.7008213 -0.87921983 0.66551787 0.46898237 -0.46007288 -0.25960058 0.4932902 -0.44755572 0.33285663 -0.21100217 0.24350998 0.013662604 -0.48525894 -0.0815813 0.9336514 -0.35889196 -0.94468164 0.7388229 0.88730794 -0.8135432 -0.22564234 0.719003 0.5715835 -0.7573342 -0.45275584 -0.16197152 -0.34010375 0.6747582 -0.17321476 -0.16023597 0.9102561 0.31263256 0.8627854 0.011428217 -0.44666833 0.12602685 0.12000421 0.96984524 -0.19095351 -0.34558246 -0.84299386 0.045235116 0.15322612 0.4988972 0.16489063 0.9431274 -0.22427665 0.5677598 -0.55019337 0.1094057 0.9017683 -0.101715125 0.73386866 0.45737135 -0.699152 -0.5609497 -0.54643863 0.19117168 0.50462806 -0.56229997 -0.26516435 -0.4931829 0.5207027 -0.7135281 -0.91296375 -0.34905505 -0.03310147 0.12215152 0.1204321 0.852132 0.8456546 0.9952073 0.06833286 -0.952586 -0.6865885 -0.8400831 -0.7371897 0.13785745 0.13974136 0.5378675 -0.24268498 -0.9657261 0.6358207 -0.3737724 0.97869563 0.19928677 -0.7428469 0.044784024 -0.92018944 -0.6296604 -0.368743 0.894347 0.8740094 -0.2141115 -0.8086089 0.7298393 -0.29197857 0.5439005 0.75875956 -0.011868061 -0.06971434 -0.44043237 -0.7789811 0.23754744 0.6715951 -0.24036448 0.3152336 0.76290864 -0.7937085 -0.58292496 0.45343614 0.866049 0.31163186 0.68203354 0.31640407 -0.4808106 0.88014764 0.27655962 -0.642283 -0.73845994 -0.5138282 0.3853252 -0.8516303 0.181712 -0.59323514 0.58861524 -0.8143113 0.6954204 0.85033524 0.79146594 -0.90762097 -0.15577069 0.012041536 0.19093502 0.67956144 0.06034594 0.37912342 0.62361175 -0.057146456 -0.8606161 0.79742163 0.9610662 0.5714875 0.32307014 -0.41969082 -0.06541736 -0.018741537 -0.015262756 -0.344957 0.048668627 -0.8932172 0.7959556 0.87801206 -0.51876175 -0.37689948 -0.006582963 0.022575479 -0.2110901 -0.43434134 0.9845 0.65002644 0.63693047 -0.47850052 0.8519838 0.05840894 -0.17508495 0.2604488 -0.5832301 0.671623 -0.020890523 0.88884974 0.648121 0.37467352 0.933775 -0.7756449 0.5648507 0.62173516 -0.66634256 0.53716487 0.6201343 0.38471267 0.22324792 0.34939882 0.21420859 0.31671512 -0.9170891 -0.84005696 0.92076206 -0.24408044 -0.2264746 0.096022986 0.30215675 0.6335535 0.11472982 0.46229336 -0.44111967 0.69360584 0.2627647 0.2362516 0.4432071 0.7386135 -0.44106564 0.9418526 0.3924544 0.08990767 0.2022252 0.77739877 -0.8726573 -0.042887807 -0.9397587 0.12391597 -0.32279444 0.67001486 -0.3258394 0.14713104 0.72128177 -0.30316982 0.8181129 0.51859534 0.548748 0.2873853 -0.05592877 -0.12595767 -0.56812775 0.51721895 0.92032045 -0.11980158 0.10293921 -0.21861185 -0.69391906 -0.72769994 -0.69477624 -0.7625807 0.86486334 0.40871763 -0.42363033 0.7825945 -0.017694559 -0.26553306 -0.6271577 -0.79920363 0.78470093 0.13725507 -0.47958535 -0.4391962 -0.10281609 -0.6565837 -0.40007403 -0.11324993 0.044304486 0.9617847 0.98711765 -0.7576232 -0.048209377 0.52588713 -0.70870954 -0.47810137 0.33161214 -0.6032847 -0.66275346 -0.08375586 0.62994695 0.36500552 -0.76883364 0.58797276 5.478568E-4 -0.35436812 -0.7565075 0.57192254 0.29904604 -0.5556024 0.5660925 0.62095904 0.34787384 -0.3956013 0.032967396 -0.45688435 -0.8544302 0.03707342 0.6869094 -0.62290335 -0.49897346 0.89941597 0.06503968 -0.54206985 -0.8122333 0.22874083 -0.7359932 0.9305574 -0.95872545 -0.5259132 0.24723797 -0.80085415 -0.22880903 0.8556047 -0.85371697 -0.6182237 -0.093252346 0.28622952 0.87249416 -0.011798314 0.42951897 0.9520555 -0.73297477 0.2229038 -0.40912572 0.4802079 -0.4974054 -0.83897114 -0.32964486 -0.51735824 0.09272303 -0.84357464 -0.94692993 0.7671117 0.92755026 -0.79721785 -0.04739228 0.36702323 -4.7128694E-4 -0.21159214 0.9971952 -0.6316724 0.34533107 0.4969801 0.85342544 -0.6464141 -0.26443708 -0.68552876 -0.266769 0.0150984265 0.5052128 -0.62418616 0.56309456 -0.6832095 -0.91106164 -0.6078883 0.22224413 0.79918444 -0.19051825 -0.5193735 0.76587373 0.047612812 0.29878297 0.6737655 -0.7967016 0.27114433 -1.0032737 -0.7133677 -0.52104753 -0.4864906 0.6031253 0.393414 0.7868854 0.068804495 -0.6405603 0.5634375 0.5265438 -0.90200204 -0.53304803 0.13979733 0.7361553 -0.994001 0.7388191 0.802033 -0.8922463 0.15100726 -0.25118396 0.37661353 0.6747469 -0.5485672 0.46788552 -0.9249551 0.02717653 -0.8044195 0.39304355 -0.1341684 0.40585843 -0.76837397 0.602598 -0.6679725 -0.79317605 0.8337101 -0.20477907 0.7310985 0.46930555 0.6263941 0.42651394 0.88693297 -0.8675401 0.8163581 -0.711998 0.8381343 -0.7565781 0.35786295 -0.6587047 -0.22502306 -0.91777825 -0.06078696 0.8821535 -0.34357578 -0.28079003 0.5399246 0.8382363 0.24145827 0.57401675 0.759268 -0.9464749 0.48963165 0.82692164 0.39948824 0.76254445 -0.8435968 0.7452353 -0.3301534 -0.31102315 -0.34658346 0.3319433 -0.06926974 -0.74216 -0.9563475 0.173364 -0.081150606 0.8303167 0.5478837 -0.43007573 0.25112614 0.22872336 -0.6651539 0.089442596 0.10525026 0.0981412 -0.7749328 0.8978426 -0.58729327 0.5390149 -0.5210371 -0.5552196 0.82911843 -0.20577057 0.4300469 -0.7840223 -0.4360579 -0.8535139 -0.052394837 0.02053057 -0.46109062 -0.03655393 -0.5123158 0.5166447 0.27968878 -0.7787404 -0.25716564 -0.78587985 0.21861932 -0.01975491 0.5307388 -0.20300941 0.49766752 -0.90595716 0.070157155 0.7028243 0.09319963 -0.42479417 0.16161178 0.83810014 -0.71339464 0.50102955 0.76084185 0.02828385 0.22113422 -0.85556394 -0.5730812 -0.78163254 0.03554535 0.099000774 -0.3736525 0.11611377 -0.44526607 0.006487664 -0.7969159 0.9333395 0.7378247 -0.6592911 -0.028937047 0.055542 0.55597055 -0.4050716 0.9020592 0.88949 -0.2702518 -0.56116736 -0.57498425 0.7890381 -0.9523221 0.91479325 0.47667387 -0.20806475 0.5451264 -0.20093858 0.56782156 0.15265907 -0.53322643 0.1638668 0.24088843 -0.793767 0.010517704 -0.67637175 -0.25741383 0.33496967 0.67641264 0.11374204 -0.77548 -0.021917552 0.97379166 -0.4448172 -0.22647846 -0.89440167 -0.5945391 -0.81549335 0.1965514 0.7529881 0.6483173 0.7190732 -0.7465473 0.47963256 -0.51844454 -0.9383896 -0.18179545 0.7346646 -0.641922 -0.21771312 -0.46021503 -0.11310061 -0.46535802 -0.60065687 0.91753274 0.22733328 0.52314717 -0.41383615 0.06133561 0.5546962 -0.62223345 -0.5847004 0.54642624 0.26911783 -0.2862276 -0.91681665 -0.8056867 0.273521 0.4694932 0.11430848 0.08693834 0.58487827 0.93898547 -0.13244005 0.7903017 -0.60632837 -0.6290859 0.0042805793 -0.61987114 0.37634978 0.734554 0.9274141 0.094416164 0.79034096 -0.36023116 0.58558136 0.52316594 -0.20070007 -0.336245 0.3618234 -0.8103484 -0.8259645 -0.9294372 0.49240208 0.12107373 -0.4452623 0.82189643 -0.35607362 -0.4175739 0.39884996 -0.07705863 0.46255797 0.29252648 -0.34192264 -0.5364095 -0.93718725 -0.28853208 -0.50309277 0.5838725 0.4380506 -0.24800056 0.9848475 0.6713445 -0.9494713 0.95742804 0.96082306 0.2839973 0.39555442 0.6843808 0.73052526 -0.43790388 -0.47392586 -0.72312343 0.68732333 -0.9766413 -0.60485244 0.4826715 0.80243486 0.41108522 -0.4760107 0.86757845 -0.6832096 -0.47727478 -0.95790106 -0.53935033 0.2532021 0.8486719 0.525698 -0.21735455 0.31813493 0.014976678 0.94053936 -0.73495024 -0.7359451 0.0014655717 0.74849516 0.8816679 -0.39773917 0.75723296 -0.97973454 -0.65039515 0.51658034 0.21577327 0.93587863 -0.61929446 0.075912245 -0.24663372 0.48170328 -0.2041086 0.9038223 0.089941196 0.89747703 0.42802384 -0.20030254 0.22462206 -0.769031 0.01379507 -0.62048304 0.12262796 -0.51735145 0.80191344 -0.6462275 0.9822381 -0.80082834 0.42715183 0.41811857 -0.5806004 0.26007974 0.34990248 -0.49771494 -0.84611624 0.3092571 0.3698033 0.4115073 0.45398885 0.46666223 -0.5130901 -0.6623009 0.81385785 -0.56448245 -0.21801098 0.45558676 0.9240583 0.32593703 0.2099647 0.9597455 0.3130611 -0.32397372 0.38218695 0.16617785 -0.5534154 -0.4480547 -0.7721274 0.94436914 0.36676583 -0.24583612 0.2335823 -0.7487909 0.46630147 -0.11386501 -0.17470922 0.05710421 0.25408858 -0.75709575 -0.6434477 0.67668676 -0.012196189 0.9832145 -0.22436541 0.94361323 -0.43010947 -0.8847575 -0.8939437 -0.1840698 0.57686216 0.5103742 -0.4610332 -0.50960296 -0.35466126 0.4178409 0.7954512 0.16859671 -0.7039621 -0.04846488 0.8378224 -0.8831084 0.40020415 0.42323658 0.18704529 -0.47288743 0.97390056 -0.87222993 -0.6645288 0.09132054 -0.035612054 -0.72698736 -0.9694946 0.9873838 -0.34187487 -0.39506626 -0.9417978 -0.50934196 -0.16253082 0.106586665 0.6768746 -0.96033156 0.10399728 -0.3712967 -0.47575754 0.72740996 -0.61842614 0.3671714 -0.38030267 -0.57609844 0.30791053 1.0080104 -0.9087351 0.8059243 -0.19473763 -0.47479984 0.6018929 0.2505997 0.3147332 -0.07071281 -0.5696602 -0.7717986 1.0179275 0.89731926 0.7941726 0.6123643 0.8787662 0.2852744 0.7041207 0.5216733 0.45218164 0.18250099 -0.63024235 0.82321465 -0.6809943 -0.65747494 0.82424533 -0.11364616 0.79966265 -0.56437343 -0.07350544 -0.21678798 0.81508946 -0.18709524 -0.139182 -0.49372023 -0.88071203 0.84480536 -0.57909125 -0.33641776 0.79141676 0.53284484 -0.4010092 0.8225592 -0.84560126 0.7885867 -0.8941301 0.53771216 0.9466046 0.68282896 -0.48431045 -0.05269281 0.5479761 0.22452834 0.74910814 -0.46284974 -0.8961071 0.4864249 -0.3663136 0.65012556 -0.5683368 -0.23737358 -0.01211708 -0.5615991 0.23822096 1.0010965 0.10691053 0.9964306 0.04437195 -0.8473175 -0.47199154 0.24289024 -0.82874304 0.75928545 -0.85595906 0.20452085 0.12137434 0.90553945 0.55690897 -0.5575386 -0.16695014 0.904352 -0.7267629 0.18070126 0.436815 1.0006186 0.80225265 0.27524152 -0.56619287 -0.6969057 -0.09423994 -0.3279878 0.15855902 -0.40810257 -0.3189294 0.26553547 0.83468443 0.55276316 0.40281215 0.49744174 -0.7676554 0.72859335 0.18349393 -0.51505107 0.2289255 0.575334 -0.3083522 0.4267427 -0.8555051 -0.9037239 0.84882015 0.07103145 -0.7995495 0.10524429 0.30806416 0.16794959 0.46585113 0.40093675 0.29461366 0.15817672 0.11887848 -0.6095092 -0.7518709 0.75475585 -0.5921235 0.16931497 0.04565263 0.41775692 0.31909648 0.18565579 0.30625284 1.0054077 0.76027316 -0.2788927 0.22979003 0.44182482 -0.8718769 0.3040464 0.17841716 -0.24761474 0.5642933 -0.36205614 -0.983839 0.6112693 0.7551968 -0.3080386 0.22357836 -0.85784566 -0.70880044 -0.40978745 -0.08082782 0.5454993 0.8655258 -0.6716798 -0.5880993 -0.33268994 0.22823031 -0.7062132 -0.62192005 0.4772946 -0.1769831 -0.10860713 0.41745356 0.777668 0.4025774 -0.6733442 -0.73348874 -0.645361 0.47153473 -0.68702507 0.9635745 0.41643062 -0.47110945 -0.16813132 -0.43116704 -0.73700184 0.6317372 0.3939376 -0.3318182 -0.4270133 -0.9247879 0.8707533 -0.80461055 0.85789 0.9822053 0.07130253 -0.77496773 0.30922073 -0.8363369 0.7733715 0.01998023 0.14373733 -0.10685641 -0.58360434 0.5349447 -0.22659852 0.3275677 -0.4388873 0.75330245 -0.36890092 0.585682 -0.3672144 -0.42875984 -0.21148425 0.66440636 -0.9729028 -0.8088311 -0.44882968 -0.28684244 -1.0113015 -0.4934917 0.08082604 0.55546206 -0.8943312 -0.5346548 0.55002433 0.66961485 1.0073886 0.7378127 -0.7900815 0.11813888 0.02453965 0.036596008 0.6924037 0.13553314 0.20322616 0.95404226 0.68820214 -0.4364944 -0.6045198 0.64253163 -0.74371755 -0.502587 0.18955567 0.9631845 0.011135824 0.23291087 -0.12738892 0.8447342 0.36590675 0.5017487 -0.67813534 -0.74750245 -0.86699677 -0.5618385 0.3776306 0.7162364 -0.21751139 0.19003578 0.6474564 0.9511589 -0.6191524 0.98117596 0.16545053 -0.41958123 0.97690755 0.9047424 -0.9809919 0.20800179 0.8778738 -0.96129566 0.7677777 0.47552493 -0.08799019 0.6205408 0.73437154 -0.088496186 -0.7023557 0.3026766 -0.40574452 0.21672708 0.3990743 -0.62575805 0.8655231 -0.6193168 -0.15359095 -0.29104576 0.82294726 -0.10075421 0.12388698 -0.2178477 -0.28519112 0.60199887 -0.18821351 0.045856692 0.56112957 -0.7778778 -0.3146297 -0.48578566 -0.32450473 -0.6658274 0.7609101 0.10197337 0.5077938 -0.67880225 -0.5065744 0.5878011 -0.5026857 -0.5593513 0.3304657 -0.35436046 0.196303 -0.14460953 -0.83581 -0.66734976 -0.06342595 -0.11681318 0.048361607 -0.6714322 0.68607146 -0.53911775 0.44520062 -0.09091852 0.7676105 0.02718828 -0.78560895 0.956594 0.15266953 -0.6324974 -0.60539365 0.99861526 0.861769 0.17405419 0.08429366 -0.3111862 0.53409624 0.39443833 0.90887547 -0.20953591 -0.0018567895 -0.35316306 0.013155445 -0.4617896 -0.23995274 -0.96068907 0.698828 -0.26575613 -0.30525607 -0.69287837 0.8080398 0.71355045 0.07204847 0.9711499 -0.94281244 -0.060942736 -0.43491983 -0.7294006 -0.3211281 -0.90629125 0.7130914 0.41917405 0.093987525 -0.62088436 0.578681 -0.7064617 -0.6105277 -0.021978542 0.15918462 0.26841947 -0.0055774287 -0.694392 0.7277518 -0.104078464 0.13911387 -0.10772637 0.8722531 -0.7831046 0.31757474 -0.24394792 0.919632 -1.0847263 -0.28491956 0.90585715 0.26071212 -0.08246584 -0.20311473 0.75912076 0.3855617 -0.350869 0.47394806 0.91563183 -0.29060468 -0.18627499 -0.33092743 0.10349039 -1.0069647 0.5584576 -0.5952167 0.26371142 -0.5755307 -0.64534014 -0.84112227 -0.7538705 0.12085473 -0.62222236 0.8181294 0.6607812 -0.5929274 -0.56945753 0.012189774 -0.27667013 -0.92956275 -0.9649911 0.09714588 -0.844233 -0.568192 -0.9628283 0.186469 0.054710228 -0.63234913 0.31335512 0.763786 -0.4401293 0.8873671 -0.013382076 -0.14250013 -0.5220994 -0.24203928 0.39061266 0.8005444 0.61209637 -0.3291707 -0.8970141 -0.4373259 -0.13860181 -0.8029676 0.3183887 0.866298 -0.36651498 0.38203713 -0.08387641 0.11587449 0.5636681 0.58521736 0.57091504 -0.34090114 0.7616133 -0.70417094 -0.4391544 -0.32720917 -0.02325572 -0.9055231 0.0984735 -0.41122946 0.083639614 -0.39390498 0.6867655 -0.37182412 0.10327779 0.03802629 -0.39232492 0.20962076 -0.45210806 0.71933186 -0.042389613 -0.8208065 -0.17776597 0.64285696 0.40382528 -0.17296916 -0.36867622 0.045957673 -0.39461267 -0.79767954 0.6403294 0.62282467 0.414256 0.7994744 0.9659364 0.53549844 0.07972077 -0.14509217 -0.07448416 0.57249665 0.3788579 -0.73131 0.68248844 0.25023475 0.7517922 0.4992881 -0.84966934 0.7384742 -0.43310133 -0.51530284 -0.64538634 -0.86266834 -0.7307552 -0.5080347 0.22795448 -0.41321898 0.666587 0.2938588 0.94468683 0.36085138 0.6612553 -0.7210358 0.054325894 0.87703776 -0.18327427 0.82701457 -0.59996825 -0.7280505 0.37582254 0.3494734 0.45211524 0.047575038 0.43882802 0.9083695 0.802295 -0.025889216 0.22259076 0.3313081 0.10801853 -0.412691 0.6575433 -0.90362936 0.8477079 -0.7682072 -0.9510696 -0.20048486 -0.24858573 -0.89773947 0.6922514 0.6260115 0.8541261 0.76707053 0.60414803 0.017434577 -0.15919374 -0.4671672 -0.5934584 -0.46948865 -0.39991316 0.5199415 -0.13558932 -0.14832948 -0.24879174 0.74469525 -0.62641084 0.48034507 0.41076374 -0.5836757 -0.42028385 0.49306574 0.079055704 -0.041823428 -0.18173866 0.8818404 -0.27334958 -0.021768948 0.8956489 0.08027306 0.027510392 0.11042942 -0.58618385 0.22049153 0.13154079 0.46068496 0.51745456 0.8066983 -0.70797694 0.19895077 0.9074763 -0.6274338 -0.18106233 -0.044702467 -0.13810675 -0.21024549 -0.023389133 0.1846578 -0.20965317 -0.0065303766 -0.8924658 -0.0063292244 -0.08644319 -0.14450218 0.15890557 -0.20965181 0.6425276 -0.6320416 -0.24640815 0.2797354 -0.4748006 -0.31385946 -0.2064147 -0.13544348 0.87182295 -0.29775187 0.2002292 0.86386067 -0.42831627 -0.35966882 -0.86619765 0.9604789 -0.03084802 -0.055731885 -0.47869644 -0.77256215 -0.7931585 0.4652326 -0.29840955 0.9014361 -0.1848238 -0.74620414 -0.050651316 -0.12585475 0.34804997 -0.3054982 -0.80714357 -0.28640985 -0.95173126 -0.5426435 -0.7279994 -0.6416364 0.4324281 0.4585655 -0.4979562 -0.31307477 0.18259877 0.6670773 0.9705745 0.4533587 0.62750363 -0.9056549 -0.66222924 0.73083615 0.7531676 -0.9196233 -0.7079408 0.5681615 -0.96814376 -0.9507799 -0.040581502 -0.67803895 0.031247975 -0.16159378 -0.7543129 0.276401 0.64824146 0.15748641 -0.8911921 0.19403872 0.70869124 -0.16151187 -0.2510931 0.44072872 -0.025344333 -0.7083169 -0.13671438 -0.7535698 0.19879657 -0.69923353 0.78754616 -0.4228082 0.8975854 -0.6854733 -0.7643378 -0.919731 0.72010607 -0.12530603 -0.4361777 0.68741935 0.4065171 0.8315996 0.08100705 -0.56056577 0.4465043 -0.818746 -0.5370976 0.14046948 0.9183245 0.2605885 -0.24819155 0.64925545 0.85125023 -0.075695656 -0.8595563 -0.9368814 -0.5492878 -0.42301863 -0.78497386 -0.65318525 -0.008000605 0.18214384 0.011961659 -0.75538427 -0.43843094 -0.90428084 0.3101311 -0.872967 -0.080877066 -1.0086924 -0.7361816 -0.67133236 0.43701366 -0.019589774 0.5407294 0.08156481 0.6597245 -0.59883004 0.70873666 0.4951888 -0.08824818 -0.877834 0.41627574 -0.7528655 0.29094225 -0.8254627 -0.33378604 0.2976279 1.0321075 -0.95442355 0.9267667 -0.79968363 0.18395922 0.64628375 0.19899462 0.44092122 -0.8568308 -0.38672128 0.7284567 -0.048612073 -0.84630746 -0.53664523 -0.841645 -0.65318006 -0.8911127 -0.020874292 -0.53664017 0.33306164 -0.56171566 0.7412398 -0.7935595 0.19518645 0.5886261 -0.72350895 -0.006383346 -0.5155665 -0.5921783 0.4830264 -0.90047187 -0.6499063 0.65834427 0.11726861 0.12319127 0.3549193 0.28788352 -0.31343466 0.82832825 0.6888971 0.79427683 -0.4068434 0.11364749 0.7938893 -0.9657044 -0.6365699 0.77921623 0.27613437 -0.14178382 -0.92210406 0.44905642 0.16108969 0.5451242 0.5448597 -0.13675697 -0.2495469 -0.39257666 -0.8342653 -0.29875427 -0.64541304 0.88489145 -0.22788164 0.030583354 0.17726316 -0.28476867 -0.7555645 0.06987562 -0.20229474 0.32890734 0.917729 0.9586958 -0.80927616 -0.69362736 0.16646968 -0.297764 0.34861282 -0.08864551 0.6522712 0.37613687 -0.67664206 0.8663739 0.18069045 0.76922923 0.56658137 -0.7844838 0.12557608 -0.10908527 0.9094651 0.59455585 0.60179543 0.9961169 -0.42227224 0.64277744 0.19605532 -0.98082006 -0.36999393 -0.15586045 0.33810586 -0.80094105 0.14683418 -0.14154461 -0.32149267 0.058659486 -0.892069 0.7516373 -0.5265942 0.80609804 1.016716 0.4719003 -0.8162519 -0.060190737 -0.32745898 -0.6571556 0.73745483 -0.3115173 0.12080233 -0.36923817 0.51636654 0.223327 0.71329033 -0.0551866 0.98819053 -0.7624236 0.44765308 0.83395797 0.19210252 0.7303832 0.33754483 0.9725455 0.8627847 -0.83157164 -0.47321692 -0.6299356 -0.14068061 0.31156027 -0.13346438 -0.74341184 0.5718294 -0.4755469 0.89124763 -0.25850934 -0.08265004 -0.6900107 0.9478276 -0.26137358 0.016737442 0.10202832 -0.38088986 -0.78513485 0.6128045 0.56509197 0.639834 -0.2385413 -0.3480715 -0.7737171 -0.9986774 0.7227258 -0.09263412 -0.09664158 -0.89660746 0.94700634 -0.8139644 0.21897896 -0.6396442 -0.71022004 -0.16824402 -0.7082675 0.043180812 0.58697754 -0.38545614 0.2676037 0.41083223 -0.06304531 -0.25544256 0.5092459 -0.009289205 0.37874028 -0.5065709 -0.87349457 -0.56530476 -0.4649663 0.5538075 0.3831029 -0.19243954 -0.74939615 0.22952391 0.20900407 0.7030843 0.9355132 -0.8928484 0.9742583 0.8045824 0.4666055 -0.8486587 0.25591686 -0.30733374 -0.2806313 -0.20912482 0.65744966 0.6862261 0.6009348 0.2838947 0.23897855 -0.74634886 -0.43946534 0.70146316 0.266853 0.9169658 -0.9052272 -0.6194393 -0.77485245 -0.917016 -0.0032003676 0.3636546 0.6581598 0.48642522 -0.14683315 0.6488034 -0.53627837 0.5733401 -0.5208208 0.67404747 0.38691455 -0.8173216 -0.056435656 0.7000391 0.51180357 -0.43360302 -0.7332306 -0.4468042 -0.06271204 -0.34718385 0.18056016 -0.53238195 -0.050375003 0.6802928 0.4560301 0.7251372 0.3689968 0.14641026 -0.14315912 0.76027447 0.76631665 0.20292987 -0.017025594 0.0035298236 -0.122901596 0.9427202 -0.60941225 -0.5494604 0.27242097 -0.009052015 0.31266394 -0.87488157 -0.79656935 1.039061 -0.45800677 0.99296826 -0.4149639 -0.15936464 0.53093636 0.3082684 0.04098707 0.36129072 -0.735124 -0.85103077 -0.3043084 -0.3462816 -0.14879675 -0.33395818 0.82766294 0.6125894 -0.90933245 -0.7505696 0.095830135 0.39481214 0.80990934 0.67603606 0.05472272 -0.14307149 -0.8680177 -0.9695325 -0.27156812 0.55001175 0.23956023 -0.51099384 -0.8654745 0.13463303 -0.37366596 0.13831612 0.8517149 -0.7923869 0.28414205 -0.3778941 -0.37124318 -0.32541296 -0.91955805 -0.80710924 0.4990982 -0.1381578 0.7934928 -0.22805125 -0.083182864 -0.4295538 -0.65068936 -0.09515096 0.7236207 -0.30404165 0.4450641 0.37889647 0.4581222 -0.29875892 0.6409565 -0.5183571 -0.5309445 -0.34373054 0.7529494 0.3360761 0.08397175 0.15900585 -0.326696 0.94007134 -0.39523074 0.23053668 -0.85955346 -0.39507967 -0.4326205 -0.382586 -0.11814706 -0.10775509 -0.20751254 0.17919561 0.73726296 -0.93145305 -0.77495223 -0.7906581 0.4295522 0.43048975 0.30579406 -0.46021095 -0.8299131 0.059453707 -0.7845708 -0.43590504 0.4609035 0.667266 0.9441287 0.8164857 0.35720047 0.73590183 -0.9017995 0.16083936 0.13603882 0.23815493 -0.4217713 0.017965194 -0.06331489 -0.04681893 -0.16623054 0.3902789 -0.34347314 1.0256927 1.0603402 -0.35744885 -0.6033036 -0.34508368 0.906474 0.5499524 -0.4703079 0.4076053 0.48369604 0.10867708 0.06339744 -0.13730454 -0.12802155 -0.7812696 0.043571386 0.31798396 -0.8322379 -0.19780004 0.424733 0.05659329 -0.59064466 -0.26079893 0.15239513 0.40232083 0.2529308 0.030614804 -0.46950826 -0.26933888 -0.92720485 0.9652608 -0.9337312 -0.9364074 0.439355 -0.036659498 0.8211933 -0.26815426 -0.07662124 -0.4418522 -0.47357526 -0.20493095 -0.9585117 -0.15495121 0.5057248 0.38873598 0.5551241 0.42499128 -0.16104954 0.2427022 0.8555164 -0.18346578 -0.8681319 -0.207972 -0.8251189 -0.673452 1.0563476 0.3192833 -0.12888548 0.6952174 -0.9354559 0.026374191 -0.015478334 0.60167044 -0.37956262 0.93989193 -0.43727157 -0.14821811 0.8587203 0.75932145 -0.08154426 0.7000769 0.92927957 0.13498762 -0.09111796 -0.062625594 -0.20359524 0.29313567 -0.17061742 0.014198882 -0.9105044 0.3484956 0.1440786 -0.21051632 -0.1898405 -0.066382885 0.7711759 0.8168891 0.9220927 0.42487764 -0.57199925 0.20919399 0.6981612 0.81303394 -0.5912774 -0.379537 -0.65689087 0.023098724 -0.30273485 0.41746625 0.25044513 0.11740844 0.48193488 0.784041 0.0061303386 0.48506722 0.54445624 -0.49329665 -0.048822023 1.0110085 1.0243573 0.7152619 -0.7507479 0.8628488 0.03738057 -0.8240751 0.21976131 -0.34952116 0.58648896 -0.5224255 0.07141412 0.096967004 -0.89678144 -0.1389259 -0.66042715 -0.4158213 -0.32647762 -0.8498966 -0.597889 -0.6963697 -0.9186226 -0.2574575 0.98639727 0.41330972 0.09250365 0.12208638 -0.6680808 -0.06693861 0.32208636 0.21772149 0.21101536 0.5564257 -0.7574039 -0.5705633 -0.30217567 -0.6191523 -0.56054085 0.5091069 -0.31307915 -0.6048516 0.3624749 -0.8585694 -1.023318 -0.53904754 0.596686 -0.0048428695 0.427399 0.6093035 0.35640794 0.116570584 -0.88800704 -0.9274185 0.84706277 -0.91914 0.17914242 -0.7943927 0.95010555 -0.7925609 0.13851123 -0.04494731 0.43103495 -0.6453643 0.40601423 -0.24194305 0.6805678 0.9446807 -0.27504396 -0.28239053 0.019519158 -0.3716093 0.7457596 -0.558551 -0.6089199 0.22753555 0.53675693 0.29973602 -0.90786105 -0.62922895 0.97260004 1.0027521 0.9616346 0.9922116 0.10084847 0.22791749 -0.5255976 0.35093844 0.7403796 -0.54701155 0.4973152 0.2632619 -0.1420732 0.8268964 0.64598805 -0.45940036 0.42235813 0.5244942 0.08737055 -0.5800572 -0.26654822 -0.346784 0.20120288 0.17076635 -0.19437999 -0.4862199 -0.7062592 -0.76008624 -0.99625975 0.61036384 -0.15747714 -0.88829404 -0.38529745 0.5206304 0.6758613 0.08215606 -0.9469266 -0.9295611 -0.40249014 -0.7962527 0.60791814 -0.95057493 -0.27515766 0.9457479 0.56103027 -0.26737672 -0.49473238 0.00968331 0.7698777 -0.9529145 0.66461045 -0.19990231 -0.6922461 -0.7085863 0.49641848 -0.64836967 -0.8840514 0.7891276 -0.8424255 0.08801205 0.95950854 -0.5128856 -0.28572205 -0.44655812 -0.0067008142 -0.39410865 0.40782434 0.8947477 0.26038167 -1.0075461 -0.6415051 -0.7736305 -0.986369 -0.31233814 0.7976356 0.98156995 0.6991393 0.70781195 -0.86642766 -0.5509245 -0.07351972 0.26590276 -0.39414856 -0.025498863 0.8070444 -0.87318826 -0.55512494 -0.67594403 -0.7943787 0.9654344 0.08261273 -0.54335624 -0.5551642 0.8996458 -0.42764133 -0.3680156 0.6648574 -0.75581086 -0.13931136 -0.43309835 -0.6926651 -0.93039274 -0.27105698 0.20458916 -0.4717669 0.6113854 -0.22151592 0.78339285 -0.40668452 0.51241994 0.3417831 0.92794746 0.3672838 -0.65779346 -0.43033996 0.094001 0.04392386 0.6819349 -0.19222513 0.190617 0.53035545 0.043518808 0.1705613 0.9332918 -0.64355916 0.7656422 -0.52612513 0.13245752 -0.032949317 0.6575243 0.51700747 0.60592836 -0.18257703 -0.18982589 -0.42639363 -0.4132777 0.56774193 0.38341027 -0.48147455 -0.4587521 -0.5681304 -0.6632151 -0.30809444 -0.4064143 0.07081087 0.8790403 0.52699524 -0.6121694 0.6104288 -0.2063994 -0.38622424 0.9376109 0.18525268 -0.5237623 -0.4713127 -0.58492243 0.62573427 0.3995886 0.26436764 0.119080484 -0.45361182 -0.58251584 0.24530822 2.6518712E-4 0.14931291 -0.31359527 -0.15618482 0.53343266 0.38803875 -0.8571249 -0.77018213 -0.22565587 0.37334147 0.43875882 -0.5098988 0.43554577 0.0028206657 0.8455589 -0.97069424 -0.2481337 0.7168806 0.91908234 -0.838904 -0.35970917 -0.2734098 -0.29720187 -0.41811436 -0.3665613 0.33122692 -0.74603933 -0.84410936 0.9163419 0.55251104 -0.56384516 0.9514465 0.41416013 0.8705632 0.7137723 0.43163425 -0.40529445 -0.5873576 0.31910148 0.8054829 -0.0036414606 -0.50447255 0.72794926 -0.80495423 0.7832057 0.82401454 -0.36123577 -0.93422943 -0.88683724 0.6819868 0.3909062 -0.88019174 -0.13572763 -0.9227044 -0.15515344 -0.08479059 -0.20304075 -0.46978363 -0.1322394 -0.027873654 0.71312803 -0.77868706 0.14868334 0.7204096 -0.017549995 -0.73858726 0.1956279 -0.08892046 0.112064496 0.67733926 -0.0069355923 -0.48068812 -0.15713494 0.3973248 -0.88061076 -0.1598024 0.3062569 -0.60412484 0.17141691 -0.85658336 0.6393764 -0.8193936 -0.16938667 -0.93824375 0.010779768 -0.7831455 -0.96784425 -0.16553581 0.553145 -0.68458515 0.21017769 0.13446091 0.40436637 -1.05496 0.20670706 -0.7398073 -0.19949505 -0.5202027 -0.39917243 0.5803103 -0.039656293 0.9801762 0.21609528 0.001888984 0.76455826 -0.032188255 -0.57191086 0.3866092 -0.61850446 -0.5686515 -0.3171449 -0.41280463 0.8847706 0.07623789 0.51687104 0.11486425 0.4921544 0.28678295 0.62919974 0.22217424 0.8219099 0.9528981 0.68940544 0.79344076 -0.672429 0.14700091 0.45135546 -0.67653054 0.64642805 0.041742798 0.55542964 0.4638018 -0.4831348 -0.556318 -0.38265574 -0.2702134 0.8730312 -0.3045622 -0.5968563 0.7963366 -0.6615639 -0.8387046 -0.5529736 -0.445668 -0.9102736 0.8999033 0.65179455 -1.2618264E-4 -0.0401583 0.60303617 -0.51381844 0.957546 0.7311915 2.8186548E-4 -0.5184842 -0.13219799 0.08737014 0.15976419 0.5616356 0.24853705 -0.6653194 0.9271624 0.053415425 0.51131994 0.82506436 -0.18922287 0.18791144 -0.086592704 -0.03895327 -0.40457666 0.137356 0.3925001 0.6440847 0.18714206 -0.09559841 -0.5278479 -0.637436 0.10322305 0.87745297 0.016402382 -0.22604948 0.22726803 0.5819725 0.30237564 0.36835125 0.18307951 0.38068542 -0.9317118 -0.77695113 -0.4896739 -0.0998816 0.3327851 -0.5539788 0.47509995 0.54506135 0.20248158 -0.44142088 -0.7628112 0.05850988 0.4741842 -0.07303052 -0.056567103 -0.35788718 -0.80136955 -0.68436116 -0.85584056 -0.738754 -0.42487788 -0.63583696 -0.27665105 0.07048529 0.09012577 -0.8967948 -0.51080674 -0.5662597 -0.7559793 0.5413417 -0.007300254 0.98149616 0.3465381 -0.7622459 0.43035948 -0.10585397 -0.9594056 -0.3199633 -0.48214096 -0.47333857 -0.48263377 -0.26473323 0.97675395 -0.52179444 0.5156268 -0.97012967 0.7276499 0.9583044 0.4884023 0.66557974 -0.6853999 -0.41811264 -0.80275667 0.13587299 0.67296827 -0.08232024 0.79392064 -0.9452975 -0.31575412 -0.14860623 0.021835495 -0.20864661 0.89205873 -0.48869726 -0.27030867 -0.4625667 -0.63406664 -0.88943386 0.52835274 -0.8022813 0.38464367 0.26181746 -0.3615578 0.12284231 -0.83192044 0.98334897 -0.8292588 0.31772634 0.5431608 0.107014656 -0.76426816 1.0076028 -0.14069924 0.5482489 0.36425558 0.9835094 0.38129064 0.28242072 0.2430226 -0.7938253 -0.4942642 0.19545428 0.67562866 0.88367397 0.89413685 -0.6134614 -0.12330852 -0.013983474 0.7490139 -0.27723625 0.36200675 0.59743845 -0.69776464 -0.39852095 0.906161 0.47299722 0.13335541 0.6015037 -0.056001917 0.26437506 0.5469658 -0.83625525 -0.6162453 -0.9191663 0.95853084 0.51113 0.4707654 0.77918965 0.6680117 -0.78391385 0.009499013 0.17968656 -0.5422681 0.5751001 0.24543189 0.1072805 0.21690854 -0.12369444 -0.64105505 -0.15058559 0.615261 0.44008008 0.04100381 -0.22501993 0.045716245 -0.46564928 0.67000556 -0.8504698 0.972767 0.76960707 0.53383964 0.28309676 -0.6878354 0.5948095 0.5706286 0.669108 0.21766783 0.36270517 -0.14057168 -0.81945485 0.8241232 0.10966751 0.7574281 0.25474766 0.7073711 -0.33123454 -0.4613047 0.112327896 0.51581097 -0.3932935 -0.59654903 -0.31007776 0.8674467 0.42218733 -0.74338555 0.7449594 -0.27524546 -0.7479166 0.928926 -0.98477876 0.023694683 0.65983194 -0.8603565 0.054411124 -0.40921557 -0.18235727 0.17921232 0.34073275 0.60855794 0.9528316 -0.008449352 -0.36402974 0.9843005 -0.68903947 0.846688 0.068195015 -0.7299495 -0.9787372 -0.37901413 -0.14753878 0.3027839 0.8793813 -0.79734915 -0.5922118 -0.38645363 -0.32256737 0.27112904 -0.20988639 -0.61042166 -0.18408908 -0.629345 0.7856195 0.11412297 -0.21724853 0.28024226 0.9766768 -0.7579754 0.5846812 0.376867 0.8747921 0.48009682 0.8913891 0.9836258 -0.22755596 -0.43765387 -0.5960336 0.91436845 0.6597877 0.16608633 -0.027669985 -0.422506 -0.80841476 0.2512724 -0.590183 -0.5801996 -0.89257956 0.22393721 -0.8754045 0.5021633 0.3565555 0.04166202 0.46143407 -0.73605335 0.22620586 0.560482 0.09576877 0.78427285 0.29526934 -0.26383206 0.99827856 -0.5141868 -0.5504276 0.7741716 -0.6210153 -0.25168574 -0.7188207 0.51442075 -0.07466634 -0.68307626 0.24761505 0.98450905 -0.52555007 0.4407061 -0.98723286 -0.60793 -0.09582612 -0.19928785 -0.7559218 0.0045370106 0.79854757 0.842243 0.3259596 -0.40669465 -0.12582785 -0.9203748 0.44939262 -0.8505606 -0.73453623 0.033280753 -0.04426453 0.4746106 